2682 64
1980 -0.37575814 -0.17876074 -0.44057178 -0.118095696 0.10747187 0.08849827 0.07854331 0.2653175 -0.061419725 -0.15644228 -0.024853252 0.18524845 0.06443077 0.29811707 0.122762024 -0.05683661 0.024167964 0.044059824 0.18701479 -0.16063046 0.30359533 -0.033747774 -0.07482927 0.25929394 -0.44089517 -0.54234153 0.36720866 0.0120782275 -0.020424953 0.085786134 -0.3262395 0.04058222 0.31982896 0.026129667 -0.0057882015 -0.08285579 -0.14361618 -0.052089024 -0.053065117 -0.1553048 -0.2949714 -0.13395669 -0.02486414 -0.1979954 0.06839762 0.20509128 0.27072966 0.07283097 -0.3295929 -0.07608853 -0.046326034 0.3280044 0.117654994 -0.0783633 -0.16495356 0.16361694 -0.09812744 -0.02049307 -0.0149997715 0.003534725 0.44850072 -0.29355296 0.10064878 -0.10395272
1093 0.024661986 0.12805031 -0.17494754 -0.094043806 0.11718217 0.010395732 -0.16297016 0.076065354 0.033771005 -0.0556654 -0.14856467 -0.17394316 0.14413494 0.38431942 -0.26950812 0.0894383 0.22611764 -0.057852723 -0.035797354 -0.31460834 -0.44569707 -0.1578952 -0.31954116 0.006946848 -0.03431668 -0.10127523 -0.030258842 0.076122954 0.09467457 0.34013486 0.07744415 -0.012451993 0.16845362 0.15629986 -0.21081905 0.09717987 0.15552244 -0.103645936 -0.042089373 0.22142597 0.016481578 -0.10954472 -0.47282946 -0.09098377 -0.20611414 0.11857281 0.32344604 -0.10147169 -0.25843066 0.22159639 -0.2189473 0.11347685 0.20432504 -0.38750377 -0.26991725 0.09582435 -0.31008175 -0.43806398 0.24437715 -0.2997304 0.2675092 0.0898137 0.38273308 -0.42062727
1091 -0.13909844 0.07474937 -0.0007227043 -0.0582705 -0.03137893 -0.01443801 -0.009014497 -0.111701295 -0.055126965 0.049159378 -0.19127536 0.0271219 0.31116027 -0.18217836 -0.10902356 -0.21874808 -0.06102736 -0.11436246 -0.0153848175 -0.36793166 -0.3135648 -0.0050126156 -0.058880925 -0.24106345 -0.001876525 -0.2822647 -0.037490353 0.07381006 -0.26974207 -0.08579435 0.23635069 0.47984156 0.34472105 0.25435477 -0.16372493 -0.1343226 -0.033678316 0.07870636 0.026192546 0.18005745 -0.33023676 -0.13958608 0.2690896 -0.3544697 -0.028864339 0.14861076 -0.13829057 0.0989098 0.04082427 0.031346545 -0.028092807 0.20762357 -0.09368297 -0.33798048 -0.5665753 -0.0017703507 0.2705766 0.0032390305 0.22204478 -0.04621595 -0.026944403 -0.43476573 -0.121750765 -0.3889598
1138 -0.008783716 -0.025897508 -0.23296845 0.25017288 0.16215071 -0.2531985 0.096837536 0.046462797 -0.04487496 -0.26850438 0.12987378 0.22679205 0.51541275 0.22476646 -0.3249794 -0.0032303315 0.26007432 0.23661718 -0.1621115 -0.21732992 -0.08365052 -0.2054306 -0.2761845 0.45648906 -0.06848153 -0.011378186 0.13335311 -0.031278815 0.10092604 0.16793789 -0.28969038 -0.04770952 0.10993612 0.28642714 0.109944016 -0.245146 0.010525996 0.22761883 0.13282765 -0.12745062 0.15830173 -0.005933367 -0.0016899419 0.0021471924 -0.25174034 0.20837119 -0.0070110527 -0.09268129 -0.2094242 -0.008760758 -0.27555898 0.015100579 0.088375635 0.103600934 -0.20708781 0.27749804 -0.06497561 -0.18811351 0.018796658 -0.15818566 0.5644647 -0.07460289 -0.1296459 -0.0901388
1264 -0.048131473 -0.1279735 -0.32025403 0.09490507 0.48063153 0.24215953 -0.027805485 0.013069682 0.0008327036 0.07345647 0.079357356 0.02693948 0.116250046 0.38036755 -0.004159175 -0.22703443 -0.03754095 0.07166327 0.07618481 -0.39475074 -0.2736517 0.3528595 0.1033995 0.32897535 0.0137647055 -0.1301473 -0.006735282 0.19454148 -0.13682038 0.21731004 -0.5530274 -0.30340758 0.3919306 -0.01513142 -0.13021532 -0.021989143 0.0376577 0.16 0.03570516 0.45114696 -0.121503465 0.18281144 0.08052803 -0.11415822 -0.47499168 -0.015764551 -0.071359724 -0.09554427 -0.058647458 0.097359374 0.12577626 -0.0718887 0.14035165 0.009237106 -0.4062971 0.17083305 -0.07922707 -0.32597882 -0.074962124 0.012265213 0.14156955 0.26878744 -0.4034114 -0.06645306
2373 -0.03732343 -0.16645022 -0.47242972 -0.045203466 0.0503694 -0.14488332 0.06828051 -0.19520657 0.37377083 0.27674243 0.07150209 -0.13303484 -0.031203335 -0.06563104 -0.07827224 0.2572933 0.17494528 0.23379587 0.124467224 -0.3838733 -0.13812177 -0.17329444 -0.40109712 0.117699765 -0.22995259 -0.21678892 0.10084307 0.03102329 -0.21577631 -0.06986141 -0.45985553 -0.36700216 -0.017603142 -0.013794687 -0.21768695 -0.30742007 -0.3965656 0.05117081 -0.020714978 -0.13869685 -0.29680872 -0.07513744 -0.14074318 -0.104843736 -0.11628663 -0.0045886133 0.22172827 0.24923693 0.02168178 0.034454852 -0.15198034 -0.061047044 0.37878844 0.0077361143 -0.061497804 -0.25982124 0.11013211 -0.06332869 0.3931492 -0.001415279 0.17689873 0.32317704 0.021983296 -0.43122998
1870 -0.38039312 0.039715838 -0.019247618 0.2791886 0.14151467 -0.01872781 0.11036671 -0.012929968 -0.38658756 0.10762998 0.011502397 0.28612378 0.20413297 -0.38046634 -0.038455855 0.034722213 -0.2640114 -0.066795394 0.07529369 -0.1076942 -0.16242644 -0.31670937 0.1352477 -0.1488947 0.21445815 -0.27193284 0.29348475 0.4949437 0.12905966 0.24226457 0.057588607 0.14159182 0.13598016 0.21591683 -0.16329162 -0.027414745 0.021098847 -0.2053289 -0.007037608 0.3653795 -0.27824613 -0.4237219 0.16872603 -0.19168514 -0.084874265 -0.121293046 0.31587997 0.21399565 -0.14198503 -0.06452036 -0.027035957 0.029991092 0.12340407 -0.26174292 -0.6020778 0.008846924 0.2739605 -0.07488119 0.1686741 0.13627109 0.2570755 -0.23043193 -0.28402415 -0.34877533
1558 -0.03469651 -0.0842083 -0.21185412 0.20581067 0.16556568 0.1482964 0.0669187 0.16948311 0.06681682 -0.28622285 -0.17002589 -0.11475195 0.03113284 0.113537 -0.36368623 0.07908742 0.20569192 -0.052283045 0.27898172 -0.21237691 -0.4921015 -0.07330565 -0.047189277 0.30269086 0.031950176 -0.48469362 -0.053319413 0.03843216 0.02288694 -0.06635461 0.26082426 -0.14963114 0.17676798 0.3256233 0.08603494 -0.16764168 -0.031595144 -0.04764752 -0.0027464216 0.32922745 -0.06530046 -0.08149903 0.09512522 -0.12691502 -0.07308917 -0.2155033 0.1210331 -0.0255473 -0.067021735 0.2693805 -0.08248166 0.14605819 0.006416951 -0.23282325 -0.36103988 0.16961226 -0.1359897 -0.6535245 0.2136658 -0.5230857 0.18195161 0.045340195 0.11123634 -0.25618523
1119 -0.44195834 -0.10602993 -0.111230396 0.53133047 0.19936661 0.009255793 0.09699388 0.07949507 0.10179531 -0.27148235 -0.15613681 0.06733952 0.084173806 -0.20272832 -0.09030853 -0.24806759 -0.030024758 0.25103194 0.21927992 -0.5239933 -0.16993721 0.25261316 0.064829834 0.1426718 -0.06322645 -0.020120814 0.3164456 0.21248317 0.026360832 -0.39696303 0.120616384 0.05591552 0.40199056 0.20951143 0.05803418 0.17387374 -0.35013273 -0.14902161 0.25894028 0.15514456 0.07577013 0.00057054433 0.0458458 -0.10503306 0.11663943 0.16308111 -0.16942936 0.20400412 0.15089355 -0.21268217 -0.4618861 -0.1955226 -0.03410193 0.097360656 -0.29744622 -0.025423765 0.015287935 0.17133035 0.42776105 -0.37779355 0.01670915 -0.10501565 -0.08947758 0.15407997
7 -0.057249185 0.14292869 -0.15041491 -0.04903389 0.16030209 -0.10396862 0.017952144 0.0045561236 0.21464 0.24559881 0.16147733 -0.09817655 0.16027455 0.2834826 -0.14415316 -0.36652657 0.104255766 -0.14555702 0.066028655 -0.32221907 0.044102393 -0.1895867 -0.4394119 -0.030371385 -0.21387333 -0.16049461 0.20272523 0.07583731 -0.36363235 -0.08065033 -0.44829482 -0.32283705 0.1990522 0.43099603 -0.08197654 -0.15304835 -0.15733902 0.13891883 0.06515653 0.06304959 0.10191852 0.024488231 0.03706988 -0.097450264 -0.20910355 -0.23165534 -0.15732728 -0.037453305 -0.25467494 0.15809357 -0.3853103 -0.27653596 0.25278515 -0.19676605 -0.021817325 0.0482827 0.032495074 -0.37930825 0.17405553 -0.036541633 0.108554326 0.18414423 0.40784922 0.112447135
1935 -0.2455011 -0.17988136 -0.24908355 0.14560245 -0.21981251 -0.08638353 -0.17288809 -0.29069492 -0.39744064 -0.0836215 -0.032148868 0.068772145 -0.077602066 -0.13142657 0.105920695 -0.29003742 -0.14984633 -0.026474731 0.043431453 -0.3262122 -0.19045964 -0.25723308 -0.13263027 0.13627715 0.066768415 0.15893777 -0.09579754 0.7197424 0.062187575 -0.1486937 -0.09104011 0.28927064 0.027334264 0.09161899 0.0585773 0.18903635 -0.11668718 -0.12940641 -0.08661441 0.33716103 -0.12099376 -0.08789008 0.03903565 -0.044940792 -0.07367146 -0.16128488 0.44352347 -0.019298395 -0.2788119 -0.2768339 -0.08980906 0.2009715 0.32698122 -0.08926257 -0.868812 -0.078058414 0.14255732 0.016503554 0.080622576 0.03022534 -0.060545586 -0.3039716 0.03063993 -0.5434361
2231 -0.22805192 0.44711977 -0.121026844 -0.009174391 -0.07240558 -0.14688595 0.20821178 0.24939276 0.23552841 0.15406585 0.10104532 -0.12902708 0.39497283 0.17542695 0.008833494 -0.33126497 0.13817501 0.019837338 0.21811119 0.045663197 -0.19718559 -0.27673936 -0.31982416 0.44794843 -0.35220677 0.05351462 0.18339968 0.12357791 -0.40128118 0.076588646 0.15683953 -0.10865473 0.43341145 -0.23114797 -0.15463805 0.24557765 0.04675488 0.028230771 0.09953809 0.19778146 0.11330019 -0.040211573 -0.17028211 -0.37287107 -0.34466052 0.028757002 -0.26685664 0.20900895 0.29218292 -0.21868838 -0.10895337 0.041712377 -0.032152172 -0.030151218 -0.3396915 -0.1497667 0.1776669 0.09994373 0.08485648 -0.04286159 0.23895489 -0.025740014 0.13219744 0.18134472
666 -0.33828777 -0.1426183 -0.12096441 0.11963559 0.036101468 -0.040610243 0.24554111 -0.03449698 -0.12673664 -0.12413873 -0.044797685 0.005493097 0.31721702 0.27226952 -0.0603857 -0.033786975 0.29172176 -0.17278136 -0.48572624 -0.355483 -0.28531823 -0.30591086 -0.08850775 0.0012106679 -0.1665861 -0.011398033 0.17257056 -0.103408895 -0.09964656 0.24677812 -0.17500238 -0.19785154 0.19780919 0.11685174 0.07558863 -0.31407434 0.009896641 0.15165399 -0.11759948 -0.1485204 -0.19875634 0.11587529 0.04580302 -0.13596497 -0.011013708 0.013637091 0.117403924 0.12376812 -0.07722459 0.02754343 -0.5325327 0.10088804 0.29320848 -0.09872346 -0.06296903 0.16985877 -0.0005316957 -0.026557256 0.297695 -0.19937071 0.53297156 0.109358214 -0.19162537 0.045751616
1917 -0.23713782 0.281475 -0.29566616 0.09752604 0.027826883 0.12682246 0.061109126 0.20201193 0.05640915 0.121578194 0.049849715 0.048233993 0.27537727 0.45572692 -0.2970644 0.015960341 -0.053721786 -0.037350554 0.0127548585 -0.19825168 0.0039683054 -0.40529653 -0.017300697 0.17959902 -0.1653018 -0.06480021 0.32029164 -0.109321676 -0.2718903 0.18208654 -0.022724722 0.07584949 0.03653286 -0.056024957 -0.20059633 -0.12722446 0.15155333 -0.21265844 -0.23169321 0.033299815 0.12408273 -0.123178534 -0.15025304 -0.046409827 -0.24788918 0.019750923 -0.032917347 0.17018822 0.16066866 -0.040532626 -0.23501116 0.18228173 0.2024554 -0.16935208 -0.3133059 0.28085253 0.28665006 0.029387837 0.0775919 -0.03787039 0.41191292 -0.27791628 -0.1268745 0.023525996
2297 -0.2920617 0.18976031 -0.1530717 0.20336638 -0.1357736 -0.082307376 0.35696584 0.28284243 -0.086075366 0.026758648 -0.00928049 0.055778164 0.27414522 0.028897006 -0.4815261 -0.07105391 0.044618774 -0.41889992 -0.12755525 -0.28471944 -0.20256585 -0.042405896 0.04325682 0.2482817 0.3666856 -0.33112505 0.22007935 0.14073166 -0.07439916 -0.04738658 0.065101966 0.14727679 0.15265317 -0.10091132 -0.1794816 0.13527142 -0.05133291 -0.27827254 0.11464849 0.09111572 -0.18612236 0.040421616 0.07541617 -0.4863338 -0.15827604 0.31179544 0.10272681 -0.13936904 0.021610565 0.24472946 -0.31329456 -0.014626809 0.19210953 0.14120834 -0.081047885 0.15061921 -0.12060159 -0.11099376 0.24821162 -0.5032007 0.32084775 0.13045272 -0.13035905 0.025952127
1760 -0.18882877 -0.031817514 -0.22248511 0.2334755 0.16389428 -0.22704771 0.09490097 0.1524886 0.018730288 -0.393141 0.20205806 0.01562552 0.34212214 0.5192193 -0.1817962 0.13170221 0.05852695 -0.09347823 0.2949717 -0.2790027 -0.09239206 -0.061722077 0.07435171 -0.028484376 -0.2542337 0.14488967 0.14455989 -0.08684386 -0.14881037 -0.1295902 -0.25485557 -0.16220361 0.22994979 -0.1717333 0.1890895 0.21949705 -0.11333002 -0.07485315 0.048228204 0.08917378 -0.025387045 0.106763884 0.04020411 -0.25534916 -0.39146468 0.2072632 -0.21997195 -0.06969908 0.095191285 -0.21262814 -0.3125635 0.21943887 -0.122648254 -0.13976654 -0.15847929 0.24037586 0.19070493 -0.2936996 0.40521386 -0.21727996 0.3518608 -0.047818255 0.042884424 -0.3699889
2638 -0.15519573 0.33556354 -0.26932725 0.11871597 0.060950585 0.013010849 0.25860593 0.4778337 0.5033434 0.07617049 -0.14138952 0.14879367 0.12319593 0.07778223 -0.1800278 -0.05444393 0.15049511 0.09629473 0.042165138 -0.16613272 -0.23219347 -0.06801851 -0.019598013 0.22584662 -0.6640688 0.023490658 0.24278857 -0.044799082 0.09121324 0.2699073 0.21831329 -0.12316662 0.41040277 0.0270512 -0.066694334 0.3106602 -0.20251332 0.08857187 0.089146905 -0.12345823 -0.12292481 0.0032956803 -0.10470956 -0.20669162 -0.13167897 0.053745676 -0.06665665 0.2226707 0.30201796 0.07680956 -0.25858533 0.04811132 0.012811347 -0.050543286 -0.527019 -0.22596468 0.16167894 -0.07993699 0.06538668 -0.05331086 0.11231902 0.047567464 -0.1422419 0.005687167
1541 0.09606459 -0.077578455 0.19302894 0.06781378 -0.22274008 -0.14845489 0.0392113 -0.14758697 0.32896948 -0.030275654 0.053568512 0.03278912 0.029726679 0.25497493 0.0450464 -0.07536007 -0.05838874 -0.08318291 0.24717607 -0.42981848 -0.034123905 -0.14433198 -0.47211698 0.08003686 -0.14057176 -0.031393997 0.23177825 0.1695595 -0.18254288 -0.20481203 -0.71654737 -0.38103098 0.3476204 0.23882559 -0.54155105 0.09528306 -0.21635868 0.35573775 -0.18057656 0.07007989 0.087726034 -0.05220077 0.19645838 0.0916147 -0.14290977 -0.008775157 0.172026 -0.1317742 0.25911337 -0.051520083 -0.12616348 0.11095218 -0.123888984 0.11587464 -0.41125754 -0.09016361 0.12465393 0.11922417 0.00013273035 0.12623857 0.33478215 0.12094393 -0.13105677 -0.0067397323
1696 0.10135911 -0.3551866 -0.07662099 0.14654653 -0.115313515 -0.08276936 0.18757932 0.09195779 0.14556524 0.010291145 -0.008759574 0.10309321 -0.08858413 0.014031532 0.08724495 -0.2396062 -0.045479584 0.030011123 -0.020382099 -0.48825973 -0.3723151 -0.38855726 0.5841651 0.29150194 0.03915706 -0.27302784 0.19274274 0.26864308 0.09411745 -0.24955887 0.13998488 -0.56611633 0.330822 -0.07302953 -0.03621271 0.11271054 0.03640654 0.2994842 0.00084475876 0.056283772 -0.14750412 0.07066962 -0.027233902 -0.35590854 -0.45370314 0.1800824 -0.07627898 -0.17525566 0.049162503 0.10351791 -0.25145465 -0.08217911 0.0927419 -0.2880003 -0.45867878 0.057783175 0.15773624 -0.47466055 -0.0010952034 0.07845682 -0.068143114 0.059191365 0.08395708 -0.14001583
1570 -0.26100042 0.19205883 -0.32093203 0.23089665 -0.0850848 0.12499698 0.073224366 0.3475505 0.007241321 -0.0397319 -0.09822042 0.0063933656 0.16967992 0.30632725 -0.5072855 -0.19020367 -0.008795589 0.0035177823 -0.1638818 -0.031283878 0.14339648 -0.36640784 0.017097533 0.54649377 -0.14231615 -0.0057197004 0.42716953 -0.10387477 -0.09015555 0.16122843 -0.27188003 -0.03802699 0.16271783 0.12551354 -0.17056923 -0.26181075 -0.011212555 -0.049919304 -0.026800213 -0.033437237 0.3066557 -0.09076287 0.038763702 -0.20112428 -0.20514624 0.18260367 -0.09898207 0.01971421 0.22506203 -0.23914677 -0.4908805 0.011987502 0.19624032 0.17269419 -0.16699116 0.06149295 0.35243034 -0.10512951 0.30578926 -0.0061593316 0.23371665 -0.09628145 0.00861923 0.1572883
2574 -0.13254905 0.20291233 -0.19277878 0.053152923 -0.04743737 0.10986484 0.13866022 0.23238122 -0.07845301 0.0009110831 0.087523736 0.2088778 0.086775325 0.28991988 -0.45893124 -0.28094682 0.10565035 0.15354148 -0.020378225 -0.3318449 0.13272808 -0.36947456 0.27066472 0.09281662 -0.16217686 0.19801763 0.30334738 -0.24758096 -0.09324348 0.18990982 -0.208789 0.17971218 0.280726 0.023709811 -0.27778557 -0.0763703 0.16546983 -0.0826085 -0.12511949 -0.06523321 0.16995828 -0.115648925 0.033611435 -0.12556563 -0.2508065 0.10651887 -0.15325652 -0.118456244 0.20972288 -0.24990314 -0.5200718 0.11949726 0.29305327 -0.032254484 -0.18740019 0.07620957 0.054780632 0.03223573 0.24446958 -0.15962614 0.29442915 -0.06865261 -0.27208957 -0.06602615
608 -0.273132 -0.12505592 -0.36525518 0.13011847 0.15283139 0.0055841417 0.02206445 0.06705217 -0.15987383 -0.018268593 -0.13635284 0.23318912 0.1751954 0.24844478 -0.037978377 -0.008783068 0.33808768 0.15481624 -0.04660221 -0.29871395 -0.17436503 -0.15922207 -0.190659 0.017604 -0.14862531 -0.12255362 0.29964805 -0.19813976 -0.17175631 0.26908165 -0.16114455 -0.21969347 0.02916839 0.20979953 0.0363166 -0.45625952 -0.0971736 0.17828363 0.1856874 -0.28930712 -0.43754748 -0.14260681 -8.942025e-05 -0.25630924 -0.019035336 0.0048239822 0.28828716 0.17772943 -0.11733534 -0.052954216 -0.45165825 0.24408267 0.33785048 -0.24457537 -0.07734022 0.36453205 -0.010584592 -0.10397805 0.076090395 -0.4207649 0.28199777 0.19732057 -0.10841319 0.20757866
972 0.033049926 -0.0836368 0.15866229 -0.285629 -0.29738757 0.32332328 0.009427409 0.20585167 0.38260886 0.035417568 0.43941206 -0.31517565 0.30056944 0.057961397 0.104358114 -0.2515248 -0.27134007 0.39347598 0.03866156 -0.5507837 0.09211566 -0.20202786 -0.43007576 -0.033710927 -0.1056952 -0.13024063 0.5320914 -0.036217898 -0.11744027 -0.021184534 -0.29766154 -0.20712882 -0.043266185 0.28409064 -0.101963185 -0.11363677 0.26284453 0.2541636 0.20553824 0.18819068 0.39776513 0.18399133 -0.048472185 0.119622946 -0.365682 0.0775743 0.18980542 0.21824111 0.29869297 0.038268846 -0.05911166 -0.0353349 -0.11461205 0.19836326 -0.422606 0.039003767 0.015107807 -0.0023750719 -0.08202102 -0.28273803 0.16807723 -0.2531998 -0.20744582 -0.5623022
2597 -0.15272619 -0.13103627 -0.014664002 0.08566997 0.26923463 0.13733736 -0.021658516 -0.16141948 0.021729035 -0.30786264 -0.10823212 -0.0668552 0.20746952 0.22006531 -0.13711344 0.14112596 0.2858651 -0.10681891 0.18698241 -0.36632684 -0.030207792 -0.47124445 0.032909192 0.027257422 -0.10948396 -0.0048713237 0.39102542 0.07299141 -0.22286142 0.038902204 0.013717995 -0.22475068 -0.014295858 0.23054053 -0.030100085 0.0009072689 0.12615433 0.20167315 0.26164243 -0.38420695 -0.30249944 -0.05603318 -0.06660979 -0.2665346 0.09487893 0.028002396 0.28437984 -0.004550416 0.08176889 0.080168135 -0.23634823 0.38563323 0.3150628 -0.103186674 -0.19366977 0.26016453 -0.1321332 -0.1208317 0.24177255 -0.26368865 0.58030576 0.23121282 -0.100949205 -0.052884974
120 -0.018735195 0.0835283 -0.10460564 0.045502797 0.36355877 0.057042234 -0.10123042 0.06334448 0.031880967 0.07286951 0.06635573 0.07114737 -0.22979495 0.380733 -0.010924334 0.1629331 -0.08523095 -0.10017935 -0.1829703 -0.4823848 -0.07205573 -0.299612 -0.006426731 0.2475512 -0.28438908 0.07061833 0.19193727 0.24101083 0.037840676 0.008983484 -0.15841469 0.0090982765 0.5038913 0.15312146 0.01493536 0.07078732 -0.22727758 0.04625218 0.079910696 -0.21968919 -0.35484484 -0.09017211 -0.0024605854 -0.32734892 -0.4109788 -0.10998798 -0.007671889 -0.0027311193 -0.1593351 0.20893347 -0.25110534 0.21695498 -0.2839387 0.11200274 0.03690582 0.07769914 0.11417379 -0.12376184 0.33298594 0.029843189 0.09749936 0.14546573 0.0937698 -0.5960536
405 0.016435929 0.06690396 -0.23378839 0.012661359 0.14006922 0.36601368 -0.01991323 0.3447225 -0.017848883 -0.23230235 -0.036211472 0.12416276 0.27955046 0.30854174 -0.13614461 0.13252118 0.19880858 -0.19930097 -0.3060207 -0.7152579 -0.3177986 -0.15384234 -0.08343112 -0.10820066 -0.21112756 -0.012137499 0.11328358 0.0377159 -0.19423153 0.23493017 0.22019492 -0.120192856 0.2729962 0.09425483 0.0075056525 0.0789784 0.24256088 0.05488918 -0.04154808 -0.20315966 -0.25052524 -0.20373657 -0.013598941 -0.023493428 -0.26673517 -0.0012779061 0.09524377 0.1816543 -0.10794912 -0.16975209 -0.30184588 0.19580764 0.16751938 -0.17845137 -0.16336992 0.29373407 0.0029702997 -0.29261178 0.1705583 -0.2122877 0.4044119 0.16643077 -0.17259382 0.24483345
1733 -0.27689695 0.27103168 -0.3227389 0.11066479 0.09487694 0.3959462 0.12922294 0.20406264 0.24738918 0.14389071 -0.09734983 0.022328949 0.20619887 0.29636765 -0.614852 -0.11246569 0.14822775 0.017426651 -0.118062556 -0.42492878 -0.11395728 -0.325032 -0.028578935 0.35442385 -0.15894175 0.0850948 0.24486895 -0.24717404 -0.14855523 0.2086742 0.13765748 -0.020452969 0.067191035 -0.0906274 0.10975953 -0.038077578 0.0060903607 -0.16839187 -0.1675913 -0.10337784 0.21125932 -0.0033620817 -0.05701733 -0.04493046 -0.15986526 0.025400143 -0.07581688 0.21842581 0.22854163 -0.18190332 -0.4250149 0.002365321 0.30167273 -0.08741863 -0.26549193 0.061587144 0.32818633 0.12853575 0.021916244 -0.05414009 0.31986475 -0.0818712 -0.11860599 0.07719074
2064 -0.50048745 -0.076136135 -0.40665662 0.044056732 -0.111708656 -0.25177526 -0.0070109707 0.028646922 -0.08197799 -0.13862877 -0.050571617 0.072748974 0.05292753 0.23169273 -0.4832338 -0.14900053 -0.0596953 -0.029085087 -0.0057025123 -0.16989335 -0.14696637 -0.41257432 0.27596477 0.33974275 -0.027310316 0.045923814 0.08362775 -0.019121423 0.16104099 -0.2653235 -0.17805037 0.037409574 0.36974025 -0.09122531 0.10023332 0.102187075 -0.071636915 -0.1897472 0.05713397 -0.07565075 0.36353627 0.3213052 0.07335731 -0.6241375 -0.20810698 0.056493722 -0.104030676 0.18089871 -0.21968646 -0.19428638 -0.4257859 0.04104464 0.21090199 0.29795352 -0.23230283 0.20286995 0.2613454 0.12012505 0.11729047 -0.17653024 0.5881751 0.045749698 0.073985904 -0.026795119
1840 -0.2264147 0.43301824 -0.09880183 -0.056732606 -0.2291317 0.14649726 0.28309375 -0.0666983 0.17581053 0.112877175 -0.1578421 -0.19879192 0.27039662 0.39081594 -0.2941701 -0.15915397 -0.049393937 0.20319708 0.23604406 -0.20135416 0.18898277 -0.15209822 -0.1319343 0.52597094 -0.117987044 -0.16409613 0.059968628 0.015077817 -0.38166103 0.2981599 0.0014826006 -0.07716824 0.14566429 -0.007992448 -0.3402167 -0.081835456 -0.13868757 -0.11052356 -0.0912275 -0.20733733 -0.12431926 -0.13772929 -0.10151467 -0.00379085 -0.249802 -0.09343419 -0.016132379 0.0010257628 0.2842246 -0.1519253 -0.20613827 -0.18583521 0.06436135 0.023874672 -0.35837153 -0.19746111 0.60819757 0.038370054 0.04466307 -0.093583845 0.1582521 0.06237675 -0.10829045 0.14956503
45 -0.31543452 -0.07414409 -0.3733616 0.20553638 -0.16291468 0.20540819 -0.004218631 0.2635556 -0.05715772 -0.0871302 -0.16723126 0.4685964 0.5070651 0.015476937 -0.10662076 0.15670517 0.14167325 -0.039015513 -0.20567547 -0.28292194 0.06793722 -0.11724691 0.1624439 0.17469741 -0.035532016 -0.03574033 0.05933155 -0.19411616 -0.082200654 0.28688768 -0.0714667 -0.107716456 0.25735703 0.25409645 0.09341999 -0.3203493 0.06803471 0.43288767 -0.10463086 0.0075794756 -0.05777764 -0.0979925 0.07939622 0.119325 -0.1992563 0.15280513 0.071073145 -0.035041276 -0.19455403 -0.03757008 -0.25993428 0.35594767 0.20376101 -0.47603074 -0.06751872 0.028241623 0.115466215 -0.21024731 0.107998185 -0.160864 0.5512675 0.071811505 -0.13148318 0.21390033
1494 -0.18142323 0.07938841 -0.26148272 0.08375687 0.099031486 0.002489743 0.019755332 -0.12867291 0.09623848 -0.0481621 -0.14468448 0.149873 0.33264428 0.25143972 -0.22582753 0.15340164 0.2507142 0.07999513 0.110799685 -0.10024088 -0.123323835 -0.2714528 -0.0946219 0.36329976 -0.16149473 -0.089886054 0.2457114 -0.3302675 -0.04205314 -0.13374622 0.21513404 0.014011201 -0.04410194 0.27653143 0.05928396 -0.0937012 -0.19543968 -0.15299763 -0.08613069 -0.09658254 -0.19792883 0.15912884 0.13807048 -0.09937567 -0.063161895 0.14617932 0.26802495 0.30693543 0.1363872 -0.0040942566 -0.3865955 0.30742556 0.20260902 0.0053778687 -0.40355608 0.10563317 -0.035988104 0.16140008 0.18174584 -0.21252315 0.63085663 0.21877985 -0.31657496 -0.16050303
497 0.19211812 -0.102088794 0.27161533 -0.16803245 -0.08241536 -0.036414176 -0.13871159 -0.051690634 0.34814456 -0.1401817 -0.056873057 0.024130251 -0.10913471 0.12093019 0.015534303 -0.17902257 -0.2067353 0.12650108 0.2706876 -0.30922124 0.1280677 -0.24769038 -0.44633076 0.13327241 -0.10006467 -0.080008574 0.23545174 0.45067304 -0.32402334 -0.111540824 -0.2291705 -0.3996302 0.32333347 0.23393236 -0.22685698 0.15590012 -0.14793156 0.114684105 -0.043922726 0.22816682 -0.30034366 0.052167717 -0.05341053 -0.006111565 -0.35641614 0.24398284 0.13753578 0.0716459 0.1765214 -0.10406391 -0.31285444 0.16402732 -0.06386317 -0.11634324 -0.21660163 -0.17467365 -0.07924823 0.3551695 -0.33557478 -0.117701024 0.3904015 0.24443962 -0.025420293 -0.117601305
1883 -0.059043206 0.048726432 0.015910652 0.12947965 -0.037530147 0.055098042 -0.20481046 0.23774828 -0.11305514 0.0031710675 -0.19998603 0.14529878 -0.17045859 0.1912994 -0.11915529 -0.29537937 -0.21101615 0.18067546 -0.019747432 -0.3943577 -0.073870644 -0.6589393 -0.024029303 -0.05335274 -0.37534025 -0.28723976 0.2173276 0.08805233 -0.09836442 0.15814179 -0.2202 0.11091069 0.2968267 0.07390025 0.2758283 -0.21960585 0.035044286 -0.10865005 -0.12932076 0.16323633 0.08037663 -0.14168352 -0.16559184 0.29911077 -0.15624627 -0.14805944 0.15258047 -0.02640187 -0.04263695 0.04360854 -0.32297125 0.25302216 0.079003595 0.28312448 -0.6407046 0.29106924 -0.39917207 -0.116059594 0.25989193 -0.0036861754 0.121573366 -0.42631784 -0.0886381 -0.21081193
891 -0.0783009 0.34275997 -0.06149743 -0.22233875 0.010778065 0.11225113 -0.055403322 -0.05876559 0.13451517 0.18674542 0.3606365 -0.18392643 0.21610893 0.24246995 -0.26933312 -0.06992046 0.08748004 0.1641309 0.098088145 -0.176909 0.03118441 -0.41080043 -0.25051945 0.33380404 -0.2740583 0.07020267 -0.17076209 0.18690862 -0.3766733 -0.061386295 -0.20638742 -0.18581031 0.35113278 0.13176087 -0.22677019 -0.2870351 -0.16344452 -0.07212666 0.083320156 0.07704205 0.105516545 -0.08387668 -0.2402071 -0.117418915 -0.5629775 -0.08635058 -0.2646659 -0.26569247 0.019633746 -0.1894703 -0.20901142 -0.16572097 0.23019326 0.031778406 0.026089843 -0.17741856 0.4313386 0.11179073 0.21523619 -0.18268107 0.2505123 0.22951317 0.099973984 -0.1167913
876 -0.31801438 0.43339384 0.035523955 -0.34066978 0.06668547 0.27212495 -0.07756583 0.19673331 -0.051285967 -0.090482116 0.11746204 -0.038874954 0.02991908 -0.027301569 0.086952195 -0.07543016 0.15331985 0.062413502 -0.26550335 -0.21950224 0.0042581446 0.019555975 -0.29616782 0.04031412 0.011683434 -0.34387895 0.4140165 -0.14886047 0.08407264 0.22387147 -0.05017728 0.015291313 0.20248826 -0.08381692 0.07623616 0.022565346 0.30863085 0.15955256 0.056036513 0.10878744 0.1903317 -0.14167814 0.1578232 0.0708306 -0.15284443 -0.03275766 -0.32962313 -0.08268359 0.03582387 -0.14016274 -0.920591 0.24709812 0.19678733 -0.13791327 -0.44676042 0.28754357 0.26414227 -0.0053817835 0.012988652 -0.24973235 0.50706226 -0.06747605 -0.028778167 -0.106512934
1932 0.002259409 -0.1600822 -0.1745326 -0.10604824 -0.058278058 0.12556115 -0.29958966 -0.18658228 0.08303881 -0.28137115 0.3549507 0.16921316 0.0894793 -0.06600214 -0.25169483 -0.026976658 -0.3335717 0.15025583 0.1079943 -0.57638115 0.06164121 -0.23222186 -0.03920988 0.19213735 -0.2260023 -0.04378771 0.31832886 0.054697067 -0.38625515 0.20726183 -0.29873642 -0.46067208 0.54288685 0.1311448 -0.116395555 0.13379037 -0.2809363 0.2589657 0.0015904023 -0.10825682 -0.091223285 -0.057096537 -0.0016203658 0.13603963 -0.17024112 -0.054236256 0.115870245 -0.023617098 0.102639295 0.1506621 0.01638168 -0.029926738 -0.017742522 0.115456015 -0.033151828 0.0078129005 0.103629254 -0.16550097 0.110087246 -0.0654744 0.17226125 -0.19685224 0.14257163 -0.03440882
1708 -0.32464588 0.06822539 -0.5439616 0.12493526 0.02132591 0.08688962 0.22469503 0.040338926 0.032126628 -0.20143959 -0.12435645 0.38654813 0.2271001 -0.04538918 -0.022859445 0.13620771 0.16415842 -0.20862532 -0.15970163 -0.25903228 -0.22365451 -0.3977125 -0.27861166 -0.31063053 -0.017766008 0.036101125 0.15870678 -0.18173885 -0.096742734 0.042808652 0.19509675 0.047956187 0.35822064 0.10002443 -0.12269469 -0.0047639334 0.08195305 -0.15393282 -0.11620091 0.031245148 -0.052600935 0.17857239 0.019057773 0.034032557 -0.2218273 0.39511532 0.07991919 -0.038059115 0.014107885 0.08542717 -0.45572913 0.2077734 0.14321025 0.05709029 -0.28736013 0.32402048 -0.16213737 0.020255929 0.058740236 -0.16806152 0.3785308 -0.117595464 -0.35234743 0.077701196
2203 -0.07277115 -0.17909604 -0.19739512 0.15998587 0.22167876 -0.11031877 0.021692103 0.04610205 0.33160704 -0.19284031 -0.042555396 0.10591571 0.32984787 0.28448072 -0.19309077 0.014480511 0.1509771 0.27059287 -0.15426952 -0.21533039 -0.27534208 -0.33956215 -0.2091456 0.25748336 -0.121577285 -0.24299665 0.3266413 0.012806114 -0.07129051 0.20189533 -0.043060422 -0.039835814 0.14910027 0.041495074 0.12213763 -0.23479353 -0.16760625 -0.02545088 0.047572613 -0.22582678 -0.15516415 0.23460275 0.040289674 -0.22274096 -0.1443885 0.09788059 0.09392834 0.12415661 -0.06572145 0.034596786 -0.32497033 0.38100636 0.012894039 0.015923165 -0.13375413 0.47639108 -0.012876075 -0.10782323 0.026558146 0.021382738 0.52911735 0.24252734 -0.050796174 -0.21819417
2018 -0.19458762 0.12912785 -0.2573671 0.21678741 0.011691408 0.104486346 0.3288077 0.13770603 -0.16761443 -0.15797941 0.06696264 0.034056682 0.43221095 0.17813809 -0.0023405906 0.13453843 0.35444355 -0.16745968 0.07322891 -0.40113035 0.036912635 -0.35874498 0.15755378 0.3573185 -0.028002186 -0.054028634 0.29555988 -0.07984378 -0.0036586886 0.2535285 -0.2108022 0.097667605 0.15745665 0.5216966 -0.064066954 0.0011766921 -0.04748133 0.054889407 0.18447538 -0.35387743 0.0022447165 0.3317119 -0.040522583 -0.22181852 0.24825159 0.12714505 -0.03132839 0.1099035 -0.16174166 0.10342131 -0.6311425 0.16664457 0.10210945 -0.46101865 -0.0018338389 0.29416427 -0.079851635 -0.2928789 0.06088877 -0.27689305 0.33104146 0.2735322 0.24626261 -0.1732329
2590 -0.6727682 -0.23242566 -0.27519014 0.04911727 0.17275403 -0.13924736 -0.19549029 -0.04049976 0.13727878 -0.15048978 -0.37134403 0.31069872 0.31297782 -0.12236464 0.041065596 -0.09121438 -0.0045837387 -0.16487755 0.074538276 -0.17576094 0.044410855 -0.27238467 0.16917585 0.025157617 -0.10282734 -0.15103044 0.26064304 -0.15536158 0.19268033 0.1478881 -0.11144585 0.042712163 0.09834638 0.093241416 -0.07561654 -0.039733816 -0.114978835 -0.27412438 -0.049522158 0.06374147 0.29277974 -0.21335632 -0.03753471 -0.33322698 -0.32671043 0.06891513 -0.1715873 -0.06029864 0.36159435 -0.38525438 -0.4188112 -0.019400373 0.38497853 0.061497785 -0.48400432 0.06857349 0.36503026 0.2805445 0.15778328 -0.024649171 0.16822147 0.041136403 0.34474406 0.015958069
2548 -0.12099682 0.23634264 -0.12619443 0.28860396 -0.30446607 0.11916759 0.14164744 -0.08402512 0.19798408 -0.5634946 -0.111045726 0.069904126 0.030225992 0.0107626375 -0.22236764 -0.026969427 -0.44493157 0.22110681 -0.101061456 -0.49947643 0.24019639 0.1935948 -0.04507643 0.11405744 -0.071871735 -0.08285861 0.19610503 0.38237202 -0.21844004 -0.1810517 -0.07201755 -0.21265219 0.31809863 -0.07253583 0.26744685 -0.11716332 -0.12997152 -0.016800502 -0.23380905 0.4454552 -0.15816118 -0.23267555 0.18856592 0.10553757 -0.27303955 0.011686426 -0.054382164 0.068844 0.1163342 0.12079684 -0.22182624 0.29675263 -0.08469226 -0.15007767 -0.022057248 -0.35606617 0.017999284 -0.09694992 0.49055582 -0.26112908 -0.09108685 0.18613577 0.29646623 -0.054070167
1206 -0.20858651 -0.19417903 -0.16282444 0.1494392 -0.03876575 -0.13918503 -0.16720577 -0.16662043 -0.08117555 0.15151075 -0.17732622 0.046143267 0.2846066 0.33108994 -0.15662631 -0.013873804 0.1768826 -0.088141225 -0.2164283 -0.21781662 -0.10305257 -0.17528938 -0.1554573 0.23414181 -0.2312606 -0.259328 0.28312898 -0.16918994 0.03004303 0.012789082 -0.0695228 -0.04951065 0.28923544 -0.022369009 -0.037099723 -0.40181282 -0.041470468 -0.07991763 0.06735185 -0.081115864 -0.1498558 0.22868653 0.05970588 -0.05370888 -0.23093899 0.16708313 -0.021672674 0.2936515 -0.15648009 0.17552528 -0.42968127 0.28446466 0.17123958 0.016860636 -0.28348073 0.3901437 -0.10891678 -0.0736941 0.33550757 -0.20991929 0.4914623 0.18592831 -0.26432323 -0.11038492
1299 -0.56880647 -0.07275258 0.0040950063 0.0856134 0.21657313 -0.06197334 0.0016562834 0.025932582 -0.069947585 -0.41670132 -0.09859647 0.20323463 -0.03329111 0.38880768 -0.20824455 0.014592445 -0.053766333 0.2000724 0.092420205 -0.5978117 0.36721852 -0.031547055 -0.20963551 0.18034188 -0.29342777 -0.077111505 0.55364716 0.03422782 -0.027990663 -0.049256794 -0.5618238 -0.003047935 0.36671078 -0.17216785 -0.05805571 -0.26995793 -0.0027934837 0.0054247393 0.21423472 -0.13072722 0.32528216 0.023508066 0.08167684 0.0006448123 -0.08304454 0.11444952 -0.42941 -0.037747927 -0.10207694 0.049377542 -0.18754381 -0.1821002 -0.07707904 0.1042379 -0.16885765 0.029239327 -0.06782443 -0.24382348 0.2745211 -0.16695923 0.27570418 -0.15414205 0.13174117 -0.38012886
2505 -0.42475104 -0.23653933 -0.1818796 -0.0074180136 0.2749919 -0.017028073 -0.08276344 0.045228552 -0.03982171 -0.37263113 -0.11320451 0.21373415 -0.018950272 0.30823737 -0.21397832 0.022863073 0.0049715284 0.14575416 0.014489335 -0.41014895 0.21038291 -0.23757745 -0.25082362 0.122768424 -0.24597925 -0.19112 0.56867546 0.16241221 0.02871838 0.0480239 -0.6519864 0.15325123 0.18999337 -0.121176876 -0.3598229 -0.14364013 -0.2001154 -0.050154164 0.117202915 -0.36829713 0.32258102 -0.08718847 0.09915598 0.055880662 -0.051245138 0.29558256 -0.35483876 -0.09405742 -0.05321716 -0.06667274 -0.2673224 -0.30891705 0.08122101 0.10175713 -0.225942 0.02631954 -0.33397245 -0.39001027 0.33580172 -0.39730933 0.25897872 -0.13040316 0.07989044 -0.15497068
2663 -0.721777 -0.15559153 -0.20739332 -0.051004846 0.061192352 0.24312955 -0.012193013 -0.113791205 0.35124853 -0.13928343 -0.08189787 -0.0892671 -0.14660381 0.060682297 -0.109452486 0.31132996 0.23207712 0.09279097 -0.29058683 -0.5580592 0.62882876 -0.03916794 -0.0031812494 0.19652921 -0.108538054 0.024049398 0.36828938 0.22323476 0.29454827 0.22679375 -0.07580918 0.18441351 0.27383363 0.039005227 -0.27824187 -0.21372667 -0.20669727 -0.18815474 0.16553818 -0.41691396 0.028994294 -0.083340555 0.035827663 -0.1737588 -0.034815934 0.26675686 0.22467893 -0.13361375 -0.18399338 -0.37020826 0.28187767 0.0021566316 0.33181483 0.08728025 -0.6738923 -0.09859671 -0.31954947 0.13086441 0.048848536 -0.36973208 0.1896804 -0.28364223 0.17371273 -0.24501342
746 -0.305123 0.04825465 -0.39231557 0.10908052 0.24315463 0.10641576 0.10210617 0.111850925 0.021433936 -0.39694726 0.027380768 0.2598975 -0.11855372 0.1640564 -0.029223368 0.0010398726 0.2753671 0.11874639 -0.07603701 -0.40798423 -0.1790058 -0.29152852 -0.124904476 -0.32844055 0.033202797 0.03373555 0.24319613 0.19269474 -0.02157307 0.12734461 -0.31657445 0.08892401 0.43460858 0.48614502 0.14130898 0.047997635 0.16066532 -0.20167974 0.028539749 -0.21651492 -0.10785356 0.104096375 -0.28372675 0.04439684 -0.28697205 0.24668398 -0.028674666 -0.14916036 0.15681401 0.16482955 -0.13584591 0.031336494 0.21237853 0.017642152 -0.018469956 0.26107985 -0.027631849 -0.18437232 0.16930793 -0.1438789 0.38240522 -0.17567618 -0.22144923 -0.080655664
196 -0.17985092 0.17125162 -0.053102344 -0.227413 -0.094603546 -0.15330406 -0.28975877 0.17036848 0.16068336 -0.027288081 -0.05360352 0.059218843 0.1255912 0.41220266 -0.2039507 -0.19732477 -0.012351197 0.29511645 -0.10123556 -0.54554427 0.30154735 -0.4702513 -0.07043023 0.02501334 -0.009098655 -0.4311322 0.19150095 0.13888581 -0.4300415 0.07499584 -0.30782893 -0.1778387 0.17200378 0.3901263 -0.5271938 -0.038000144 0.07256195 -0.16777538 0.07453238 0.23210758 -0.58212495 0.121181056 -0.18256956 -0.24622841 -0.07681503 -0.28921127 -0.03519744 -0.16872883 -0.16544102 0.0007207098 -0.20015159 0.20562918 -0.111846305 -0.02185452 -0.028992029 0.19775306 0.09509283 -0.011234367 0.018783972 -0.108244985 0.11688315 0.42561948 -0.09234513 -0.02888649
1795 -0.2035837 -0.22670479 -0.32599255 0.034955412 -0.073393404 -0.17576155 0.21784481 0.018980829 0.015805475 -0.04106685 -0.45876846 -0.29443294 0.11266509 0.08842903 -0.06505015 0.10070522 0.088467956 -0.11827407 0.017232306 -0.22638004 -0.2019027 -0.16991605 0.14370447 0.23732749 -0.30580023 -0.26789322 0.15973629 0.03741811 -0.14989793 0.16141884 0.024437422 -0.1720371 0.260698 0.066065975 -0.07824737 -0.47612014 -0.21243641 -0.23489718 0.21876845 -0.16288893 -0.09654057 0.24845606 0.29837686 -0.18972793 -0.14934802 0.41844058 -0.1858175 0.09726656 0.13393424 -0.15310365 -0.13481608 0.42776307 0.12357038 -0.034633737 -0.3482962 0.04510022 0.057215594 -0.17112459 0.42445964 0.01564826 0.40287903 0.2640896 -0.10202208 -0.31118062
277 -0.27917773 0.099332966 0.058240086 -0.11867829 0.09952 0.18534139 0.41286707 0.08165301 -0.026035812 0.1735285 -0.078950055 0.2158021 0.1825238 0.31743267 -0.13503145 0.0058114845 0.2649234 -0.009768639 -0.0149569 -0.19653857 0.13900025 -0.040762033 0.21108998 0.015203704 -0.1905765 -0.14519806 0.39155355 0.23384023 -0.22894701 0.37717295 0.3303726 0.1744848 0.19910188 0.19906932 -0.20093532 -0.0019607139 0.21637464 0.059639923 -0.10694867 -0.046667557 -0.07079597 -0.272501 0.110048465 -0.26496613 -0.22716123 0.07729852 -0.15304606 0.1469573 0.21065754 0.12642199 -0.14417553 -0.15562895 0.25626966 -0.12842524 -0.31914046 0.077556804 0.52154547 0.21073228 0.2389266 0.03250433 0.65002334 -0.18008745 -0.45176008 -0.040359806
749 -0.19198877 -0.20635855 -0.70652264 -0.08109666 0.14537865 -0.22001459 0.002769206 -0.0036571324 0.42168552 -0.43714538 0.33652407 -0.023745483 -0.28225276 0.12165905 -0.11984703 -0.18702054 -0.018234642 0.06773259 0.26366836 -0.48004693 -0.1409444 0.10212657 0.46119612 -0.28976017 -0.0025012076 -0.42546207 0.36235723 0.29030752 -0.002804668 -0.053860687 -0.00823477 -0.7059067 0.405104 0.28773654 -0.15984789 0.1391322 0.43191975 0.03255976 0.09045055 -0.40895018 -0.25672272 -0.048062585 -0.13847607 0.17763574 -0.47332346 -0.057857793 0.12680422 -0.12088327 0.27634254 0.011984476 -0.20107096 -0.2622881 0.22309445 -0.25782034 -0.26319388 0.089252524 -0.06597461 -0.0134184845 -0.28230727 -0.2188786 -0.038469467 0.084969886 0.15317822 0.081836104
1798 -0.64288795 -0.21432738 0.028574197 0.26987752 -0.18811904 0.15316807 -0.15498202 0.122276984 0.0028132875 0.010327314 -0.2280985 0.1685983 0.33494425 0.20797187 -0.314201 -0.061838742 0.2590645 -0.3025903 -0.06686933 -0.20461085 -0.070478335 -0.2080931 0.24928452 0.1941229 -0.32698438 -0.14275055 0.19397053 0.15541922 0.33622593 0.08906539 -0.11877695 0.10016499 0.47198868 0.069525816 -0.35362214 0.032658145 0.3338438 -0.039437234 0.22884876 -0.21718983 -0.0051137484 0.014431476 -0.16283181 -0.16951144 -0.072825074 0.52246994 0.13124388 0.020351036 -0.39424667 -0.32520208 -0.54326975 0.24741054 0.0005777346 -0.044864193 -0.19590716 -0.04406772 0.22156431 -0.40222177 0.15127157 -0.010716315 0.30600706 0.09954727 -0.026847811 0.10576611
1503 -0.34915823 0.23013039 -0.13344188 0.21643665 0.028104775 0.06023227 0.10392789 0.2733159 0.05518155 -0.42978096 0.055735245 0.19999725 0.364944 0.37756896 -0.27236953 0.08857714 0.37539327 -0.23948346 -0.20328501 -0.4559698 0.15180017 0.23759182 -0.05191422 -0.14493135 -0.34053618 -0.05671926 0.11012525 0.17890568 0.064497754 0.046204142 -0.0644319 -0.18167695 0.37738875 -0.018859101 0.30803034 -0.23873931 0.022907445 -0.20741725 -0.16646728 -0.14494821 0.19769242 0.022501227 0.12893398 0.11941502 -0.27873522 0.15931843 0.0054650153 0.15087411 -0.043782577 -0.101289816 -0.39070272 0.23137493 0.054146864 -0.03379843 -0.26481012 0.06984523 0.15278676 -0.067758344 0.15554963 -0.05323032 0.33790827 -0.17506747 -0.055063922 -0.17929803
1924 -0.37822244 0.2504292 -0.100042254 0.3665381 0.1464327 0.16423103 0.19270065 0.00043088655 -0.065093175 0.10716493 0.038498517 0.114736214 -0.09697203 -0.23535332 -0.49681687 0.12945274 -0.3126596 -0.26248014 0.22195664 -0.47571814 0.018417412 -0.055136897 -0.0044167275 -0.118944444 0.162978 -0.28319353 0.32545364 0.19190662 0.109271646 -0.3840565 0.21529557 -0.07730859 0.3910707 0.12041565 0.13769865 0.0669383 -0.21828003 -0.12785167 0.13468009 0.21069297 -0.20980379 -0.24369021 0.2115374 -0.0075287954 -0.277185 0.34391564 -0.10238722 -0.12972091 -0.05447597 0.09408064 -0.22983065 0.5835019 0.02861374 -0.18933803 -0.18233125 0.016845936 -0.36113158 0.032029677 0.07090272 -0.50084 -0.014380769 -0.11738767 -0.27811235 -0.022898447
770 -0.14256209 0.37616646 -0.095242806 0.32290766 -0.14172098 0.16949823 0.23765673 -0.03971776 0.0073840567 -0.42025238 -0.033523075 0.20306538 -0.10179113 0.4788749 -0.25369537 0.15195553 0.10700631 -0.12043409 -0.009307039 -0.18177731 0.07203059 -0.12747978 -0.12292668 -0.22848389 -0.13191827 0.0027479033 0.4517341 0.15543109 -0.06216166 -0.1321424 -0.13855249 -0.11972214 0.5267941 0.25027558 0.25413877 0.012480853 -0.056850698 0.0017775255 -0.034935083 0.29798105 0.19278876 -0.14584255 0.27266973 0.006187728 -0.056647263 0.10080627 -0.10545453 0.0034686797 0.13126642 0.267681 -0.23780388 0.04805246 0.07943766 0.31606165 -0.07194713 0.07046509 -0.0997447 -0.19174127 0.5904838 -0.047995288 0.38845956 0.036116038 -0.13089254 -0.2886043
930 -0.09964609 0.211187 -0.008300701 -0.16792609 -0.029672699 0.1592675 0.3716729 -0.14334022 0.3145104 0.055212475 0.047153175 -0.024841368 0.1663063 0.067270495 0.04833465 -0.1340896 0.1665461 -0.094844244 0.06351651 -0.16064684 0.15840398 -0.2654135 0.061360266 0.3897426 -0.22760174 -0.010944842 0.10485136 0.037501205 -0.2734964 -0.12917466 -0.042118955 -0.109617434 0.40488774 0.12665199 -0.23801358 -0.00260085 0.14983602 0.20210929 0.032476556 0.12311722 -0.024529997 -0.13185264 -0.15306914 -0.046065517 -0.7200246 -0.09824571 -0.5731865 0.008393047 0.13945007 -0.13837399 -0.2870378 -0.04409058 0.026350733 0.16475074 -0.51051176 -0.12663531 0.46415815 0.22431688 0.20478463 -0.10975551 0.084188476 0.2268107 0.5067361 0.18456317
549 0.10194799 0.019662634 -0.19841163 0.17932254 -0.16027458 0.03214603 0.20586438 0.3502444 -0.23269257 0.0051909587 -0.12963821 -0.122234836 0.31110492 0.092224665 0.06484429 -0.113478765 -0.04775716 -0.048378836 -0.10269768 -0.3762228 -0.25530535 0.03892143 -0.18777591 0.0014398735 0.22258055 -0.12756182 0.22078016 0.33406422 -0.2100835 -0.31228432 -0.07349225 0.2223185 0.28798673 0.03582265 -0.1061835 0.18513131 -0.2569711 -0.07544377 -0.23957647 0.06428522 -0.004181205 0.42243683 0.04912269 -0.10785853 -0.15674233 0.03857447 0.19820485 -0.09515074 0.28323343 0.12709835 -0.30325568 0.34087935 0.10708734 -0.100549154 -0.4000494 -0.07133578 0.21026348 -0.179761 0.22039227 -0.17815708 0.09259424 -0.009262489 -0.22017664 -0.04634862
1574 -0.56250614 0.20784178 -0.20298417 -0.13966528 0.06694643 -0.11221145 0.13789353 -0.63956374 0.13878055 -0.37209386 0.49203506 0.142962 0.40426248 -0.09309798 -0.055804793 0.1402865 -0.17098114 -0.14192866 0.1409061 -0.26268527 -0.09412986 0.08733809 -0.037043743 0.40430933 0.05842519 0.20281218 -0.32144266 0.43442693 0.15718664 0.13417654 -0.27611095 0.3270517 -0.1226904 0.11112514 0.14645734 -0.10161056 -0.10163302 0.083019584 -0.12744823 0.12947862 -0.27020824 -0.14518404 0.19233966 -0.19279777 0.06255338 -0.27267188 0.6252556 0.15550815 -0.3784695 -0.38301873 -0.29087952 0.13033918 0.40101236 0.17864089 -0.66936386 0.05009622 -0.30320823 0.0060770945 0.016665753 -0.12110787 0.33703604 -0.17437014 0.17841019 -0.32196173
1235 0.14157343 -0.047726348 0.06383982 0.1117921 -0.44810095 0.10820527 0.25320873 -0.047460977 0.10767905 0.25417683 -0.1182841 0.01171328 0.25384623 -0.18627399 0.01197833 -0.4003792 -0.5648631 0.20901325 -0.1987685 -0.24233137 -0.04921829 -0.005258081 -0.30880225 0.17397135 0.30045053 -0.14180824 0.2641176 0.33588654 -0.12749356 -0.16509369 -0.19067708 -0.09905221 0.41425714 0.022962227 -0.015810981 0.21082588 0.08849735 0.20534362 0.2517066 -0.08469414 0.209078 0.0014678914 0.3146132 -0.07277044 -0.0076584443 0.102716275 0.18254782 -0.124925986 0.23442698 0.28945556 -0.30865863 0.47264314 0.14920163 -0.16445652 -0.1406004 -0.061906397 -0.03572892 -0.17940418 0.18024603 -0.14539145 0.10302522 0.052379586 0.03574151 -0.38268936
1898 -0.26265225 0.40722504 -0.3391388 0.16111644 0.0558429 0.19957042 0.16035433 0.26355332 0.15442163 0.04264589 -0.08188315 -0.15578966 0.33604726 0.42392495 -0.5255062 -0.07968216 0.11738605 0.17576516 -0.03367324 -0.24874192 0.08114452 -0.29297024 0.1284474 0.30214757 -0.15072921 0.08491856 0.3647439 -0.13505125 -0.058084838 0.092631415 -0.014575976 -0.12587295 0.09207992 0.013237385 -0.19320685 -0.06403407 -0.12862581 -0.16470285 -0.07947708 0.014031215 0.4041035 -0.05115438 0.20572503 -0.37421146 -0.35788888 0.11073834 -0.14309235 -0.037265275 0.32190058 -0.24602512 -0.34976724 0.05184919 0.26064003 0.03667854 -0.15404122 0.045357022 0.338645 0.05989806 0.07510731 0.026500545 0.3201631 -0.14255764 0.12122786 0.1306639
1779 -0.03332596 0.17546494 -0.19919883 -0.15907268 0.053952552 -0.18730128 0.034595355 -0.12920642 0.0037030426 0.121760465 0.21259779 -0.3995583 0.233115 0.3516229 -0.20988487 -0.40683347 -0.075106874 0.10209338 0.04287103 -0.10616799 -0.00064917817 -0.10069651 -0.33634156 0.040398456 -0.19101416 0.030046782 0.122821905 0.24701563 -0.3225037 0.350818 0.11090697 -0.29117686 0.33025953 0.6386384 0.043988466 0.01684087 -0.16707578 0.17323951 0.08446398 0.17472233 0.35467836 -0.07058049 -0.14456141 0.019117717 -0.37623674 0.25199452 -0.149911 -0.15827115 0.02524797 0.012762679 -0.34427088 -0.054662704 0.026616106 0.08856303 -0.25047284 0.05419931 0.47665226 -0.18627836 -0.14840643 0.13399908 0.16232142 0.112112775 0.18701099 0.091846004
2677 -0.41700372 -0.16288792 -0.13674997 -0.05392072 0.21921794 -0.011165346 -0.053403612 0.37255314 -0.12209579 -0.17784688 0.0670772 0.08384708 0.055720657 0.18166839 -0.23015226 0.047486775 -0.17988758 0.09088484 -0.14963251 -0.3221639 0.27799413 -0.2156181 0.009205876 0.21865323 -0.5097158 -0.15061007 0.61365634 -0.012882326 0.1919949 0.11158373 -0.5218076 0.11504099 0.27317414 0.0869096 -0.092353225 -0.05090223 -0.16360295 0.06294979 0.10211508 -0.2898078 -0.02729014 0.026751153 -0.09889772 -0.12667918 -0.21710338 0.0735022 -0.23518386 -0.21084853 -0.043913577 -0.02614906 -0.27152768 -0.09620047 0.14506927 0.17330831 -0.2318231 0.19549856 -0.114802904 -0.10718008 0.26239887 -0.28088105 0.3482965 -0.0857043 -0.024652114 -0.31342277
2390 -0.23564091 0.41595268 -0.5234812 0.18126333 0.37068254 -0.006984056 0.009794968 0.22019285 -0.034530647 -0.17988029 -0.066829905 0.3766949 0.043364268 -0.0041445517 -0.14948109 0.17208947 0.02956518 -0.0941342 0.23173465 -0.14115816 0.11695227 -0.1702562 -0.16142865 -0.29633242 -0.0031104654 -0.17588134 0.39332977 0.33096033 -0.015831118 0.20200281 -0.0821665 0.26265922 0.47942197 0.40344992 0.063009016 0.11862094 -0.019725587 0.2578549 -0.31195495 -0.24938606 -0.1756283 -0.21742257 -0.028674504 -0.008856572 -0.31054845 0.18942438 -0.023083383 0.086789966 -0.05198449 0.44270465 -0.46647343 -0.055852108 0.08042288 0.18329656 -0.15373348 0.4768393 0.08008941 -0.15061103 -0.38582873 -0.019456957 0.19258599 0.11456152 -0.21152036 -0.28525293
1575 -0.050977696 -0.029578444 -0.097616345 -0.073886864 -0.13440704 -0.45272538 0.10450561 -0.005823185 -0.0015102912 0.17421795 -0.25531787 0.05434922 0.55968946 0.11737806 0.0579534 -0.44701093 0.12703404 0.008993875 -0.057623092 -0.43502682 0.19732289 -0.33058447 -0.023038447 0.26979998 -0.002810231 -0.14476806 0.20412561 0.21648327 -0.16190329 0.18216163 -0.17024386 -0.328743 0.35891917 0.027612725 -0.017834425 -0.082588315 -0.118056335 -0.06581573 -0.21637072 -0.1849594 0.06402302 0.13595346 -0.3270229 -0.04943209 -0.041246943 0.12216494 0.25608602 -0.20664994 -0.0557368 0.21149042 -0.3177696 -0.24249986 -0.030192886 -0.32310757 0.11733607 0.0041832966 0.08393402 -0.50576675 0.11451572 -0.45150262 0.35657823 0.3729108 0.06825908 0.014225182
485 -0.13780598 0.12809947 -0.23021916 0.16629593 -0.08430832 -0.09752879 0.09996499 -0.40331128 0.011513152 0.0032196953 0.29866758 0.1925059 0.18646461 -0.2476322 0.027029462 0.04523814 -0.62164205 -0.07425353 -0.10533031 -0.54255396 -0.065086156 -0.032721005 -0.42154196 0.3872094 0.015160992 -0.20105651 -0.14248614 0.09166933 -0.16984078 -0.03202119 -0.0057103396 -0.21975332 0.29544348 0.05166887 -0.19752906 0.2718199 0.19308268 0.6378333 -0.17482837 0.046890844 0.19162302 0.098159805 0.19607826 -0.0658354 -0.20400345 -0.045204762 0.20465055 0.022301422 0.031341486 0.3628177 0.1316728 0.31770664 0.16048032 -0.16289255 -0.07207556 -0.3244931 0.14461079 -0.14608033 0.09037119 -0.10717619 0.19932097 -0.010849226 0.36359876 -0.16822141
1430 -0.14393029 0.11716427 -0.5807152 -0.024236973 0.098596156 0.016786922 0.23245226 -0.04940879 -0.09316804 0.18199325 0.040571116 0.29463905 0.15227452 -0.060820237 0.50487655 -0.37331334 0.14780521 -0.213655 -0.08790771 -0.32993898 0.14047198 -0.3104766 -0.054250114 0.28539985 -0.2966005 -0.5858873 0.12433245 -0.1666625 -0.26815304 -0.19473204 -0.17713155 0.03902356 0.3674199 -0.08591688 0.08796161 0.13030611 -0.22858328 -0.008094786 -0.069293045 0.2233916 -0.062111024 -0.11681991 -0.61039466 -0.35920164 0.23811297 0.37864056 0.41840938 -0.34210086 -0.22258623 0.3741511 0.19910087 0.16330299 0.19398017 -0.210886 -0.05314306 0.50015444 -0.031899378 0.01057825 0.24586655 -0.46925443 0.30249724 -0.3786291 0.12242022 -0.16086857
2370 -0.45181814 -0.3666004 -0.43949738 0.025536506 0.14439575 -0.2475931 -0.07366328 -0.13735223 -0.3866581 -0.2963117 -0.16328312 -0.015360342 0.38554627 0.067282036 -0.1339201 -0.16665517 0.05732026 -0.4080293 0.42625684 -0.14093475 -0.20272386 -0.21898155 0.019208463 0.1650408 0.13125187 0.004783203 0.08344626 0.25580338 0.22863531 -0.1821165 0.16934934 0.30024517 0.147538 0.0049933796 0.10230771 -0.16137433 -0.14789048 -0.3085962 0.3062471 0.12465302 0.010012006 0.2724985 0.19943841 -0.1274145 -0.27089602 0.2983388 0.26143837 0.11863144 0.043176923 -0.110263444 -0.2567742 0.20102602 0.08157367 -0.09652918 -0.6921596 0.14677244 0.2313563 0.16616644 0.47998962 -0.09974808 0.13644288 0.20785835 -0.11148608 0.037446145
2184 0.037886236 0.037186813 0.077589646 -0.028738456 -0.26839063 0.08766398 0.22440287 0.015425591 0.35932264 -0.07222801 0.18647596 0.17394562 0.2271804 0.43001437 -0.18646926 -0.0875903 -0.07403136 -0.022632718 0.13272086 -0.5985776 0.0046312795 0.10319681 -0.25385 0.17306666 -0.20532672 -0.00040586703 0.45276135 0.13414396 -0.5290136 0.15041639 -0.69896275 -0.01845081 0.32617986 0.121872924 -0.29068452 0.046286378 -0.50793505 0.13403511 -0.18893604 0.029881168 0.26866084 0.12006461 0.18511026 0.08069501 -0.10735423 -0.41924185 0.39784357 0.0633864 0.21098222 -0.19579539 0.179318 -0.17464748 0.18655004 0.29723957 -0.18602435 -0.044446573 -0.047201328 0.22741054 0.25386953 0.08189567 0.19467545 -0.16114342 -0.06188929 0.021289542
2181 -0.52059996 -0.037599582 -0.60461074 0.29966912 -0.4207559 -0.11186462 -0.1906939 -0.10749563 0.096264176 0.29869086 -0.5634658 0.29063952 0.3327858 0.0068189045 -0.37728852 -0.5889638 -0.08631664 -0.4012882 0.12369078 -0.37898514 0.12908077 0.19490571 0.41222024 0.15622853 -0.112963155 -0.14761241 0.22846338 -0.009704381 0.120547436 0.13795005 0.12476838 -0.23097871 -0.0044528116 0.24260171 0.1374517 -0.54369974 0.009789035 0.16711168 0.09928838 -0.1171427 0.008648852 -0.025709415 0.08327184 0.15684827 -0.07020906 0.6123827 0.36572656 -0.44901752 -0.20153177 0.106036454 -0.027751787 0.2270988 -0.105384804 0.13819782 -0.20400077 -0.20569578 -0.06467583 -0.20213042 0.2347599 0.021752015 0.17631 0.023302471 0.09669678 -0.30462018
2017 -0.036831 0.36971736 -0.54956466 -0.10653104 -0.012647766 0.053456333 0.3460161 -0.2436526 0.16301402 -0.011123713 0.19285682 -0.44083968 0.14472443 0.1386776 -0.03268107 -0.2320119 -0.29229134 -0.20040053 0.029851189 -0.4775623 -0.19061755 0.02690161 -0.60743695 0.13452134 -0.041787006 0.105867945 -0.44369087 0.6291768 -0.16611025 0.1452252 0.14144982 -0.21450932 0.22017263 0.7895581 -0.37330657 -0.3001993 0.13001707 0.25156748 -0.048034485 0.5449865 0.10211468 -0.43595088 0.05240219 0.1553183 -0.28790104 0.003518893 0.40841377 -0.3494305 -0.38998815 -0.6204796 -0.11484714 -0.38303468 0.10832873 -0.15097262 -0.36935988 -0.18480393 -0.06661072 -0.27191877 0.01821921 -0.28548676 0.16810913 -0.4010491 0.3165561 -0.58676285
1519 -0.63945085 0.066897534 -0.45478085 0.19759762 0.076764114 0.14872757 0.023915168 0.05463764 -0.024141692 -0.09932694 -0.07754311 0.24977267 0.016034948 0.01046207 -0.07021867 0.17995387 -0.15780675 -0.011066041 -0.053233154 -0.2352745 0.13997145 -0.58014756 -0.18418044 0.059917204 0.0803332 -0.09130323 0.106906764 0.09642425 -0.03420921 -0.05932111 -0.030035619 0.3432931 0.03559503 0.08197123 0.2857773 -0.27559862 0.18142368 -0.072276376 -0.0106899245 0.11859992 0.08175837 0.14107402 0.041086994 0.22305326 -0.025366118 -0.1478637 0.34239742 0.0059683654 0.24190393 -0.078639686 -0.29419765 0.111366846 0.26292476 0.1071371 -0.6890766 0.36108908 0.04410433 -0.1733247 -0.060200036 -0.16532758 0.20718712 -0.24703567 -0.46627563 -0.08354892
855 -0.27238986 0.017583659 -0.107270576 -0.09463083 0.00896585 0.103014246 0.0154983485 0.2677862 0.32651168 -0.07828989 -0.1040578 0.103391744 0.05114279 0.5180999 -0.087455824 -0.058785625 0.11283511 -0.35446098 0.019433068 -0.584836 0.06853324 -0.13525534 -0.16674371 -0.05876519 -0.1117591 -0.2558036 0.102255024 0.33410022 -0.3954219 0.16143906 -0.045192268 0.20448092 0.034722958 0.099161066 0.087653905 0.16118471 0.20148598 0.0803505 -0.074744925 0.22921962 -0.41606486 -0.1287286 -0.34049127 -0.12261348 -0.5762251 -0.036897305 -0.047142927 0.10251039 -0.16656145 0.30143806 -0.29191586 0.054120615 -0.12917653 -0.23226161 0.00666956 0.32890102 0.071075045 -0.11433391 0.010567173 -0.22935688 0.13594498 0.57059133 0.04248324 0.20866428
2364 -0.33436367 -0.32684758 -0.06218747 -0.0014271633 -0.14069144 0.14628726 -0.24176851 -0.09503192 -0.25589585 -0.21526535 -0.23436898 -0.00071863533 0.5411066 0.050289057 -0.008243339 -0.15305682 -0.20593284 -0.050774258 0.46373606 -0.19541214 -0.3046537 -0.32552373 0.17097479 0.029423377 0.4167728 -0.088613234 -0.29843938 0.09271831 -0.042129796 -0.2459584 -0.29102206 0.17677888 0.45301947 -0.06709897 0.20920122 -0.10495475 -0.16588798 0.005564584 0.19849929 0.03419761 0.024054224 0.21347457 0.24898058 -0.4104676 0.034015886 0.48581108 0.10120482 0.19069208 0.16104442 0.07615022 -0.53635824 0.42206818 0.50860363 -0.110553674 -0.39188662 -0.04762232 0.26220456 0.2606414 0.1869858 -0.08143883 -0.0438548 -0.014718097 -0.23157296 -0.14189906
262 -0.24938962 -0.16591118 -0.24065918 0.31554887 -0.16821592 0.18457642 0.024057245 -0.526073 -0.10416829 0.093702324 0.19314848 -0.032490198 -0.19642729 -0.16374984 -0.0341695 -0.015722534 0.022942718 0.089074045 -0.09882947 -0.08286899 -0.029117176 -0.22540544 -0.078176185 0.02367432 -0.008345416 -0.083297744 0.16809885 0.7887127 -0.2700105 0.2657529 0.069224685 0.0053041335 0.4310294 0.10013423 0.22711577 0.5146291 0.030319352 0.11871611 0.27250493 0.08967393 0.050546404 -0.09676066 0.32728332 -0.00057383336 -0.08792941 0.0056165974 -0.05715282 0.025348365 0.019847026 0.027528025 0.31561342 0.2930435 0.16904253 0.23408325 -0.43015376 -0.19799061 0.2597515 0.0155238025 0.052934073 -0.19751959 0.16208425 0.13196203 -0.09270687 -0.24568482
49 -0.16324997 0.19831513 -0.09376301 0.11033961 -0.15881409 0.16707572 0.10004808 -0.07961063 0.040741127 0.12064635 0.09389207 -0.14470129 0.30314526 0.3576815 -0.013898118 -0.31713796 -0.13756415 0.3276814 0.30427557 -0.1928717 0.011579075 -0.3676195 -0.19143601 0.2716775 0.019772474 -0.114559725 0.26405904 0.04028173 -0.6119519 -0.060779534 0.025842162 -0.2540214 0.16774395 -0.057436746 -0.34700057 0.06926445 -0.1423853 -0.025571885 -0.200556 0.029293438 -0.107975096 -0.15833862 -0.22389671 0.14446872 -0.37503818 0.017997826 -0.06726289 -0.13609588 0.27751702 -0.23059683 -0.36220026 -0.013557888 0.1234863 -0.025078258 -0.14930764 -0.53574723 0.46332034 0.040648345 -0.2512261 -0.031157626 0.22488329 0.2616029 -0.03690495 0.20009507
1042 -0.34246552 0.14941342 0.042118486 -0.114600144 -0.057236943 0.030959874 -0.07931067 0.4619251 0.15853597 0.19650267 0.018890133 -0.010396244 0.14883204 0.06370126 -0.19997442 0.012742468 -0.26516652 0.04127743 0.09342813 -0.19250603 0.3661688 -0.22818346 -0.20505615 -0.08516736 -0.015787233 -0.41904566 0.470636 0.24496423 -0.30336493 0.21448526 -0.46852884 0.18089847 0.15344612 -0.025472991 0.12882106 -0.11517025 0.28018153 0.13157468 0.20383531 0.020761069 -0.14437112 -0.14776172 -0.27752385 0.019569121 -0.15481487 -0.1618577 -0.13084015 -0.09244373 0.082462795 -0.045901857 -0.47159442 0.099188216 0.018738609 -0.10127851 -0.2978055 0.37722403 0.17907658 -0.1730673 0.20537227 -0.17324257 0.31412917 -0.30932024 -0.17922965 -0.11065209
582 -0.4524771 -0.03435016 -0.7937482 0.1316648 0.25969648 0.35245368 0.1177987 -0.029108586 0.06020069 -0.112845264 -0.16087346 0.15692373 -0.09804503 -0.07964642 -0.12255492 0.23167448 0.07092639 -0.086332805 -0.014750183 -0.26596984 -0.28510445 -0.074516736 -0.029717391 -0.19900493 0.2252118 -0.0728448 0.11865826 0.25901705 -0.1876748 0.12683621 -0.06515141 0.01753844 0.39840674 0.41328958 0.26828417 0.13439998 0.28821313 -0.006587696 -0.3646203 -0.2627985 -0.43147126 -0.03388434 -0.018422237 -0.13006312 -0.2840287 0.029930286 0.107197516 -0.3284814 0.28128955 0.20548221 -0.10751498 0.03565681 0.04654528 0.13390474 -0.17097498 0.01309394 -0.26909998 0.041588765 -0.05655367 -0.12606974 0.14602719 0.009323616 -0.29823747 -0.094322
956 0.024302237 0.20877685 0.06849287 0.18405381 0.45425358 0.010160687 0.05724055 0.17806916 0.020029357 -0.038687546 0.08464907 0.08646708 0.20709792 0.21803902 -0.2759683 0.052918907 0.32344702 -0.11853564 -0.21040069 -0.29715797 -0.05125898 -0.28274828 0.03591824 0.1763218 0.3887837 -0.12549143 0.35595238 0.25750634 -0.20865564 0.3110696 -0.092127256 -0.010763718 0.2653651 -0.0638642 -0.16025689 -0.007422676 -0.022416143 -0.03905611 0.14328478 -0.23084046 -0.010436873 0.09637096 -0.33036816 -0.33854318 -0.30978015 -0.15046078 0.25839633 -0.0518798 -0.3830259 0.33501855 -0.4683258 0.014395206 0.22194874 -0.39589193 -0.094130665 0.20801711 -0.22150736 -0.3905112 0.19151102 -0.599558 0.20326531 0.06658536 0.04878644 -0.0339467
346 -0.16611044 0.19236295 -0.1366218 0.053457428 0.08994471 0.07828942 -0.036561016 0.18335384 -0.08149885 -0.10838781 -0.025969218 0.2972318 0.20929587 0.05392697 0.10617141 0.09247275 0.39630696 -0.24625961 0.028049074 -0.45715326 -0.19678536 -0.19131027 0.1615844 -0.22246687 0.07746141 -0.13410777 0.10866903 -0.42257845 0.0018780946 0.25239068 -0.02918283 0.18471307 0.51111877 0.21968436 -0.09286964 0.11806845 0.18669984 0.06332626 -0.033873964 -0.09647623 -0.17351551 0.04096574 -0.10423395 -0.29244122 0.07024861 0.16468784 -0.078222856 0.21528143 0.2264291 0.38970315 -0.23826435 0.038197804 0.32047838 -0.23232283 -0.5534761 -0.03797847 0.050971013 -0.18472813 0.34396273 -0.6142697 0.31981915 0.1680292 -0.18072967 -0.11246031
570 -0.029252281 -0.19814846 -0.19487076 0.025802407 -0.18015558 0.12068343 0.35231084 -0.26141664 -0.30566671 0.20481691 -0.11979556 0.094598435 0.26444712 -0.046952263 -0.25492418 -0.20853838 -0.62113863 0.12594672 -0.027814168 -0.56070095 -0.048499793 0.071472086 -0.15485546 0.04311843 0.41407102 -0.25551426 0.115733415 0.15413205 0.11042661 -0.28455162 0.1985585 -0.27397573 0.5764307 0.06368258 0.08210313 0.22294271 -0.3457354 0.3493126 0.016257305 0.077664554 -0.03612715 -0.10579466 -0.004823168 -0.043497488 -0.49336654 0.11624785 0.15747485 -0.028586097 -0.17357469 0.07274096 -0.10774856 0.20104001 0.08932855 -0.48854426 -0.008990742 -0.38990423 -0.2938353 -0.08166794 0.16283675 -0.24624415 0.092427865 0.0189242 0.0475883 0.23849949
1126 -0.424038 0.2366 -0.35550967 0.3015365 -0.14780165 0.084751785 0.026031666 0.085133344 -0.29448956 -0.06499618 -0.13940951 0.33934852 -0.04169456 -0.1486524 -0.27304238 -0.030379502 0.10439901 0.011672085 0.30811563 -0.5036579 0.09086402 -0.6076053 -0.02031206 -0.23314433 -0.019439694 -0.117891036 0.18887407 0.11902661 -0.2253945 -0.03707322 0.21646969 0.06344977 -0.09828773 0.1980958 0.2669532 0.0046432223 0.09776476 0.14445013 -0.0571523 -0.04340421 -0.34498215 0.08243371 0.45835346 -0.44531032 -0.04094373 -0.15149394 -0.01369683 -0.2996593 -0.30464804 0.06055955 -0.15769729 0.006597184 0.20495382 -0.14809042 -0.3600196 0.49770334 -0.1339495 -0.16428177 0.28510427 0.16804296 0.21156438 0.13490513 -0.21805568 -0.28443754
910 -0.3010592 -0.2284265 -0.52551776 0.09487048 0.03560502 0.42335364 -0.001699382 0.33701316 -0.16237023 0.07970937 -0.44991288 -0.07180295 0.35805583 -0.094145104 -0.08342495 0.10652696 0.42929077 -0.21134008 -0.22696944 -0.2653539 -0.113472 -0.0035787693 0.14537399 0.565014 -0.31850734 -0.120465524 0.3024048 0.08163881 -0.15664583 -0.028400777 -0.14158566 -0.12482905 0.1923455 -0.09753201 -0.07627799 -0.03432856 -0.02637537 0.146056 0.22816685 -0.3349514 0.22654647 0.3870514 0.06816461 -0.34871933 -0.42422265 0.35913607 -0.17142247 0.107900664 -0.081535086 -0.41870475 -0.26926833 0.107682265 0.018198641 -0.054399755 -0.18960553 -0.15785776 0.1815091 -0.04918066 0.16734526 -0.23513949 0.32591468 0.1784702 -0.2351506 0.0004541056
331 0.04151957 0.27448782 -0.26524332 -0.32922444 -0.24245884 -0.05863958 0.22599865 0.06050001 0.12515323 0.1704494 0.011508743 0.20584314 0.29665703 0.1400935 0.021861454 0.05200286 0.06702917 0.113700554 0.10661471 -0.18334432 -0.15833478 -0.15220733 -0.23465922 0.3850999 -0.50140405 0.02718511 0.106380105 0.17126314 -0.4874864 0.037536107 0.10846588 -0.15772013 0.19561759 -0.27069554 -0.23472083 -0.25237557 -0.1185593 -0.04802325 0.16013785 0.13631563 -0.033350144 -0.26859358 -0.042652898 -0.0113774175 -0.6380409 0.03404465 -0.33882177 -0.120194934 0.43913865 -0.01214946 -0.26729524 -0.03353575 -0.054770544 -0.037880983 -0.42362145 -0.36380395 0.11332712 0.1955156 0.20103814 0.20972718 -0.0042855223 0.38935876 0.1296077 -0.17423558
2633 0.017095273 -0.11932441 -0.22971407 -0.4155149 -0.37096235 -0.013521931 -0.18624137 -0.22501323 0.43001592 -0.20104444 0.47045887 0.0820581 0.0051665646 0.12456258 -0.16016333 -0.06585605 -0.30711803 0.05789811 0.14465508 -0.7285854 0.009082454 -0.15298823 -0.24125506 0.21726981 -0.110507995 -0.078335464 0.21317622 0.40641806 -0.28031355 0.45103595 -0.2294491 -0.38871044 0.5218952 0.21037884 -0.15115927 0.30743745 3.1914642e-06 0.19388382 -0.003921607 -0.22867188 -0.08031218 -0.034089714 -0.017393887 0.13075927 -0.111697 0.048912145 0.12840612 0.085865386 0.03247004 0.33247218 -0.14107054 0.0023271728 -0.04108139 0.21405247 0.03104778 -0.15716119 0.082030766 -0.099138625 -0.031447344 0.11969175 0.14776896 -0.070712626 0.15570052 0.14890938
1524 -0.8789086 -0.12181637 -0.25654456 0.28284296 0.047943976 0.116271496 -0.07667457 -0.03607681 -0.09837613 -0.03469129 0.03704989 0.45928347 0.26475245 -0.28776094 -0.20716931 -0.115534484 -0.10186824 -0.021990595 0.2917991 -0.437148 -0.1567805 -0.30255497 0.27549362 -0.107596435 0.13462965 -0.21935827 0.019325484 0.0895918 0.06510504 0.31827947 -0.12273139 0.11746151 0.1423336 0.14274272 0.09688973 -0.29208365 0.026936218 0.058139924 -0.04299276 -0.25069293 -0.2369111 0.060761474 0.1076292 -0.22376464 -0.05125363 0.53171533 -0.03397153 -0.13699307 -0.08448422 -0.04396462 -0.0848746 0.09487528 0.11953006 0.25349423 -0.27425867 -0.21770188 0.11670386 -0.19679022 0.3696534 0.16096602 0.0055000237 -0.06836923 0.03971275 -0.24942859
738 -0.16553771 0.3918781 -0.028373087 0.043700207 0.2590939 0.07552632 -0.03848117 0.007843079 0.010326356 0.11772694 -0.05777976 -0.0814573 0.25625873 0.40340883 -0.3252499 -0.118310675 0.24676535 0.2134676 0.10292564 -0.362994 0.14107318 -0.30392805 0.025820322 0.052110415 -0.1029118 0.06143933 0.14582263 -0.2939713 -0.046797343 0.14527473 -0.32280403 -0.08885534 0.12670001 -0.009429258 -0.011113799 0.14978968 -0.04882986 0.0252656 0.09172371 -0.2630982 0.045729052 -0.0831429 -0.18322119 -0.09092356 -0.4014614 -0.06405657 -0.3248381 -0.0071263295 -0.063741155 0.038696382 -0.349434 -0.10306586 0.15156505 -0.105358146 -0.33378646 0.26265743 0.56682265 -0.10735745 0.19993922 -0.41464013 0.64839166 -0.08183093 0.062217828 -0.073931605
2675 -0.361579 0.19334033 -0.5954883 -0.40291545 0.21637791 -0.018664839 0.22601193 0.14306033 0.24533331 -0.0033358878 -0.35642755 0.3794836 -0.18815102 0.31110868 -0.17068279 -0.15085058 0.06266528 -0.18897457 0.06789123 -0.6624262 0.10387801 0.08485612 0.16009763 -0.23998293 0.0695671 -0.2102561 0.13849024 0.37270188 -0.08674417 0.11586798 0.06741471 0.021229401 0.23253955 0.20299068 0.2054112 0.37383425 0.31607738 -0.023904018 -0.20341244 -0.016404612 -0.15694557 -0.04440049 -0.1211677 -0.1292768 -0.119644955 0.035420198 -0.2185055 -0.25918448 0.08480289 0.1280762 -0.065337285 -0.03586902 0.052963898 -0.073694445 -0.24093927 0.46802714 -0.39047387 0.27225047 0.0098108435 -0.26310498 0.5400369 0.51489294 -0.29160428 -0.0981554
990 -0.17127344 -0.30874717 -0.1335315 0.039224364 -0.13936691 -0.24596553 0.22271456 -0.15908793 0.19206537 -0.04112409 0.2053038 -0.2951067 0.41060683 0.30261335 -0.0140903825 -0.28197727 0.11229951 0.07164696 0.32465255 0.07640819 0.016236782 -0.44476816 -0.32280293 0.18825635 0.08957877 -0.24523011 0.2103598 -0.28731668 -0.39867565 0.09953133 0.10392194 -0.15863909 0.41209385 0.09519273 -0.07572549 -0.3007897 -0.15144917 -0.16048107 0.25360107 0.042659014 -0.2827691 0.2757059 0.10250947 0.06503159 -0.417598 0.026632516 0.14044957 0.12744689 0.036680073 -0.15574156 -0.026456606 -0.033765648 0.3580172 -0.21089067 -0.27421623 -0.06785082 -0.14342573 0.26242578 0.31459254 0.01777142 0.349362 0.45366514 -0.05631615 -0.10032359
1286 -0.35882726 0.009463727 -0.5945596 -0.0026289693 -0.04724681 0.064836435 0.044025432 0.20846215 0.27420908 0.0077854055 -0.033572502 0.3372791 0.10600645 0.27509904 -0.009005682 -0.15832657 -0.095634036 0.0046702614 0.12626065 -0.44678637 -0.22061773 0.015193887 -0.042441875 -0.28502265 0.22509693 -0.5111354 0.34044936 0.30924106 -0.13856491 0.33732393 0.060046367 0.18039612 0.23442647 0.37290046 0.37495595 0.13729817 0.27392662 -0.1505973 -0.10853476 -0.05438143 -0.5069218 -0.19689286 -0.06545207 0.0027661321 -0.15139046 0.12449297 -0.37894583 -0.095328726 -0.018736009 0.5007946 -0.36520025 -0.14881581 -0.0121051585 0.34398183 -0.101396136 0.20987377 -0.15413727 -0.11647526 -0.06898726 -0.28119957 -0.0956866 0.14257069 -0.15682943 -0.2503487
1151 -0.26271933 -0.24424557 -0.28500187 0.22137934 -0.08403363 -0.3052532 0.005876045 -0.12722969 -0.011855858 -0.07539903 -0.4014983 -0.3643372 0.1602602 0.098375484 -0.17928295 -0.1758162 0.14916368 -0.059071086 -0.059641432 -0.26588282 -0.038007844 -0.09856304 0.25784138 0.030387416 -0.08266795 -0.15907705 0.07077587 -0.07784769 0.02914439 0.431005 0.1730543 0.095057234 0.28199676 0.02278184 -0.06875639 -0.2299503 -0.4107916 -0.11181875 0.1455719 -0.22459044 -0.14754727 0.228619 0.30132183 -0.34755504 -0.26816082 0.42954716 -0.075523764 -0.023685394 -0.18051444 -0.21775036 -0.2743036 0.29168764 0.09793843 0.091632314 -0.36810645 -0.1429271 0.243403 -0.05442918 0.50892967 0.022250745 0.543487 0.115344316 -0.09154988 -0.2933347
922 -0.060493782 -0.3935215 -0.17081577 0.124896124 -0.2442996 0.39809385 0.2216569 -0.0735532 0.39515862 0.10130164 0.252251 0.04988 -0.0017265894 -0.38220844 0.013769603 -0.39462525 -0.4898063 0.40698105 -0.06275563 -0.39781138 -0.12706283 -0.027168509 -0.33251914 0.041578166 0.27216312 -0.17542575 0.0017308124 0.4911282 -0.3892164 0.060872264 -0.0481042 -0.14489603 0.5139553 0.010250445 0.03300611 0.4079955 -0.08180584 0.040792048 0.29756466 0.100160815 0.22350979 -0.034057174 -0.10291355 0.039265387 -0.05021896 0.045635354 0.068335555 0.1022077 0.06775779 0.20175482 -0.20909205 0.34597704 -0.21245837 -0.14028755 0.09118583 -0.24361458 -0.02288867 0.036610793 0.3469719 -0.0774239 0.395565 -0.11803716 0.1295828 -0.060470186
2627 -0.60003775 -0.18094347 -0.53055644 0.0014453038 0.030784616 0.32778302 0.028199876 0.24112403 0.27460855 0.23264308 -0.13360846 0.10938467 0.20062937 0.2870524 -0.3497709 -0.0034411596 0.5274987 -0.20419857 -0.081384175 -0.22631817 0.15048778 -0.5483116 0.04801939 0.2653872 -0.102678075 -0.22178952 -0.06011009 -0.23890176 0.19716659 0.17301622 -0.052023705 -0.21613513 0.22127691 0.046222553 0.32314643 0.2322201 -0.10159163 -0.13991001 0.14755924 -0.10314315 0.4840722 -0.18911844 0.09809354 -0.4279644 -0.15390274 0.11740857 -0.27886492 0.3538416 0.22094862 -0.32806826 -0.55840313 -0.07648364 0.1444277 -0.28620622 0.048484962 -0.12509583 0.5838864 0.006482453 0.014914592 -0.17533052 0.5633318 -0.12802264 0.05478525 0.044983454
168 -0.12448087 0.0626775 0.13702877 0.10988004 -0.42925176 0.002205089 0.43857428 -0.0989492 0.29888234 -0.027953276 -0.11430242 -0.16606353 0.34179443 -0.09747899 -0.017311348 -0.14367622 -0.4671387 0.008661134 0.03150592 -0.38499755 -0.08511702 -0.050370198 -0.24399287 0.13031684 0.20063248 -0.09999629 0.28593126 0.34889874 -0.39400837 -0.3579685 -0.24570492 -0.113913395 0.20179354 0.42788348 -0.09125463 0.18830536 -0.4839296 0.2415748 0.07009832 0.4461792 0.04806069 -0.011466191 -0.011631512 0.11283329 -0.10314932 -0.17649533 0.15457207 -0.1544116 -0.033653527 0.14655754 -0.14340001 0.28795683 -0.15495183 -0.24166173 -0.19058803 -0.19076668 0.111097865 0.037784662 0.026876554 -0.15651694 0.030664498 0.33204892 -0.000885724 -0.05793653
472 -0.20391816 -0.23952033 -0.18893807 0.23039412 -0.60763943 0.18199436 0.20551907 -0.41399696 -0.25476277 0.13160978 -0.16497715 -0.05169447 -0.07003975 -0.14081217 -0.0689307 -0.5100105 -0.14564507 0.066047125 -0.14227188 -0.23007439 0.066577576 -0.08394619 -0.26937452 -0.06750277 -0.21748208 -0.25287545 -0.062213294 0.58044815 -0.037804548 -0.13635348 -0.3959662 0.2054506 0.26334882 0.34366074 0.052176777 0.25124878 -0.24743748 0.15852772 -0.0029359234 0.3972613 0.04448818 0.13596204 -0.05418259 0.12615238 -0.09434974 -0.39975762 0.3213316 -0.046057533 -0.23573232 0.14591886 0.059812944 0.3724438 0.1169289 -0.15179291 -0.5230109 -0.23298855 0.18513623 0.10599616 0.03546086 -0.11301741 -0.008676924 -0.008093233 -0.09729286 -0.07343921
1166 -0.24169086 0.28424218 -0.35390893 -0.09846305 0.099085495 0.2809145 0.059294198 0.015556539 0.063245796 0.24629268 -0.30160603 0.34606355 0.119111456 0.256006 0.3507493 0.078992784 0.093063384 -0.079633944 -0.12701121 -0.49268082 -0.027969535 0.013511294 0.1748292 0.17347322 -0.20737751 0.08836826 0.028145758 -0.29358712 0.028442847 0.19628365 -0.11689524 -0.21476565 0.37993127 -0.01520478 -0.08956933 0.2619107 -0.05615978 0.018382486 -0.1787869 0.02148626 0.07761091 -0.29739904 0.2727485 -0.13969773 -0.40888077 0.057705868 -0.33955428 0.08622206 0.37994516 -0.56182253 -0.58411276 0.1699981 0.08496548 0.11324684 -0.12838124 0.22552031 0.30939934 -0.36891907 0.04010914 -0.46712726 0.28120548 0.40431228 0.06511122 0.028357886
361 -0.27595806 -0.4469075 -0.53115773 0.03331309 -0.020105006 -0.24748142 0.049519528 -0.14357656 0.045344543 0.019219793 -0.31366864 -0.044183873 0.18835737 0.067601286 0.101111524 -0.021280104 -0.14717719 0.15031347 -0.034068245 -0.16123948 -0.044980027 -0.3494884 0.22890499 0.18394035 -0.23525015 -0.2872054 0.42064005 -0.15084745 0.17246033 0.0455783 -0.012331896 -0.11286485 0.36531505 -0.0494096 -0.031596147 -0.48994714 -0.31407863 0.1286792 0.1676944 -0.19920504 -0.20847316 0.3762598 0.052847777 -0.0932134 -0.16443406 0.5163033 0.2533973 0.14291884 -0.14024088 -0.014862332 -0.40664965 0.124640696 0.07011087 -0.2102796 -0.32845184 0.028390255 -0.20045473 -0.09891467 0.3177178 -0.20657481 0.4768689 0.07679604 0.26474664 0.1374434
1635 -0.2815099 0.057778552 -0.12753406 0.0142528685 0.24512199 0.08166022 0.19278142 0.24409534 0.14484914 -0.22065812 0.12858053 0.21533227 0.025038442 0.24034008 0.03758413 -0.08605007 -0.085593775 0.10383913 -0.16698657 -0.33100963 0.07568558 -0.47043088 -0.32601386 0.2276378 -0.29235223 -0.22536252 0.18222418 -0.11824348 -0.19278248 -0.03371467 -0.33800265 0.30295914 0.107471205 -0.024866771 0.37934965 -0.04856716 0.20711875 -0.031291638 -0.09576619 0.07497102 0.3196078 -0.092167474 0.21590874 0.09702267 0.14277981 0.0010022034 0.36883637 -0.26396474 0.5783809 -0.2179524 -0.41497582 0.09954228 0.4106537 0.1031144 -0.57952744 0.22030152 -0.26573333 -0.18637219 0.2625477 0.14032333 0.13985665 -0.35164428 -0.3114993 -0.18325697
132 -0.2433919 -0.20159937 -0.031230768 0.010125409 -0.18221933 0.2785894 0.058105428 -0.3927629 0.04381747 0.011575219 0.11435571 0.09285977 0.2625959 -0.2579425 -0.38467357 -0.24762873 -0.18764013 0.05659721 -0.0669101 -0.20340727 -0.0336424 -0.11127888 -0.3294417 -0.1619321 0.080082126 -0.25532413 0.15605749 0.53210765 -0.2631635 0.17444357 -0.36698258 -0.14764756 0.23460886 0.1112525 -0.07238176 0.40900594 -0.24500196 0.16351624 0.0892037 -0.068293035 -0.18785515 0.01858628 -0.028701032 0.33525285 -0.1278617 0.23190019 0.14677393 0.028198142 0.15603054 0.09170755 0.2997072 -0.033747967 0.049045455 -0.46556565 -0.21072564 -0.47195128 0.2085015 0.03534339 -0.06543401 -0.24115744 0.05363156 -0.17314452 0.053808667 -0.42863193
227 -0.1079398 0.1155163 -0.36493626 -0.07190568 -0.028921911 0.16619384 0.25385267 0.36723405 -0.008799393 0.04502408 -0.10646198 -0.14358015 0.17342867 0.44168 -0.48712316 -0.12824747 -0.19114713 0.19523287 -0.08692127 -0.14454442 -0.0054913675 -0.34011555 -0.037945583 0.3970433 -0.13554269 -0.02035882 0.27816623 -0.03264389 -0.030809235 0.30189538 0.0006359014 0.29034945 0.021068802 -0.12692142 -0.13899557 0.014396693 0.023854623 -0.114941426 -0.22919875 -0.07884537 0.23143654 -0.11113974 -0.12621151 -0.163964 -0.31687024 0.13851674 -0.096610695 0.14141364 0.31148833 -0.29683802 -0.50101143 0.19466782 0.1988264 -0.11296485 -0.3094428 0.22126666 0.23091036 0.08015638 0.11720707 -0.02259286 0.48171037 0.070647754 -0.030068452 0.021594755
2457 -0.15915419 0.28681865 -0.2531064 -0.021427441 -0.02990022 0.3514359 0.31199816 0.11943515 0.26132786 0.34441143 0.13110277 -0.045461517 0.4354377 0.3601517 -0.35479823 -0.4608574 0.031672664 -0.0028888623 0.1429888 -0.21080522 -0.07825878 -0.27511096 -0.09664206 0.501418 -0.5195761 0.28357977 0.30843037 -0.011088355 -0.40986267 0.15416959 0.11666146 0.0032395222 0.27264515 -0.26031625 -0.052521244 -0.0043444606 -0.21510853 -0.23368257 -0.2853865 0.002562252 0.14061098 -0.13061802 -0.09676488 -0.1170797 -0.47843 -0.009327408 -0.16154642 0.29624212 0.14599764 -0.1959453 -0.18542914 -0.19012715 -0.017024143 0.040926117 -0.29749876 -0.18337238 0.40629718 0.1947004 -0.10818861 0.10220797 0.2220013 0.22303052 0.26335788 0.11275194
1343 0.030595118 -0.07635274 -0.13702054 0.058892038 -0.28850678 -0.10161702 0.42199206 -0.033022057 -0.08093596 -0.098446354 -0.19280376 -0.21434149 0.023049917 -0.057180814 -0.110673 -0.24489133 -0.47605932 0.21132672 0.08729994 -0.4063822 -0.37500593 0.08498187 -0.08984565 -0.09019949 0.104312025 -0.033526134 0.090180546 0.57937086 -0.29104608 -0.32886335 0.07102235 0.1545795 0.24419844 0.22402562 -0.22661349 0.09399307 -0.44974002 0.21722372 0.084245585 0.21029022 0.16204932 0.0560448 0.1521139 -0.024672672 -0.12481338 -0.056473628 0.27641413 -0.2775981 -0.21975164 0.10294972 0.010894082 0.5486592 0.14827336 -0.23021926 -0.38334933 -0.19086692 0.11151068 0.19555464 -0.039694477 -0.09754699 0.11797715 -0.26859042 -0.20445101 -0.29981586
824 0.03050017 -0.17428209 -0.3990888 0.12735204 0.31951314 0.06784467 0.1174031 0.038842488 -0.12814714 -0.018752154 -0.16820788 0.028911926 0.26214084 0.1046251 -0.06343899 0.11131994 0.3813968 0.19333325 -0.018134382 -0.2640653 -0.18206932 -0.14795874 -0.23389335 -0.017186718 -0.07466387 -0.13156769 0.16854008 0.023762703 -0.025125153 0.19985466 -0.28314352 -0.03977128 0.018347979 0.1959122 -0.17271404 -0.38667333 -0.0048364135 -0.087079704 0.07291144 -0.47019088 -0.34452975 -0.2948944 -0.08404692 -0.058902502 -0.26746362 -0.061997887 0.256757 0.12073461 0.18196802 -0.24997365 -0.511135 0.3182079 0.057738155 -0.21616721 -0.052673418 0.20210265 -0.17117116 -0.16911864 0.5187811 -0.6398748 0.39431632 0.29291326 -0.1757189 0.18543722
998 -0.0011862331 -0.38114676 -0.19001852 0.13039745 0.3463843 -0.11984673 -0.03229085 -0.31853524 0.28247395 0.12696122 0.25118154 0.07423619 0.25215992 -0.07044223 -0.22253563 -0.22847731 0.3995301 0.030890299 -0.05360481 -0.47610232 0.06330088 -0.08511996 -0.0203493 0.28741258 -0.22432621 -0.29172844 0.15873246 0.13120611 -0.49190396 -0.05014501 -0.15596075 -0.24214485 0.402383 -0.08196847 -0.015348027 -0.04177773 0.25585857 0.2682393 -0.039538685 -0.17860146 0.017724022 0.040880583 -0.35956374 -0.09654122 -0.35795382 -0.073742256 0.33142582 0.27746546 -0.05520987 0.31424633 -0.20331089 0.37552094 -0.06371134 -0.028032392 0.13646886 0.05227913 0.046645466 -0.31062272 0.5500703 0.098457076 0.28071657 1.5425774e-05 0.3578752 0.17241618
2114 -0.08372583 0.00130395 0.19995971 0.17969523 -0.24824326 0.048340484 0.11849625 0.068887405 0.37842467 -0.63829345 0.03838344 0.102557585 0.017043 0.4379252 -0.16853194 -0.09070712 -0.16199666 -0.058126163 0.36399478 -0.56050026 0.22132182 -0.008453061 -0.44831422 -0.15488398 -0.16261183 0.06076741 0.2769389 0.4172329 0.041717753 -0.22542867 -0.40004447 -0.4425313 0.40239894 -0.0976712 -0.06617252 -0.046127662 -0.011996238 0.06511305 -0.21972458 0.35350472 0.07425772 0.18711594 0.38907322 -0.06844265 0.038228486 0.052721445 0.31642434 0.14215529 0.024566336 0.32021764 -0.14977272 0.097753614 -0.2651111 0.021030614 -0.109540395 -0.19680792 0.4948429 0.4076879 0.05830314 -0.24750052 0.14017253 0.043615647 0.059000622 -0.367276
2300 -0.018473595 -0.17404377 -0.40749624 0.36868903 -0.18664256 -0.20949484 0.25011766 0.10573631 -0.58294654 0.19620071 0.07925908 -0.04064009 0.2809617 -0.38583168 -0.020237194 -0.124951236 -0.028579943 -0.008181432 0.12724295 -0.37118572 -0.17091824 0.100272425 -0.13284215 0.10072499 0.0053917123 -0.28355065 0.06623622 0.19163273 -0.00097481627 -0.035485312 -0.018055988 -0.225307 0.43796453 0.097561754 0.009048017 0.081160896 0.17696045 0.09742353 -0.29604518 0.6866347 -0.12944554 -0.5685959 -0.18336861 0.12772612 0.097810835 -0.22900662 0.44270763 0.04114431 -0.1258891 -0.05214272 0.023180211 0.34889677 0.45724362 -0.030317746 -0.42117372 -0.12435354 -0.05451717 0.1289508 0.01481389 -0.5245637 0.23661579 -0.6670164 0.24415407 -0.33046645
2365 -0.6900997 0.4333928 -0.023883117 0.5424695 -0.14416464 0.15288743 0.0117461765 -0.3114866 0.055169936 -0.5535544 -0.29654294 0.30358228 0.0491419 0.6202583 0.18399476 0.20765345 0.07255523 -0.14238927 0.10085941 -0.35328078 0.09785508 0.27275425 -0.01423905 0.13122691 0.3884345 -0.11539008 0.14563364 0.48803425 -0.27286732 -0.29032436 -0.24556987 -0.4088496 0.059717383 -0.015094833 0.14217433 -0.2003295 -0.1763171 -0.2653824 -0.013948565 -0.0026186204 -0.11952707 0.22788775 0.17290749 0.12207013 -0.025050078 0.21674614 -0.07307901 0.41199443 0.26359782 0.16618414 -0.21335734 0.27623922 -0.09934579 0.27981532 -0.45133737 0.0005881839 -0.072601855 -0.16015306 0.1330898 -0.18268368 0.086266205 -0.13721122 0.49302363 -0.32585645
469 -0.06564044 0.2221546 0.022977632 -0.16558388 0.064308055 0.39900848 0.40504724 0.007912411 0.3420948 0.18495925 0.04815424 -0.09873404 0.41850817 -0.03100923 0.057215232 -0.23740937 0.17255926 -0.17590967 0.27660373 -0.06246043 -0.057586107 -0.28953686 -0.23447958 0.47197846 -0.07836204 -0.041099884 0.08572622 0.1784733 -0.4885416 -0.1961955 0.042425048 -0.120938435 0.16688485 0.024278905 -0.47190586 0.0016705813 0.18859558 0.08394075 0.10446505 0.05795891 -0.08233646 0.003286647 -0.25428593 0.001540918 -0.60067415 -0.07940407 -0.50192684 -0.09911452 0.029181134 0.07827224 -0.29449454 -0.045357443 0.14523199 0.12616435 -0.41025752 -0.24468598 0.21767302 0.20605819 0.14667456 0.032862555 0.22812104 0.09452503 0.4601433 0.0072137504
1608 -0.3923489 0.41548282 -0.26748464 -9.870813e-05 0.225138 0.22722651 0.21761128 0.14607866 0.21803755 0.17736953 -0.1872304 -0.019373566 0.11784244 0.24152806 -0.21117909 -0.08363399 0.08610976 -0.12042659 -0.038675077 -0.36956456 0.004726541 0.0017769188 0.32758504 0.20330468 -0.044636276 -0.021333162 0.07513389 -0.43072534 0.005251392 0.059369754 -0.12213975 0.102863856 0.20082143 -0.0003946657 -0.17958435 0.09119897 -0.04860266 -0.20266427 -0.03713687 -0.21522991 0.34381226 -0.3260501 0.10971524 -0.2726328 -0.42369744 0.04324486 -0.36253336 0.056496356 0.0972942 -0.30033198 -0.58226776 0.059210107 0.21772482 0.09549093 -0.56739837 0.040710017 0.5825211 0.07334683 -0.06104334 -0.03107885 0.62607944 -0.007341167 0.43386957 0.028778613
205 -0.45134518 0.02594475 -0.2642341 0.4006421 -0.37977076 -0.14327972 -0.07810179 -0.036660656 -0.39976642 -0.041373838 -0.08111595 0.6597479 -0.0682357 0.025920141 -0.18012081 -0.30494004 0.2940109 0.06855843 -0.016087312 -0.39587653 0.06548365 -0.41805518 0.04841609 -0.18525653 -0.025946407 0.0751618 -0.2905316 0.35089678 -0.08470349 0.12562275 0.08510434 0.41042864 0.046941668 0.2305135 0.12490564 0.20530346 0.103689194 0.066138804 -0.047932748 0.22411692 0.1138115 0.1961904 0.26360536 -0.055865213 -0.06395324 -0.04139372 0.05844311 -0.47904772 -0.20533872 -0.09756546 -0.22726682 0.41171634 0.26622123 0.06077044 -0.55619943 -0.07107022 -0.009237093 -0.07699159 0.40311462 -0.12666361 0.15017027 0.079500966 -0.3564207 -0.117570706
2619 -0.18667099 0.24058276 -0.15226847 -0.24319786 -0.012680488 -0.02442096 0.2638549 -0.1368621 0.16599774 0.5772989 0.16120145 -0.09445868 -0.014960964 0.6294356 -0.38638884 -0.19636922 -0.209255 0.043658663 -0.024408923 -0.20232609 -0.078219615 -0.25033176 -0.20131096 0.1966437 -0.33704352 -0.0062816134 0.20660625 -0.11216384 -0.48700097 0.006409025 -0.1352785 -0.31456003 0.17646278 0.6147684 0.047092684 -0.20776294 -0.3017756 0.21296787 0.07834069 0.011032758 0.0018506027 0.15674728 -0.3213562 -0.31105173 -0.11035794 -0.071964465 -0.30320394 0.19607055 -0.024565458 -0.058224887 -0.4196766 -0.0006951894 -0.02821391 -0.43508226 -0.19135134 0.22287641 0.564056 0.24110223 0.14765503 0.137815 -0.23358227 0.043769673 0.23468874 -0.27588522
178 -0.29801223 0.29203647 -0.07707782 0.101166025 0.05966856 0.16347837 -0.041386735 0.47041422 0.13399737 0.33659756 -0.019897606 0.006302681 0.002212575 -0.10548841 -0.18456243 -0.031585153 -0.3254012 0.10428224 0.118975036 -0.33319724 0.12958223 -0.18435076 -0.17680351 0.04141528 0.20272371 -0.45182732 0.34686318 0.2144973 -0.11097815 0.17837754 -0.15494825 0.3840564 0.02217766 -0.08096331 0.20424911 -0.012911719 0.5149912 0.034508493 -0.0050909435 0.1485042 -0.1700364 -0.25522846 0.19146404 0.073264085 -0.04980276 0.07871216 -0.14903626 -0.16888614 -0.0042685275 -0.059444193 -0.62225807 0.11351318 0.020075554 0.09878306 -0.43679127 0.45409602 0.007568332 -0.10750033 0.29478312 -0.15206036 0.422071 -0.29953668 -0.2462144 -0.22894345
1500 -0.51775104 -0.10114441 -0.6000978 0.62401897 -0.13622242 -0.0784181 0.033710185 -0.12677388 -0.06903394 -0.23283404 0.12857573 0.33603275 -0.094662696 -0.15119332 -0.27594015 0.022769066 0.08758985 -0.32868302 -0.27623916 -0.20326884 -0.3480551 -0.2702432 -0.20068601 -0.2354144 0.40579912 0.0066339415 0.07114355 0.22563662 -0.38167048 0.16453671 0.09595978 0.11332699 0.10824813 0.41725516 -0.054348085 0.2653381 0.05057609 0.064997666 -0.44564396 0.024014303 -0.45051184 0.00058003044 -0.12574948 -0.26992747 -0.3269487 0.19688459 -0.20623806 -0.19507451 -0.12654498 -0.20134129 -0.2017973 0.047381856 0.4168857 0.22803147 -0.20629203 0.12493606 -0.17880654 -0.18843171 0.087916136 -0.15498538 0.017609082 -0.37975928 -0.405676 -0.0429795
1750 -0.2682139 0.52295834 -0.2504032 0.15771341 -0.07314755 0.22353715 0.1674391 0.046199437 0.14191356 0.1612625 0.040177017 -0.3004968 0.22388852 0.22739406 -0.33467585 0.17681026 0.22848906 0.07924089 0.0022857718 -0.07511914 0.12321206 -0.31892067 0.263783 -0.111069694 0.08740875 -0.16606389 0.1755442 -0.007624395 -0.003803696 -0.0734335 0.08110178 -0.27216443 -0.11721529 -0.015653314 0.022135725 0.44765443 0.2833677 -0.09154291 -0.042635266 -0.34835377 -0.042883564 -0.22902645 0.11656822 0.03018086 -0.5127088 0.15092447 -0.30510908 -0.14774846 0.11203803 -0.015994448 -0.45650294 0.15512826 0.14310206 -0.16033229 -0.61889267 0.43371096 0.18167327 -0.30891398 0.03331866 -0.41015768 0.5801486 -0.122447096 0.07866336 -0.059306193
991 -0.38667807 -0.18240638 -0.68077457 -0.053467296 0.34502548 -0.59514683 -0.15651795 0.18233067 0.14262173 -0.39585844 0.06795333 -0.043383997 0.1961941 0.12315929 0.117688365 0.12720336 0.15287526 0.16940358 -0.07861416 -0.31906822 -0.38359427 -0.28776488 0.5662424 -0.1365506 0.13048401 -0.63080764 0.5064569 0.3377738 -0.085579105 -0.2023984 -0.06795256 -0.045177024 0.22163528 0.32117328 -0.15795857 0.016469384 -0.31122527 0.099565685 0.15918818 0.034281176 0.21451753 -0.0647062 0.0877919 -0.4379879 -0.06493864 0.38366902 -0.3266444 0.07724517 -0.003355797 -0.0525083 0.18223879 0.241701 -0.1501722 0.029653583 -0.49898908 0.060419217 0.18273067 0.004968586 0.28548774 -0.25583923 0.1051289 -0.011132912 0.06801037 0.11169258
975 -0.47656235 0.29689136 -0.56849843 0.16744241 0.06920167 0.29346606 -0.0832669 0.36457327 0.06036375 -0.01496556 -0.17157392 0.13111156 0.033649985 0.3022405 -0.40031815 -0.10424554 0.007735249 -0.03591371 -0.18344241 -0.27172196 -0.28249753 -0.24636625 -0.21108264 -0.4393391 0.25495487 -0.23905471 0.16048147 0.35953873 -0.14949794 0.16808677 -0.18751712 0.08607612 0.19361803 -0.11147658 -0.07274701 0.17388895 0.35955986 0.2288681 0.0062822583 -0.061605863 -0.5333456 0.053331133 0.122162394 0.0634405 -0.059353072 -0.047340326 -0.06804314 -0.043402545 -0.18175404 0.114534765 -0.41501978 0.06385126 0.053196225 0.0018735775 -0.26067236 0.6095598 -0.1388575 -0.1102974 0.028079124 -0.21904862 0.27761328 -0.03087875 -0.09765144 0.11630533
1913 -0.29854453 0.21881263 0.1438635 -0.02870464 0.009025153 -0.0050753243 0.20685115 0.040586613 0.2216316 0.19822635 -0.16612965 -0.395605 0.43718222 0.52171403 -0.18414253 -0.32759067 -0.072193354 0.26417392 0.079913326 -0.16670017 -0.047506142 -0.27122033 -0.06801952 0.36291787 -0.12217062 -0.03645334 0.17044768 0.056547917 -0.46858284 -0.09591734 0.06876997 -0.3737894 0.07872329 0.020816918 -0.4770278 0.24252774 0.024794562 -0.3254798 -0.31521216 -0.06862262 0.0014616741 -0.09879714 0.021036161 -0.1148857 -0.5409426 -0.016187042 0.045716077 -0.01583436 -0.010958705 -0.124378026 -0.40475148 0.07574621 -0.04868568 0.12496105 -0.13174942 -0.4673321 0.42302963 0.08587327 0.023407727 -0.109735064 0.19730046 0.14686795 -0.13091736 0.006407495
2153 -0.20415618 -0.10972566 -0.2869764 0.2819036 0.010752165 -0.0076333224 0.04484031 0.18175592 -0.071094915 0.03508069 -0.18891132 0.045252074 0.44391975 0.22154976 -0.07949811 0.060718082 0.40858623 0.1589492 -0.20382205 -0.3714728 -0.099150576 -0.28849638 0.010206494 0.038634993 -0.23774177 -0.031669937 0.1266097 -0.2167967 -0.12571824 0.16567048 -0.11259006 -0.22660421 0.27386785 0.111447014 -0.02957888 -0.22467254 0.22411549 -0.049892873 0.06272149 -0.2345845 -0.20726284 0.025767518 0.001450867 -0.01884751 -0.1460263 0.09364172 0.058086194 0.30571863 -0.061292678 -0.075973116 -0.3161536 0.40969422 0.39784417 -0.17502464 -0.06492387 0.2595542 -0.037796155 -0.30054143 0.3512318 -0.2649127 0.5598766 0.031789728 -0.11696842 0.07688454
880 -0.17349756 -0.12459902 -0.43008313 0.22914347 -0.18707944 0.0035646302 0.03389119 -0.18807246 -0.11181842 0.22851664 -0.01378988 -0.13962384 -0.21251939 -0.013293148 0.045338 -0.24655034 -0.123124585 0.2163642 -0.11800483 -0.11521395 -0.28998473 -0.105957225 -0.40858993 0.109891154 -0.10335915 -0.14020449 -0.20282476 0.49843788 -0.4498007 0.3447567 -0.1185143 0.39985663 -0.0130776325 0.29795426 0.015833749 0.00092524523 0.025831845 0.52966636 -0.38326016 0.59640175 0.02030438 -0.405485 0.009284074 -0.46931484 -0.3349558 0.2812608 0.6231901 -0.43484825 -0.31920257 -0.44594324 0.06028376 0.30057484 0.19188276 -0.21910836 -0.46986347 -0.114157215 -0.20842636 0.10781599 -0.030866679 -0.28172702 0.19044484 -0.14449044 0.55495095 -0.82752144
2637 -0.18127833 0.32687205 -0.0040518534 -0.07490091 -0.30240566 -0.15807389 0.24142465 -0.13986768 0.0042265477 0.10394348 0.09700877 -0.28208253 0.13896474 0.5597002 -0.3543054 -0.34329024 0.10799032 0.27276808 -0.020285793 -0.35202134 -0.081238784 -0.4155578 0.08083525 0.686192 -0.37769184 -0.036044475 0.2901814 -0.103558645 -0.25817922 0.32366344 -0.090309 -0.18714607 0.28130576 0.08385601 -0.33689693 0.04252253 -0.05974647 -0.017107017 -0.19246542 0.14127731 0.0350481 -0.17367236 0.14387816 -0.04066601 -0.042639557 -0.10354053 -0.00010965309 -0.066921495 0.067202635 -0.0051207743 -0.23214924 -0.21478496 0.18250729 0.25824478 -0.14473316 -0.21012115 0.61486834 0.06537106 -0.15347996 -0.064015545 0.39219698 0.12375833 -0.2637597 0.16067022
1229 0.02288486 -0.22587416 -0.6262858 0.01153174 -0.16638394 0.30544916 0.008660808 -0.0011179753 0.23334163 -0.2832577 -0.041924555 0.31830448 0.016426688 0.2555158 -0.20419191 -0.004883654 -0.1646829 -0.06262252 0.41559154 -0.4493282 0.07821499 0.05927528 -0.43441883 -0.20771591 0.4123958 -0.42412853 0.30347663 0.3092746 -0.05805609 0.4085793 0.028477723 -0.15147124 0.46539506 0.24703601 0.089063525 0.26748824 0.07372453 -0.20422335 -0.2566019 -0.07400984 -0.48288035 -0.16282041 -0.077407375 -0.06398164 -0.3892533 -0.023586806 -0.09554834 0.061306883 0.19234128 0.50452596 -0.24447528 -0.049842533 0.023910476 0.07571378 -0.005451789 0.20785591 -0.037982892 -0.10073612 -0.47357658 -0.059394643 0.14214198 0.07003218 -0.16829537 0.027659452
765 -0.14280383 0.046151523 -0.27136377 -0.07856897 -0.30531573 -0.27150756 0.16758066 -0.25944626 0.17510337 -0.03537083 -0.13778943 -0.4154838 0.3516744 0.02526853 -0.045775734 -0.22737582 0.009035577 0.21910828 0.24572505 0.055910353 -0.11291149 -0.43381286 -0.11524145 0.1864727 -0.06500941 -0.10909685 0.08685074 -0.29961798 -0.50744426 0.05124489 0.0710105 -0.09566943 0.41261992 0.03427461 0.13154966 -0.33484605 -0.15468594 -0.09731748 0.4031629 0.07260561 -0.35640222 0.10926084 -0.05564044 0.03893474 -0.5763008 -0.030695066 -0.03338301 -0.09418695 0.1479536 -0.15788037 -0.18152183 -0.19092177 0.16373463 0.11869956 -0.3378059 -0.11603657 0.0346549 0.19630034 0.3031218 0.03365804 0.2825533 0.3941497 0.1422001 -0.25490314
2234 -0.26059565 -0.15091649 -0.2344045 0.037466235 -0.354605 0.4764437 -0.21098599 -0.14785835 0.19236024 -0.15753776 -0.15179653 0.1054198 0.20597349 -0.19217098 0.017070696 0.1808382 -0.12652017 0.32458207 -0.5694181 -0.17371899 -0.15355417 -0.058436822 -0.39808792 0.22739367 -0.04378742 -0.07699133 0.26162633 -0.38856453 0.12477144 0.23212688 -0.0026230079 0.17435876 0.44219795 0.30686527 0.09700809 0.26919597 -0.25536394 0.0630673 0.15029939 -0.1732578 0.004711554 -0.0774416 -0.025310805 -0.13841939 -0.44110507 0.3301786 0.3153079 -0.09591133 -0.09329652 0.683993 0.046540443 0.31954318 0.19155009 -0.22356859 -0.0060733403 0.26707587 0.057681452 -0.23906565 0.088615604 -0.33541057 0.40057066 0.08439656 0.27797785 -0.21447618
2612 -0.5436356 -0.1247249 -0.19224276 -0.26861072 -0.14908239 -0.2800875 -0.22413525 0.11884915 -0.023801686 -0.062074114 0.15797138 0.013922543 0.1719842 0.23118033 0.10200792 -0.17293674 0.11946537 -0.2632346 0.22532251 -0.1557054 0.53757674 -0.39721936 -0.103621274 0.0017156012 0.10620346 -0.49402076 0.16046542 -0.25322723 -0.3437542 -0.005672744 -0.16732606 -0.26482642 0.49434584 0.46562764 0.15168712 0.10716346 -0.091318145 0.0486937 0.5450592 -0.22234127 -0.21092828 -0.070279 -0.3121357 -0.1265981 -0.41625193 -0.09040997 0.24848878 -0.02597886 0.028692296 -0.3346532 -0.15461378 -0.13893616 -0.26260912 -0.4583089 -0.13879806 -0.13035007 0.17956725 0.32043558 0.009587794 0.010378965 0.4719955 0.28270084 0.15298964 0.07192414
2041 0.047507174 -0.02106963 -0.6327952 0.18998782 0.13510165 -0.0019199672 0.3396882 -0.36710703 -0.14528638 0.10477506 -0.055536896 0.032463178 0.32584575 0.0777289 -0.04854662 0.24231215 -0.4757515 0.05944239 -0.016548935 -0.41445372 -0.23485632 -0.16782871 0.22715823 -0.3252948 -0.17428578 -0.49594337 0.02102213 0.41609925 0.20761658 -0.12522744 0.046615638 -0.18967737 0.32308772 0.3707494 -0.093990855 -0.10093993 0.1551243 0.31502393 0.29327568 0.078305505 -0.2608676 0.009107656 0.47197178 -0.07548755 -0.35245863 0.10076399 0.1186173 -0.24827223 0.51440585 -0.07382442 -0.49294013 -0.0843567 -0.175927 -0.16959324 -0.046237227 -0.29563332 -0.21638672 0.2847656 0.33968893 -0.09584423 -0.18939765 0.026473515 -0.17728099 0.19525966
1100 -0.31776938 -0.5427265 -0.14883108 0.2938597 0.3954719 -0.20376168 -0.19936062 -0.29225856 0.0501112 -0.04476968 -0.1492173 -0.16717076 0.027720306 0.1508965 -0.27194792 -0.28138822 0.30440372 -0.20218751 0.25078315 -0.41909787 -0.10430709 -0.03303154 -0.00058820256 0.27464247 -0.29962048 -0.201047 0.38336864 -0.14910756 -0.19120897 0.1333626 -0.25122112 0.07271329 0.14565553 0.08997986 -0.27155548 -0.24780531 0.0027076607 0.09163933 0.26952866 -0.10581753 -0.21924426 0.3159764 -0.27618617 -0.28588876 -0.13575456 0.38150215 0.39651468 0.26279786 -0.29993576 0.1123989 -0.5431451 0.09359919 -0.1206381 -0.06581985 0.042047225 -0.08639225 -0.19029902 -0.30690804 0.2981631 -0.4801912 0.40580478 0.1681513 -0.024713833 0.14640473
2460 -0.42509544 0.041074015 -0.27908382 0.049243573 0.09823175 -0.044619318 0.03997602 0.08506565 0.05939647 -0.30531642 -0.35120773 0.52189493 -0.10334734 -0.016794605 -0.18500262 0.104291804 0.040613424 -0.039484445 0.049609352 -0.50833285 -0.16739511 -0.1813068 0.021395227 -0.257393 0.04866208 0.089429505 0.25460246 0.2946352 -0.240869 0.15700673 0.21101275 0.036691613 0.4469433 0.40719193 0.24364914 -0.23857306 0.28971806 -0.3009791 -0.1795791 -0.15105903 -0.18076232 0.012422881 -0.14286079 -0.026451418 -0.20466171 -0.013836229 -0.052702148 0.08482779 0.32805994 0.20528781 -0.046224903 -0.16882592 0.42105496 -0.4564657 -0.21270062 0.2141272 0.08805322 -0.02217206 -0.058753774 0.17338264 0.6595702 -0.31611016 -0.42114303 -0.06381822
190 -0.52660877 -0.23183858 -0.15874252 -0.18963261 0.050495956 -0.1957723 0.376003 -0.0027635812 0.006638613 -0.14432533 -0.39972204 0.14216085 0.21750928 -0.21401717 -0.05571264 -0.051984675 0.102988675 -0.31249398 -0.06019463 -0.11096581 0.06762127 -0.16161409 0.15908922 0.14977841 -0.27699894 -0.51447284 0.29905108 0.15460691 0.093403906 0.19901322 0.12653573 -0.12854189 -0.0011021233 0.15448914 0.18511912 -0.3068387 -0.17037001 0.06495406 0.15553886 -0.42620888 -0.13044752 0.20315208 0.1946778 -0.14160374 -0.35223597 0.37336096 0.16812468 0.100346155 -0.39898783 -0.16691664 -0.2025395 0.030632105 0.40308514 0.072635345 -0.34250253 -0.057784185 0.173273 -0.022568133 0.28784555 -0.015933407 0.5381268 0.06763055 -0.18728705 -0.24923725
706 -0.22380501 -0.25306594 -0.14546016 0.31913158 -0.33832055 0.014219857 -0.0016600604 -0.2386879 0.27896327 -0.54246825 -0.13750666 -0.2284581 0.3862137 0.1700874 -0.2523781 0.084185466 -0.11079744 0.051491957 -0.15686302 -0.28146228 0.38053355 0.2906715 -0.16203536 -0.118698515 -0.2572128 0.1290969 0.46977815 0.5389229 -0.107691176 -0.10385979 -0.26154885 -0.3316437 0.6293239 -0.03894 0.04418271 0.25262028 -0.09964648 0.1029671 0.30764607 0.06731935 0.13249564 -0.18614759 0.2402863 0.0074818125 -0.22122604 -0.012826719 -0.28128013 -0.017282242 0.31264457 0.422327 -0.059893284 0.24961455 -0.36134186 -0.10878342 -0.10276022 -0.03170441 -0.060627073 -0.105467595 0.20041052 -0.19600339 0.09161001 -0.14577742 0.39619976 -0.3074368
1272 -0.4019653 0.056670226 -0.5902639 -0.26466542 0.06947594 0.15600441 -0.14393207 0.2039101 -0.10816149 0.01866703 -0.053031206 0.58247674 0.22731377 0.1451249 0.053295422 0.32233813 -0.28212312 -0.012963023 0.018403014 -0.330333 0.067408785 0.0210367 -0.14258851 0.065563105 0.20444639 -0.34972787 0.13344467 0.25760907 -0.105048746 0.25948206 0.33517072 0.10054037 0.41527382 -0.06795682 0.14065675 0.52713376 -0.11536512 0.13858818 -0.08118933 -0.0029502802 -0.5118919 -0.17293239 -0.01546521 0.04164772 -0.37578335 0.09476671 -0.19721249 -0.21607947 0.06733034 0.40775278 -0.15382178 -0.29764405 0.21507825 0.11636111 -0.1718817 0.19031195 -0.26752156 -0.25101656 0.13646933 -0.36605862 0.029845282 0.15658699 0.023181573 -0.18244922
397 0.06422293 -0.17121643 -0.080630764 0.59688324 -0.23402138 0.35849264 0.17398976 -0.37506235 -0.31296092 -0.027293207 0.0722791 0.2810262 0.19176355 -0.47887006 -0.3049203 -0.12051568 -0.2543622 0.09723442 0.15751354 -0.4161625 -0.20993385 -0.2789352 -0.16375765 -0.026399186 0.14676315 -0.13486765 0.38136607 0.5404372 -0.11622002 -0.00095897267 0.12953615 -0.28919137 0.2604158 0.16047819 0.0714584 0.09155954 -0.2435004 0.3118073 0.0072413185 0.12821963 -0.09034796 -0.19688453 0.1765134 -0.026418924 -0.04034318 -0.13555531 -0.06969036 -0.16892922 0.08120415 0.037143588 -0.034963097 0.33956918 0.15670823 -0.13946296 -0.26290822 -0.25528798 0.010400199 0.1829623 -0.088718295 -0.27777198 -0.14238505 0.07607466 0.20426287 -0.044450443
2165 -0.18590166 -0.08920025 0.06651523 -0.19181895 0.07891282 -0.24971297 0.35013598 -0.103331774 0.05338209 0.08188876 0.020423122 0.019378899 0.19201742 0.13627236 -0.28960657 -0.28623036 -0.0021563743 0.54499465 0.44162866 -0.52091837 0.085365586 -0.023101278 -0.05218374 0.15798706 0.12651664 -0.13474087 -0.14724867 0.29681504 -0.25466433 -0.10235919 -0.09173694 -0.21276024 0.32714784 0.264925 -0.31512687 0.199952 0.035458684 -0.008667853 -0.017238004 0.12736817 -0.2511132 -0.000826595 0.091219254 0.1655641 -0.2232711 0.0770397 0.10384816 -0.10418245 -0.20614801 0.18010165 -0.16744599 0.01083553 0.38562033 -0.05850167 0.1156101 -0.5016128 0.55024594 0.10059003 -0.08196694 -0.22666174 0.088975154 0.14883791 -0.14269966 -0.17649107
1773 -0.3606906 0.09937054 -0.42955863 0.09797274 0.2982432 0.011499541 -0.16099408 0.05760872 0.18090646 -0.26657003 -0.33396685 0.43615848 0.0093191955 -0.19487453 -0.20798165 0.17541619 -0.0017656236 -0.2670077 -0.09463676 -0.3743075 0.05136943 -0.2757942 -0.07858066 0.08481656 -0.07239126 -0.060991332 0.1693298 -0.019684123 -0.06264504 -0.34321204 0.16431928 0.052281816 0.18071695 0.18022093 0.26126808 0.08348058 0.039002977 -0.24837361 0.033845477 0.26122338 -0.091808826 0.2590148 0.07929032 0.06383087 -0.37106568 0.105355516 0.46805105 -0.0641972 0.055050027 0.012136212 -0.25596142 0.24987765 0.40636724 0.28988215 -0.42717615 0.25305316 -0.21389824 -0.015022451 0.31334367 0.09327395 0.16513987 0.022088949 -0.38877413 -0.22707553
1356 -0.22169705 -0.33543286 0.049297865 0.18216076 -0.19105989 0.0071743643 0.08774262 0.022215692 0.083761364 -0.12904082 0.16506787 0.18309993 0.19802873 -0.070001595 0.24917816 -0.4275886 -0.34769028 0.122049436 0.25313097 -0.15512468 -0.18096787 -0.19471514 -0.525523 -0.09435399 0.02274979 0.10842321 0.09506033 0.3321226 -0.15090495 -0.13491222 -0.13129427 0.015189095 0.40117702 0.16766791 -0.024444 0.07633802 -0.3008141 0.21472713 -0.00011496972 0.33705848 -0.10676035 0.20507777 0.09085579 0.2304089 -0.18659186 -0.11270859 0.31485343 -0.108458 0.1739035 0.01079835 -0.12623228 0.16569388 0.025067808 -0.08306871 -0.3037919 -0.3276376 0.41787836 0.35874897 -0.07711453 -0.19407597 0.13376887 0.17551188 -0.08026486 -0.30585703
527 -0.041683085 -0.36566523 -0.2090778 -0.24782225 -0.3252464 0.16167863 0.14104404 -0.6361527 -0.07688173 -0.18408254 -0.031078348 0.038250044 0.24821317 -0.027160898 -0.2980577 -0.2584503 -0.33679187 0.0327032 0.0024036418 -0.38248643 -0.12932609 -0.025109114 -0.23283467 -0.055516243 0.11753408 -0.39345253 0.26064593 0.13682297 -0.44451788 0.09839125 0.16896093 -0.3067751 0.38752562 0.03151937 -0.05083358 -0.2023763 -0.03778585 0.02093097 0.17123412 0.024986766 -0.35512272 -0.18928924 -0.00097029714 0.038834695 -0.32276317 0.13699698 0.12870432 0.25773615 0.13131334 0.0065983916 -0.058614627 0.56502545 0.23333462 -0.26387846 -0.051070713 -0.071189746 -0.17394483 -0.1590807 -0.25070822 -0.02507086 -0.12093226 0.0551348 -0.07450154 -0.034107316
394 -0.31519786 0.4782117 -0.34690148 0.19665197 -0.03465794 0.20332521 0.035721097 0.22432351 0.121757366 0.06824149 0.04589516 0.29248178 0.36545035 0.28573275 -0.44199023 -0.39500389 0.23183016 0.28716233 -0.18475685 -0.09672741 -0.12505925 -0.0023291481 -0.3753221 0.43934685 -0.33590782 0.094403505 0.010705619 -0.016477123 -0.018982356 0.11087237 -0.03547113 -0.09443745 0.22558416 -0.3606138 -0.0336204 0.15600666 -0.21507844 0.10498763 0.0856808 -0.31470653 0.10598713 -0.23458338 0.109026335 -0.4822004 -0.1547537 -0.12248298 -0.13676925 0.35404027 0.64744925 -0.17321886 -0.25461012 0.0484759 0.13617991 -0.25024998 -0.33319497 -0.38287428 0.11191084 -0.034937557 0.0941358 0.14188392 0.12143124 0.107396 -0.36319345 0.016512604
