2970 64
156 0.030757328 0.09832703 -0.38814786 -0.008314959 -0.0767531 0.15952349 -0.07682979 -0.018745651 0.118163794 -0.21488911 -0.19632062 -0.04676351 -0.00034875676 0.03952884 -0.039206915 -0.17554045 0.23656428 0.045594286 -0.037711747 -0.37654832 -0.15570895 -0.22127996 0.1852798 0.30012882 0.016867638 -0.20421113 0.15704735 0.07268958 -0.15254053 -0.038398843 -0.1539895 -0.101480015 0.032913998 0.19334066 -0.23972066 0.06930392 0.032509916 -0.044206817 0.13875227 -0.11070048 -0.085550405 0.06735744 -0.07202273 -0.027550943 -0.1199204 -0.021308558 0.06483781 -0.097124435 -0.14247866 -0.056755986 -0.09564706 0.097150445 -0.03699817 -0.16927081 -0.12707265 0.14797397 0.1637396 -0.151638 0.14397477 0.08366503 0.1316141 -0.10433765 0.06648157 -0.06092555
1135 -0.013139136 0.005771714 -0.44034752 -0.1064536 0.12622517 -0.0008730757 -0.05873652 0.053791262 0.17854935 -0.23664035 -0.30793372 -0.20944503 0.20162067 0.00069626037 0.24543391 -0.011247263 0.08639672 -0.011051205 0.4149926 0.007095656 -0.07054375 0.017412763 0.48009 0.17119746 0.105227135 -0.2610197 0.27644756 0.15463945 -0.18901844 0.004288643 0.3966489 0.34989715 0.033103794 0.07796666 -0.08022637 -0.21789184 -0.3382319 -0.0061853053 0.07630001 -0.2692693 -0.21885347 -0.009042028 0.30571583 0.13157901 -0.4453787 -0.27700013 0.25526866 -0.16383772 -0.08128747 -0.17682429 0.14606042 -0.18613467 -0.228343 -0.11643967 -0.004374573 0.06979748 0.38418394 -0.05027478 0.2398992 -0.14016189 0.36001837 0.039336383 0.34758735 -0.04292236
2957 -0.15211238 0.1463814 -0.12635389 0.21326783 -0.033195797 -0.11426767 -0.12534417 -0.08416744 0.2506856 0.09276569 -0.06068491 0.2807709 0.58146316 0.03978449 -0.19606243 -0.03624646 -0.04197526 0.14545576 -0.09859766 -0.29989606 -0.21357663 -0.41009098 -0.008329041 0.2685671 0.0011325321 0.1526185 0.21481106 0.20827432 -0.21876605 0.010765907 0.08218417 -0.13228483 -0.143753 0.3798606 -0.024237618 0.14765918 -0.1270837 0.13682368 0.3744086 -0.27234375 -0.31930253 -0.045129564 0.086652815 0.019350069 -0.11092104 0.10844406 -0.03610368 -0.25289842 -0.034536928 -0.10453456 0.026573945 0.09291918 -0.16904445 0.08741058 -0.16288118 -0.11622185 -0.023827937 -0.076190226 0.30435324 -0.04003516 0.13181186 -0.21576484 0.32240665 -0.063263014
1730 -0.051750552 0.082938425 -0.35678273 -0.10677636 -0.0807018 0.32360375 -0.047114033 -0.10057572 0.21125154 -0.04764607 -0.23495226 -0.1244142 0.32706127 0.0821764 -0.040564854 -0.27851692 0.30017644 -0.05936066 0.09400223 -0.16905746 -0.2836848 -0.22785963 0.0006490255 0.15200458 0.18576945 -0.03986792 0.012964086 0.080659576 -0.44677073 0.10051479 -0.0759888 0.031692676 0.05844918 0.1646442 0.1683182 -0.10371888 -0.3678733 0.37673083 0.24050543 0.00534077 0.11819212 -0.08820693 0.34683618 -0.10834646 -0.026307153 0.13505135 -0.16287637 0.084673434 0.005294385 0.09083231 -0.0017676826 0.061580416 0.19931604 0.18210365 -0.013078908 0.26157683 -0.356037 -0.043929968 0.19765484 -0.07113946 0.076963164 -0.018919691 -0.05825642 -0.07433789
1326 0.15546569 0.028071065 -0.19752233 -0.09113496 -0.04933196 -0.04423005 0.30888087 -0.12714852 -0.0780876 -0.11611591 -0.02804161 -0.13711983 0.10369653 -0.038374916 0.0846134 -0.05934271 0.44870552 -0.15066157 0.27228025 -0.22874533 -0.12389633 -0.21407884 0.18795922 0.39000863 0.051421046 -0.09535631 0.16048919 0.28576794 0.005495578 0.14527206 -0.11497538 -0.08535401 0.3716115 0.36986414 -0.079744294 -0.16314404 0.18589568 -0.093012154 -0.2639816 0.18604867 -0.2400267 -0.3666122 0.015246984 -0.048810706 -0.35040677 -0.13615657 0.09940094 -0.07280973 -0.36301184 -0.15467112 0.10365111 0.3882387 0.024536446 -0.112160385 -0.24518903 0.3727428 0.22944574 -0.34191576 0.14205924 -0.058251996 0.46265298 -0.169444 0.07985406 -0.16130391
2658 -0.22311501 -0.20431824 0.07095511 -0.10071663 -0.17813243 0.09127995 -0.17993838 -0.12622984 0.34169552 -0.07937017 -0.027651053 0.028957117 -0.075205445 -0.08900496 0.10867757 -0.07903345 0.23042345 0.35954058 0.033687424 -0.021655068 -0.33549312 -0.38581035 0.17114286 -0.09460273 0.31409243 0.04153424 0.16619033 0.2251827 -0.14527018 0.016101174 -0.20479628 -0.054224 -0.2642725 0.4462022 -0.22710282 0.01964611 -0.116163954 0.15762134 0.21414663 0.031256814 -0.08690656 0.0675975 -0.078393884 0.02866633 -0.28128466 0.07733119 -0.10380122 -0.256353 0.035285033 -0.08996969 -0.27564293 0.29649654 0.038290385 0.2174989 -0.32201162 0.10648663 0.04288084 0.03962507 0.35301733 -0.09813667 0.0033465684 -0.33414263 0.20970507 0.20881647
1154 -0.15894417 0.23074944 -0.31369188 0.005687858 0.06834272 0.08323992 -0.07104766 -0.32606083 0.18086694 0.035488855 0.19114366 0.10148711 0.06542108 0.02463933 -0.2791866 -0.43719724 0.21082224 0.14129046 -0.2548763 -0.01921427 -0.2830416 -0.27732384 0.2865622 0.18152441 0.077428244 0.08898664 0.21031731 0.37720424 -0.26600158 -0.0030411931 -0.15227403 0.13774335 0.18742514 0.24889542 -0.2343618 -0.32172698 -0.28274667 -0.14103599 0.34590393 0.13194786 -0.053703994 -0.23623733 0.21233816 -0.02645061 -0.20003414 0.03361619 0.22246006 -0.117599644 -0.06671597 -0.031231701 -0.018000374 0.102786444 -0.02060677 -0.14574651 -0.26336202 0.12595505 0.22166581 0.04242198 -0.080164865 -0.32810476 0.11727083 -0.3033217 0.002551245 0.08060463
505 -0.097646646 0.012260463 -0.046661716 -0.102556944 -0.22528775 0.19049257 -0.003459226 -0.22988848 0.3229645 -0.059592944 0.15072183 0.08087947 0.33539718 -0.0095184995 0.101084165 -0.082758844 0.23614891 -0.118267916 0.14649524 -0.2321487 -0.39782798 0.040405504 0.095717385 0.13469435 0.106140986 -0.23998219 0.11402133 -0.09189099 -0.28936693 0.24943908 -0.3426493 -0.022759276 0.06578964 0.13943867 0.0534089 0.118915565 0.200086 0.20808059 0.14886497 0.19772246 -0.063748494 0.10272895 -0.07553877 0.047906328 -0.15994455 -0.22243355 0.08039297 -0.49589613 0.17575367 -0.21125606 -0.16626742 0.028286297 -0.050430477 0.23393145 -0.332707 0.20860945 -0.03513892 0.45936775 0.22186309 0.019429876 -0.011114136 0.22237745 0.1517739 -0.08611212
1523 -0.2487553 0.14241844 -0.12702964 -0.2838539 -0.23162957 -0.069646835 -0.05942054 0.09031351 -0.07773311 -0.21032442 -0.041482273 -0.0038528286 -0.07619583 -0.09619331 -0.16189641 -0.040877398 0.30238146 0.08766308 0.1192727 -0.3685547 -0.19696544 -0.21887024 0.09707946 0.08033177 0.16399528 -0.34905246 0.441601 0.08649765 -0.3425424 0.19918828 -0.10588286 0.10893811 -0.30598563 0.20645508 -0.12015816 0.21396692 0.10146222 0.032689616 0.18613191 -0.11673793 0.070063375 0.13553995 -0.20150298 0.12544952 -0.022769507 0.17585455 0.112660974 -0.4091771 -0.19539216 -0.07079937 -0.1356209 0.17021275 -0.45079872 0.13917398 -0.14806847 0.05246053 0.11034885 -0.20650275 0.11350065 0.1778426 0.09221412 -0.26291636 0.36603764 0.13348444
2958 -0.008451346 0.1985162 -0.3069519 -0.20812884 -0.42062682 0.33410454 -0.05229786 -0.34674737 0.23789458 -0.19051571 -0.24438588 -0.1159742 0.15575701 -0.18566056 -0.22296269 -0.28965017 0.17097864 0.060027733 0.21412453 -0.27505955 -0.19294536 -0.2582472 0.07915458 -0.062473323 -0.09255148 -0.12943615 0.17468186 0.07798261 -0.20823245 0.08545582 -0.14106792 -0.23046051 0.01851065 0.15964502 0.23691154 0.077501565 -0.05102599 0.12279314 0.23839389 0.14629543 0.20146479 -0.1697251 0.347589 -0.19936283 -0.07885198 0.19910371 -0.13553454 0.26872155 0.18582956 -0.0499184 0.023080647 0.22202176 -0.087876864 -0.059863634 -0.105674 0.3629283 -0.24656674 -0.09577522 0.1345254 0.18551993 0.018005772 0.16342658 -0.066447265 0.11047261
1251 0.25007313 0.100720845 -0.39595953 -0.23702641 -0.031190673 0.25139183 0.13460043 -0.051098704 -0.011282524 -0.009356762 -0.19176595 0.14490436 0.060891 0.2090735 0.055725474 -0.19407381 0.48115614 -0.19188216 -0.10708992 -0.22208878 0.05437936 -0.21404433 0.3029911 0.13894571 0.16626605 0.05440931 0.19518493 0.029901482 -0.1960799 -0.011368886 -0.31216654 -0.3852551 0.14474474 0.31837612 -0.13999546 0.011572224 -0.2455836 0.0146481665 0.06982494 0.21714365 0.085499786 0.2113017 -0.053032987 0.022164382 -0.19394332 0.15543512 0.12182029 -0.13488871 0.07511788 0.02660104 0.16115734 0.14898905 -0.15068929 0.09419962 0.103576444 0.17212936 0.18112473 -0.27772892 0.07754279 0.11495313 0.18280685 -0.16395663 0.32571876 0.21471888
1218 -0.05589578 0.21518096 -0.35072696 -0.2505775 0.04216026 0.268971 0.11134679 -0.053223807 0.1616458 -0.18635848 -0.15541683 -0.10865122 0.060824517 -0.098375574 0.2142671 -0.31837094 0.4309631 -0.08648028 0.21323895 -0.26613328 -0.5150142 -0.31518748 0.014209143 0.22900909 0.06503952 -0.11553893 0.0008116694 0.05675665 -0.07955056 0.13346505 -0.12119802 0.08215037 -0.039556738 0.11644975 -0.068510786 -0.04340626 0.07371114 0.034781218 0.32282835 -0.0035117604 0.013823631 -0.0782807 0.2618646 -0.11138056 -0.10055238 0.03190477 -0.12901947 0.03211555 0.2308993 0.23721837 -0.28397512 0.04626162 0.2054143 0.08779907 -0.20974681 0.17358501 -0.025564194 -0.02212366 0.015301979 0.040525552 0.28677273 0.031512193 -0.10749327 -0.038307756
2029 -0.15368445 0.346616 -0.345123 0.21819897 -0.17178456 0.10730918 -0.07417943 -0.19764291 0.07243664 0.025262 0.08101066 -0.06866269 0.20611504 0.16510813 -0.09421608 -0.24973966 0.20864554 -0.11394458 0.19241762 -0.4511119 -0.28950676 -0.06053516 0.2120388 0.15128133 0.2833753 -0.20952776 -0.009250302 0.081970625 -0.3768482 0.40514335 -0.020868896 -0.09512338 -0.08603651 0.31406924 0.1221291 0.08986 -0.16121288 -0.0006292063 0.22399436 -0.16105202 -0.3531644 -0.39598277 0.27592847 -0.04572649 -0.1795699 -0.15829745 -0.116637476 0.258669 -0.35232627 0.1215695 0.088857815 -0.05635747 -0.0050546858 -0.015919365 -0.033621076 -0.117217325 0.23791091 0.44117868 -0.078167655 -0.18393844 0.023877727 0.030036768 0.059416138 0.09942354
218 -0.27437127 0.565807 -0.12776679 0.38281795 -0.16312204 0.062220037 0.1020326 -0.082769334 0.32283735 -0.16148667 -0.349249 0.3736591 0.15872552 0.28573304 -0.05871523 -0.07529782 -0.090156056 0.072353184 -0.16355231 -0.28852358 -0.1555604 -0.1462176 -0.030430494 0.14251524 0.16080014 0.16733572 0.14695266 0.5628466 -0.50598 0.044711083 0.348701 0.12389015 -0.011548781 0.44185743 -0.035862476 -0.17111652 -0.47981998 0.05995945 0.54276514 0.22845635 -0.17048824 -0.07520354 0.17056191 -0.029842246 -0.16700178 0.044353038 0.14339879 -0.18156236 -0.30248377 -0.2718687 -0.1500602 0.009349007 -0.07048577 -0.19085978 -0.14445104 -0.3231773 -0.11043875 0.09855732 0.17868371 0.15921886 0.05487248 -0.17169493 0.21915495 0.050183535
849 0.049915515 -0.05605655 -0.28082874 0.05954136 -0.35299256 0.38709474 -0.52338296 -0.33722863 -0.044296063 -0.116270095 -0.21745288 0.18671474 0.094355285 -0.05279854 -0.079600915 -0.24514388 0.42475244 -0.042949934 0.21128958 -0.10733317 0.055023715 -0.16875769 0.10440271 -0.12216238 -0.20319167 -0.28971258 -0.08303852 0.072495505 -0.13242476 0.2560989 -0.28596836 0.18076329 -0.103312634 -0.06074208 0.1845613 0.070157014 -0.18684287 0.28574732 0.35025698 0.11462187 -0.06113835 0.1471259 0.1035748 0.1803362 -0.2910309 -0.018107967 0.29175577 0.020348866 0.04457629 -0.32719404 -0.10438138 0.18634717 0.010470582 0.30209437 -0.17962396 0.3612821 -0.50465393 0.011409382 0.11260385 -0.28852016 -0.12327635 0.10543168 0.3329191 -0.14079343
2660 -0.20772144 0.34645468 -0.45082933 -0.05625507 -0.010844864 -0.105080165 0.2507528 -0.07741766 -0.08545071 -0.19795293 -0.26178712 -0.20086613 0.18971191 0.012176667 -0.04220788 -0.3945194 0.27596277 -0.0007181875 0.21333091 -0.3323414 -0.2755389 -0.27610722 0.12914473 -0.12584497 0.009886514 -0.14623311 0.08303282 0.022138337 -0.08522551 0.015872149 -0.31448004 0.1353496 -0.012323442 0.2577859 0.14873146 0.06578561 0.03865671 0.15517353 0.23880015 -0.27481762 0.30397344 0.13792801 0.09851808 -0.09053742 -0.26396382 0.061947837 0.044277575 0.013959187 -0.35389113 -0.16421244 0.035132084 0.11179968 0.051365588 -0.08739588 -0.27158386 0.44264382 -0.08808885 -0.035793673 0.11111332 -0.1975804 0.16298242 -0.009219106 0.3066418 0.053983256
1537 -0.06312699 0.23387243 0.05454353 0.051215008 -0.33022577 0.29827413 -0.40956756 -0.35765728 0.3518324 -0.07398965 0.39118665 0.28107223 0.23369057 -0.035336487 -0.107166916 -0.33014923 0.09237744 0.07038919 0.042539045 -0.041662954 -0.28013852 0.07317333 0.19372787 0.15275602 0.07058333 -0.23931213 0.24700107 0.17702256 -0.07938813 -0.34842247 -0.18440701 0.19457953 0.18336493 -0.03031485 -0.31895092 -0.25272462 -0.08796592 0.24969035 0.44604105 0.29749548 0.10045585 -0.40395918 0.25165945 -0.09177617 -0.34130794 -0.066571474 0.1306518 -0.014920475 0.028312419 -0.061559185 -0.115698285 0.023886673 0.23516043 -0.16324648 -0.16670759 0.21375978 0.35128674 0.1024679 0.23639582 -0.08313295 0.19491294 0.13801321 0.12545793 0.10709907
2376 -0.14787799 0.46308023 0.06652799 0.105366096 -0.049510732 0.18269871 -0.23756966 -0.24394457 0.19830856 -0.20845231 -0.15224774 0.022485696 0.215378 -0.14588962 -0.02449092 -0.1244962 -0.049755532 -0.10479098 0.073837735 -0.009120246 -0.58586305 -0.2478924 0.12527376 -0.03377128 -0.076321445 -0.30445066 0.51639044 0.07964894 0.03347354 0.039239913 -0.20296511 0.028282499 0.022280125 0.37440336 -0.16918993 -0.23804545 -0.046119858 0.1929861 -0.044760164 0.08962744 -0.0042092553 -0.004343968 0.0014961275 -0.12123791 -0.12888025 -0.19803047 0.08411122 -0.47087824 0.14661755 0.29517537 -0.17719944 0.040223323 0.12104869 0.22672793 -0.10908344 0.31395307 0.09688288 0.083265 0.37047875 -0.17151558 -0.12389844 0.20823455 0.16767846 0.050718058
2787 -0.0030437107 0.3057123 -0.18268399 0.12709016 -0.3794224 0.16611898 -0.010725733 0.011795557 -0.03855705 0.083652124 -0.123693734 -0.07781052 0.10533735 0.118432276 -0.02550991 -0.29611772 -0.07754304 -0.20142692 0.139147 -0.54072636 -0.13926119 -0.24459574 0.38655564 0.3400394 0.101674296 -0.20713525 0.3581807 0.22996235 -0.34790006 0.079016365 -0.026722156 -0.14232539 -0.4234108 0.08679638 0.03849231 -0.18705636 -0.41046956 0.2813772 0.062965915 -0.12461883 -0.08178799 -0.093703814 -0.0817001 -0.07280182 0.0054382915 -0.081264235 -0.117428586 -0.06349564 0.0048464313 0.05403427 0.0561396 0.1717484 0.05090218 0.06319827 -0.12798092 0.22894539 -0.06412794 0.34163868 -0.19205374 0.1496324 -0.06452578 0.17825907 0.17235062 -0.03802858
301 -0.12665951 0.21981947 -0.28486678 0.10778577 0.044843532 0.31144178 -0.30342484 -0.037315905 0.2942789 0.04013833 -0.067572065 0.28567088 -0.4180586 0.35736397 0.05071384 -0.14105672 -0.051689994 0.011443724 0.27596042 -0.18763012 -0.0062197815 -0.3172495 0.18057959 0.10598749 -0.054217458 -0.044435643 0.23038949 0.1846411 -0.5896932 -0.031527597 0.18721144 -0.0831582 0.012401362 0.13811317 0.24089333 -0.0024770815 -0.077670895 0.023744233 0.20199595 -0.25514385 -0.25636193 -0.35434613 0.032772984 0.11279834 -0.3900625 -0.23706041 0.14268221 -0.33270085 -0.34823433 -0.029302992 0.25130317 0.010231548 0.12137483 0.3064029 -0.1631673 0.12103966 0.14254752 0.04811946 0.1766987 0.2887747 0.3058003 -0.17871968 -0.055368565 -0.06059155
2926 0.093788035 0.1768757 -0.37403205 -0.13633567 -0.30589542 0.3073111 -0.18283015 -0.32778874 -0.18767284 -0.08772521 0.14926963 0.17383635 0.22715974 0.16383816 0.4101746 0.3824518 0.25140846 -0.19190049 0.1654672 -0.32596323 -0.35189828 0.030897716 0.0049767396 -0.08305632 -0.017996384 -0.3637777 0.20014492 -0.022616165 -0.20930955 0.28676236 -0.47812486 0.20444147 -0.08723743 0.15548812 -0.05895175 -0.16884564 0.26635435 0.25862712 -0.016849866 0.13938881 0.24392013 0.08408938 -0.016906366 -0.01256801 -0.29105031 -0.1075765 0.47686478 0.08579719 0.01778475 0.065187454 -0.30374274 0.6091898 -0.0880994 0.57250446 -0.19120386 -0.055120405 -0.258217 0.3680079 0.069390506 -0.052731566 -0.03924886 0.10637039 0.1434851 -0.3235326
250 -0.02411588 0.12903626 -0.37836707 0.030005602 0.109127566 0.25285226 -0.09813227 0.31300676 -0.26007822 0.0077307923 0.3388326 0.15603599 -0.1546238 0.40344843 0.23713559 0.050369143 0.03287835 0.11812438 0.23689507 -0.40010566 -0.117199995 -0.23073697 0.50101876 0.117185704 0.049508255 0.025343452 0.16493863 0.034742143 -0.344643 -0.0032840113 -0.12617527 -0.03087373 0.005694044 0.10261999 -0.18938191 -0.08469662 -0.14007662 -0.12063179 0.17304209 -0.13499284 -0.52918726 -0.025205882 0.13484788 0.15436137 -0.24151438 -0.067489065 -0.14712314 -0.106760874 0.19275868 -0.23518291 -0.005045184 0.22473857 0.06603226 0.044850815 -0.5058851 0.12087269 0.1278777 0.12986854 0.08642897 0.43525165 0.20462891 -0.24365002 -0.068538114 0.08649794
2415 -0.22084571 -0.11399354 0.26375625 -0.07046815 -0.26271227 -0.17869787 -0.29647234 -0.1436268 0.2753525 -0.062361 -0.17331754 -0.0073994542 0.22329383 0.11970522 -0.10990785 0.26515234 0.13322233 0.6161293 -0.17976333 -0.4848194 -0.07408299 -0.22562812 -0.043377876 0.53580016 -0.34128925 -0.0462088 0.3577105 0.4303651 0.07198901 0.016104758 -0.0052276123 0.00045015136 -0.14673257 0.2859071 0.0039279778 -0.088591635 -0.13289899 0.2663379 0.3449752 -0.34869185 -0.39849186 -0.03770352 0.042636894 0.09202259 -0.055638094 0.116392195 -0.050990798 -0.08318047 0.27111134 0.032535344 -0.09164064 0.21291986 -0.20582816 0.27817106 -0.044355813 0.12240511 0.2977765 -0.23970445 0.31330785 0.119182706 0.29920593 -0.49269906 0.13977863 -0.26519343
2142 -0.029719323 0.10828966 -0.371978 0.22884133 0.26501992 -0.09587268 0.12176489 0.35226613 0.26099125 -0.12246802 0.011512819 0.21655609 0.3215575 -0.020073572 0.18416987 -0.3186864 0.3541666 -0.115876205 0.28497118 -0.087509416 -0.109096244 -0.12247202 0.0092873 -0.031604104 -0.27452832 -0.15307628 0.18619695 0.13854122 0.048034407 0.25315017 -0.2924911 -0.23698726 0.127481 0.14218375 -0.43335468 -0.112036586 -0.23573798 0.0561382 0.33098662 -0.15351819 0.12479106 -0.022663014 -0.16854265 -0.16025335 -0.17100166 0.0003089251 0.27900046 0.31464177 -0.24774574 0.12879366 0.17325175 -0.06313486 -0.2132438 0.0743749 0.023607885 0.23091982 -0.023263449 0.06257781 0.1868853 -0.13861929 0.3189032 -0.013053321 0.17651929 0.3554834
2633 0.2154646 -0.06293186 -0.39752173 -0.10643367 -0.21352129 0.31515297 0.04689829 0.105094954 0.120168395 0.05428336 -0.00550046 0.14030126 0.2896796 0.14186351 0.35966784 -0.25040576 0.26581556 0.19927408 -0.23955403 -0.13676906 -0.18141833 -0.11651976 0.013216836 0.30540782 0.136134 -0.47361585 -0.15680356 -0.097186655 -0.34828225 -0.048096433 -0.41521308 0.1669566 -0.34364384 0.104963146 -0.1910519 0.029850878 -0.23778638 -0.013638112 0.25840956 0.09767113 0.18826084 -0.13388962 0.43928748 -0.037088703 -0.15961461 0.011601607 -0.02182288 0.06662175 0.24866177 0.056608137 -0.29478613 0.30626526 0.101156704 0.23722343 -0.06255947 -0.038334016 -0.14341964 0.17009518 0.31241664 0.07848886 0.15823713 0.071335204 0.15508951 -0.13535506
2688 -0.16604644 -0.08674577 -0.40839112 -0.12062526 -0.10948434 0.22086401 -0.27982718 0.2510308 0.25348923 0.36731958 -0.046127964 0.19709572 0.20129496 0.06092973 0.29261482 -0.2815506 0.16245465 -0.07220553 0.31017268 -0.27651885 -0.30359647 -0.19732252 0.33351654 -0.1615444 0.03769301 -0.19124816 0.15597665 0.24623738 0.011577755 -0.16051446 0.0033649146 -0.12615249 0.053789966 0.36046842 0.18091072 -0.06548078 0.08721307 0.071055345 0.13469614 -0.24274588 -0.0853884 -0.016836781 0.2659627 -0.059246857 -0.14947292 -0.49782643 -0.21452628 -0.15875088 0.11522088 -0.058939587 0.054611173 0.23767868 0.16141781 -0.02950542 -0.050348703 -0.14587547 0.025144216 0.2370963 0.20609057 -0.042552076 -0.11745895 0.0033460348 -0.12929302 -0.021734359
2053 -0.26268578 0.04172548 -0.5066808 0.28309447 -0.24834564 -0.22466022 0.010392137 -0.06910638 0.10477102 -0.088308446 -0.23048058 -0.1568461 0.24034856 0.0992509 0.069613025 -0.12061961 0.17428868 0.20357487 -0.22904608 -0.6904045 -0.15848164 0.14974715 0.30055615 0.11676157 -0.0035372865 -0.33049473 -0.018915767 -0.1930787 -0.19314875 -0.031263877 0.11329513 -0.3790612 -0.031473417 0.26663914 -0.59645206 -0.124408014 -0.07935943 0.18015589 0.30605367 0.052604083 0.43346637 0.028040512 0.090739086 -0.21586528 -0.32035562 -0.34029588 0.121166974 0.050746113 -0.03479857 -0.2060364 0.07031906 0.117818035 -0.076548435 0.16216238 -0.034673642 -0.16415207 0.022441763 -0.17850378 -0.05655632 0.3117772 0.19771668 0.015012902 0.10087539 -0.25174335
924 0.020495957 0.17734261 -0.16055585 0.14497341 -0.32171324 0.07831274 -0.009788875 0.061513722 0.21758941 -0.12758778 -0.10414321 0.07636271 -0.08807346 0.05708996 0.010599029 -0.109289564 0.43423447 -0.24570243 0.08429674 -0.49623543 -0.33062768 0.13893193 0.29241613 0.19386236 0.24154332 -0.5253416 0.5358787 0.38323587 0.25660762 -0.24117336 -0.009505913 -0.019364836 0.021975968 0.029358203 -0.06907518 0.14990462 0.13701794 0.21497184 -0.010249473 0.4945346 0.2621059 0.045851585 -0.21982008 0.08693624 -0.2873397 0.08297075 -0.17905256 -0.11465033 0.036630683 -0.2899983 0.3049312 0.04518249 0.24860948 -0.095961615 -0.05955221 0.05790046 -0.1970197 -0.048242327 0.3499872 -0.061651617 0.15237227 -0.057406835 0.11747452 -0.17234553
2774 0.053576324 0.045388788 -0.21557094 -0.11363145 -0.1608475 0.1479764 -0.2227168 0.09263807 0.51537967 0.26322904 0.040547937 -0.03302455 0.24709736 0.203137 -0.12268477 -0.016558476 0.29818314 -0.18209238 0.15361832 -0.111541286 -0.14073482 -0.3581276 -0.15188824 -0.27323598 -0.15749867 -0.36446905 0.14099841 -0.03302588 0.1652331 0.3635551 0.046652097 0.14132574 0.25145313 0.2528005 -0.05165994 -0.046501484 -0.077891655 0.05139056 0.12665753 0.10961529 0.06564818 0.33081055 -0.5768937 -0.034195594 0.060861938 -0.25622544 0.1510592 0.23290713 0.13603248 0.10145464 0.121476 0.2715853 -0.130434 0.00042710328 -0.36104354 -0.018035587 -0.027110051 0.23351544 0.5223857 0.24231975 0.17595299 0.08545018 -0.2477281 0.08806686
2552 -0.21249337 0.02261603 -0.20936833 -0.35251862 -0.03203762 0.21263833 0.043806586 -0.005392568 0.170496 -0.19403185 -0.05573849 0.10893698 0.34126562 0.13405254 0.18189257 -0.46797758 0.5598503 0.25064203 0.018811442 -0.07559013 -0.38616294 -0.22090712 0.08819547 0.07315491 0.1266004 -0.24967283 0.39759764 0.07827223 0.14073072 0.016689725 -0.27929273 -0.040383797 -0.2239213 -0.010715719 -0.046101723 -0.016710794 -0.18755843 0.06618533 -0.024993096 0.14041397 0.16586867 -0.20336659 0.36185795 0.03768722 -0.20209356 0.31214687 -0.06324501 0.1275034 0.28908843 0.04893754 -0.087030396 -0.12082099 0.4571623 0.008182925 -0.19836912 0.029678328 0.03796372 0.02821179 -0.0011738731 0.047518525 0.37527582 0.0041084555 -0.063614726 -0.052281886
2015 -0.20890088 0.12856486 -0.36217985 -0.15667635 0.1822601 0.04677964 0.0058706417 -0.26899147 -0.067765914 -0.19676952 -0.14062503 0.17118037 0.26730236 0.057021398 0.067027666 -0.2566731 -0.029928261 -0.23120032 0.008605415 -0.49569204 -0.34862778 -0.23909856 0.0908515 -0.10901605 0.12581794 -0.12784511 0.016160455 0.16266438 -0.3516056 -0.027182342 -0.23450336 -0.05503884 0.04229299 0.37126482 0.26250437 0.06352299 -0.19483547 0.04056746 0.042889483 -0.32703415 -0.1371645 -0.024951428 0.11187927 0.21803588 -0.23243243 -0.010439035 0.17804445 -0.23594312 -0.0025786515 -0.24303909 0.12227523 0.3184846 -0.3384175 -0.15581065 -0.06654289 0.08348286 0.3933716 0.014287331 0.13226388 -0.049414087 0.1818451 -0.16814704 0.074774764 0.1577021
1515 -0.070275605 0.045265634 -0.22477345 0.09944216 -0.22243449 -0.16187613 -0.20665814 -0.38150895 0.34531507 -0.05253047 -0.040142786 0.14392084 0.0086698765 -0.061784208 -0.08885394 -0.084360175 0.02870816 -0.29543686 0.03831998 -0.06568854 -0.18569657 -0.20698184 0.15488316 -0.0593454 -0.034944136 -0.13609208 0.27099183 0.0054358705 -0.19898683 -0.1017342 -0.19740337 0.10320383 -0.07304036 0.43572772 -0.09042582 -0.028260816 -0.05394547 -0.015971294 0.2202814 -0.0019615118 0.05727325 -0.16476414 0.14684123 -0.30715036 -0.53854114 -0.084128775 0.098207965 -0.3839993 0.15852529 -0.052682184 -0.0909877 -0.23602596 0.008385788 0.40103245 -0.407734 0.43232134 -0.273229 0.11350324 0.26879975 -0.06672717 -0.015094025 -0.14785405 0.22953431 -0.24046648
551 0.066009134 0.4281667 0.06625669 -0.24759841 -0.055029593 0.23178077 -0.10490899 0.12719586 0.22399577 -0.29181597 -0.060903527 0.09871198 0.0498067 0.06842498 0.103548355 -0.10975318 0.058559503 0.020922491 -0.076829806 -0.25373814 -0.09074492 -0.18088712 -0.13245948 0.0059070154 -0.36655664 -0.2441496 0.21860081 0.10957105 -0.0074927863 0.28543204 -0.1429426 -0.06798739 0.11245196 0.21894345 -0.0579208 -0.14710592 -0.27106193 -0.18503745 0.32501784 0.13211294 -0.07747723 0.042573445 -0.44979656 -0.5112298 -0.2211926 0.061933186 0.121885 0.1809958 -0.2503897 -0.14701228 -0.21271239 0.30752364 0.2617113 -0.06590616 0.03099108 0.09896417 0.10423318 0.07234641 0.34052396 0.26741672 0.22285093 0.08430192 0.23992637 0.19318293
1481 -0.10205776 0.22892287 -0.3261483 0.011162736 -0.049438693 0.26689726 0.014784498 -0.08577274 0.29754096 0.097525425 -0.3097515 -0.18358783 -0.1555574 0.21825641 0.041604 -0.26371565 0.46620747 -0.15155776 0.52137655 -0.5124091 -0.03313281 0.036495313 0.4688586 -0.00077531004 0.16740674 -0.37066174 0.22939655 0.24981584 -0.04703875 0.32078126 -0.068603516 0.035260282 -0.18079229 -0.16811469 0.03047282 -0.120157264 0.19582927 -0.09032593 -0.09903997 -0.37948513 0.13933483 0.107040375 -0.033264905 -0.11885021 -0.1329255 0.08681712 0.07939762 -0.14098078 -0.06835325 0.0342008 -0.057394754 0.39802477 -0.005004903 -0.020228654 -0.10590934 0.29291117 0.05837088 0.11608369 0.09565799 0.00073318806 -0.11967034 -0.16956818 0.12961158 0.028129758
1367 -0.0467215 -0.087202094 -0.07959277 0.2694215 0.021901757 0.001392918 -0.00031260753 0.3387499 -0.088231295 -0.114684805 -0.06521013 0.2859597 -0.07037338 0.12573244 0.29411831 -0.004749158 0.13701583 0.16262726 -0.23175223 -0.49509767 -0.27033228 -0.43361956 0.1334193 0.23774648 0.22821607 -0.42784777 0.09425441 0.27587128 -0.2309697 -0.19947378 0.02651776 -0.034105208 0.081414394 0.019780913 -0.24160808 -0.0012687502 -0.44615367 0.099019736 0.41706827 0.019184688 0.08793039 -0.10614517 0.30888435 0.06764741 -0.028160233 0.19097552 0.10210013 -0.095809154 0.4366109 0.0064890785 -0.18289493 0.029095188 -0.027348237 0.2624693 -0.10081565 0.16142067 -0.082413 -0.13900791 0.43857944 0.015528818 0.34949145 -0.3736329 -0.15494065 -0.35826373
1091 -0.05992709 0.1477231 -0.35144505 -0.18158628 -0.056588538 0.29809415 0.054837823 0.08752229 0.2530867 0.13699907 0.006500589 -0.20490474 0.3224466 0.32502013 0.14527223 -0.12892073 0.013479614 -0.36511484 0.27248013 0.059909012 0.042669576 -0.39900643 -0.02217685 0.22250694 -0.24761882 -0.24682502 0.19177462 0.06844815 0.27759835 0.3140794 -0.23059747 0.014699046 0.3237325 0.331426 -0.022364404 0.15338996 -0.13213119 -0.10449572 0.23660572 0.15857066 0.0015508366 0.29440957 -0.28070083 -0.018245038 -0.21371354 0.093233995 0.2944988 0.35166433 0.12634423 0.23691253 0.108715564 0.097863704 -0.21051113 0.27770546 0.053696193 5.4742304e-05 -0.083136715 -0.03549876 0.14195043 0.2132486 0.23040822 0.08899185 0.05810958 0.46377397
1964 -0.23849112 0.010256736 -0.26125202 0.29052767 -0.17179225 -0.4872423 -0.04222244 -0.111601196 -0.25792193 -0.020997029 0.048165023 -0.061745822 -0.17280364 -0.07746559 -0.10038872 -0.31631768 0.31157768 0.31463203 -0.053500958 -0.14633632 -0.35056174 -0.06530274 0.278353 0.008622546 0.10003755 -0.20309085 0.28657854 -0.0024056965 -0.22096696 -0.05009903 -0.09895176 -0.22087772 0.091755904 0.28493097 -0.45383474 -0.047374744 -0.53984076 0.14039686 0.13008285 0.19610432 0.2642882 -0.004557248 0.19869375 -0.13997385 -0.31067044 -0.15162642 0.385127 -0.102266766 0.21499757 -0.2421507 -0.10237961 -0.024684122 -0.1870918 0.016539304 -0.1460667 0.19594058 -0.1560894 0.117389865 0.5444213 0.2929576 0.15981768 -0.24936663 0.01930073 -0.2641644
2219 0.19097424 0.11946522 -0.4728506 -0.23340693 0.076008804 0.122849986 0.050098833 0.17700328 -0.06503813 -0.16900986 -0.0926213 0.30032182 0.2500299 -0.053625632 0.06720554 -0.27053785 0.51716816 0.23797855 -0.010272016 -0.1825132 -0.3843325 -0.12658377 0.30349743 0.13607576 0.08252923 -0.032437596 0.147672 -0.1477524 -0.08067254 0.14863023 -0.010244843 -0.024643969 -0.29921055 0.19370377 0.0932815 -0.03285852 -0.0015018409 0.46341053 0.053310204 0.19819988 -0.30814224 -0.28786737 0.26372918 0.028767643 -0.41627485 0.27708212 -0.1753789 -0.11534533 0.17145927 0.19350202 -0.2597541 -0.07143416 0.2608197 0.0617231 0.0404572 0.2539584 0.16984636 -0.2113569 0.3387818 0.017996065 0.23858014 -0.12678166 -0.21792641 -0.0037022328
1139 0.08293863 0.16989471 -0.6225343 0.03205461 0.033783916 0.01309388 -0.12358399 -0.1617525 0.1260984 -0.1254831 -0.096989416 0.14442755 -0.065940216 -0.027940642 0.161106 0.18600497 0.019966917 0.075218916 -0.1400998 -0.38265708 0.01399854 0.036053095 0.054637633 0.062775664 0.4387549 0.17633833 0.31082413 0.050748054 -0.25308278 0.09370296 -0.13141163 -0.08965976 0.055548273 0.26183388 -0.37778312 0.10013381 -0.47650203 0.24115323 0.24081987 0.055789817 0.0092483815 -0.119740255 -0.117480576 0.36066094 -0.5469489 0.0642507 -0.24422102 -0.114799835 -0.16919367 -0.4037088 0.1894507 0.20131063 0.03266367 0.23306504 -0.31717706 -0.15446527 0.03459402 0.0038348564 0.25073633 -0.039565414 0.06751359 -0.11249566 0.21081585 0.11424016
2610 -0.34069535 0.17831604 -0.4813929 0.015065923 -0.009977278 0.10337605 0.06496336 -0.10076292 0.27489212 -0.20738138 0.15466434 0.26614985 0.3505862 0.2702986 0.07158987 0.010086476 -0.12900172 0.2223916 0.09005539 -0.21249884 -0.07119373 0.20887172 0.0273939 0.073969476 0.0141404085 0.051976677 0.4839012 0.3007825 -0.008316558 0.39135733 -0.0688022 -0.11212426 -0.036568712 0.21159257 -0.26799437 -0.41118518 -0.5773541 0.2423658 0.08140892 -0.0011562016 -0.41594303 -0.11271765 0.15489222 0.04720919 -0.1970657 0.0856133 0.42292085 -0.23624536 -0.4218071 -0.019392774 0.294063 -0.28174904 -0.014167422 -0.13679226 -0.25705323 -0.08129842 -0.10166592 -0.11535647 -0.0663906 0.19216615 0.16870587 -0.16189131 0.08986728 -0.0545454
2657 -0.35970843 0.0069079967 -0.22716989 0.2529106 0.0484857 0.226324 -0.21914516 -0.22851266 0.16572294 -0.097736314 -0.055790827 0.14843324 0.0016323561 -0.10032447 0.011452759 0.23080532 -0.20708197 0.40774074 0.25312108 -0.48466077 0.009960521 -0.3495855 0.041947424 -0.13196857 0.10840611 -0.14482324 0.38020235 0.18671075 -0.020234074 0.2995132 -0.06970067 -0.18052539 -0.26378638 0.22799091 0.19856375 -0.27326992 0.12058542 -0.07613694 0.14901386 -0.10700056 0.0759572 0.042301342 -0.05326203 0.1294697 -0.14083315 0.42065316 -0.05361415 0.07709139 -0.0032340386 0.07414784 -0.24281457 0.29255778 -0.34259117 0.38142547 -0.5323951 0.108391374 0.21762241 -0.46270096 0.29483336 0.077652335 0.17716582 -0.13788378 -0.043795813 0.16252734
1118 -0.21530469 0.029186212 -0.66657615 -0.01567979 -0.04039182 -0.11256899 -0.33125237 0.06783162 0.50246453 0.33405045 0.28917208 0.08631652 -0.0009166561 0.16703962 -0.06301614 0.11411422 -0.1056861 -0.020189418 0.054163642 -0.49121547 -0.058408376 -0.41452935 0.013756566 0.09270521 0.25816417 -0.5002146 0.20147736 0.12548545 0.5485888 0.41034004 0.122859456 0.05544088 0.21381965 0.0007285543 0.24753098 -0.47836566 -0.058972713 0.14701141 -0.11713281 0.30208412 0.009342427 0.2235507 -0.32486027 -0.15543592 0.04008227 -0.090842225 0.04727927 0.19608766 0.16358157 0.20261565 -0.18934165 0.26499742 -0.05551349 0.19812278 -0.063944414 0.23671353 0.044410784 -0.22934781 0.63411194 -0.18888317 0.118945256 0.35292876 -0.16123553 0.16910526
927 0.059509236 0.32370278 -0.11677973 -0.044568624 -0.07310837 0.51094824 -0.07451668 -0.094758935 0.2641691 0.005660557 0.08955662 -0.1532643 0.102766335 0.23093808 0.056846432 -0.2659806 0.40920824 0.056800578 0.029246528 -0.36651257 -0.36004588 0.08349004 -0.1818756 0.40801048 -0.17253059 0.13510104 0.7107796 0.19949391 0.013409048 -0.13419482 0.34461218 -0.19779193 0.24453454 0.18964857 -0.018648453 -0.16317077 -0.14685044 -0.18413185 -0.15795521 0.10615168 0.30101395 -0.11362106 0.27097732 -0.15150793 -0.24098186 0.083203696 0.0215135 -0.1980758 -0.15227312 -0.17284584 0.18524894 -0.0697374 0.13849635 0.088537924 -0.3911167 -0.18801004 -0.02949468 0.041926622 0.037622634 0.04031238 0.20146678 0.12957099 0.07620863 -0.1545099
1659 0.116864435 0.033510465 -0.27576795 -0.23602602 -0.28250828 0.3638556 -0.289204 -0.24248554 0.2347784 -0.08064712 0.13676463 0.3992033 0.21966068 -0.325137 -0.114824854 -0.2469746 0.21806598 0.3233768 -0.21542427 -0.1945512 -0.31769854 -0.073635235 0.16091901 0.2668139 0.08036259 0.0030767354 -0.009530835 0.23171847 0.10017806 -0.23995605 -0.33304095 -0.040436406 0.26719862 -0.06479586 -0.39747164 -0.4569559 -0.035922945 0.23945083 0.260485 0.23388976 -0.086268224 -0.3520851 0.33227286 0.05470625 -0.19368026 -0.08125262 0.16197474 -0.09409482 0.11665456 0.097670786 -0.21842878 -0.23725836 0.10525233 -0.048011556 -0.22041157 0.33265236 0.23867425 0.067595065 0.1133083 0.0059737707 0.026349682 -0.14243396 0.0315373 0.47328424
2753 -0.26551238 -0.015288855 -0.10842774 0.09493178 0.021261761 0.11715096 -0.15299436 0.8328124 0.377385 0.11804346 -0.1692091 0.17672673 0.2238684 0.2931606 0.14152204 -0.07910933 0.110686764 -0.09351556 0.12617826 -0.058912344 -0.22542948 -0.24597742 -0.42778566 0.08564746 -0.39054292 -0.15364057 0.22892441 -0.078897364 0.08833126 0.36956382 -0.3041701 -0.11835694 0.038360815 0.42133132 -0.10756675 -0.3373033 -0.28113925 0.22619602 0.428039 0.0064108763 0.14165772 -0.08800381 -0.21874602 0.0021825873 0.06363533 -0.12939931 0.48121452 0.11233123 -0.066148296 -0.086848386 0.42920595 -0.11676064 0.09594766 0.20214507 -0.28898925 0.16473615 0.2881313 0.12779637 -0.025507731 -0.20760384 0.4571537 0.4552018 -0.04002635 -0.10379814
839 -0.3621721 0.2515385 -0.17152837 -0.031941436 -0.16681589 0.42713842 -0.23367797 -0.24266668 -0.040206455 -0.18497533 -0.033832733 0.148015 0.2665636 -0.02756049 -0.029840335 -0.17161343 0.050081972 -0.050114542 0.228786 -0.24687773 -0.27087295 0.047861338 0.1284063 -0.19778013 0.16757323 -0.2025476 0.25544584 -0.120497555 -0.14322343 -0.1523348 -0.25800338 -0.007590164 0.31606454 0.09539079 -0.027879525 0.021120783 0.16281644 0.47743806 0.3537569 -0.1950316 -0.0805416 0.17073351 0.0056699356 -0.2284034 -0.42118302 -0.26318234 -0.14236711 -0.27074388 0.14582491 -0.088639416 -0.03895076 0.15552196 0.061321277 0.074632406 -0.2363392 0.073257744 0.12736014 0.23149131 0.2811859 -0.18386732 -0.028917179 0.08551391 0.19397847 0.17574443
220 0.26035467 0.02194026 -0.51997393 -0.15184721 -0.14550848 -0.0815536 -0.26771083 0.0045385417 0.29964918 -0.12817653 0.0150074195 0.16377735 0.011807994 -0.2679772 -0.08549171 -0.14880185 0.47068295 -0.080886215 -0.2766345 -0.18839304 -0.18566419 -0.44295868 0.16892931 -0.059206925 0.07078889 0.15571974 0.32819667 0.05689428 -0.03899078 0.1402935 -0.19746934 -0.23543076 0.051539123 0.2235414 -0.014170817 -0.2541799 -0.101372704 0.087749355 0.1967319 -0.18458353 -0.020483756 0.0906491 0.10094464 0.5069768 -0.526724 0.060054388 0.07798302 -0.3392378 0.12394753 0.14532797 0.0113970395 0.28123578 0.103065364 -0.25418633 -0.12752391 -0.16778737 -0.0040603527 -0.3691729 0.30954236 -0.21551679 -0.18411754 -0.26285532 0.37133744 0.02026077
446 0.024082195 0.016056675 -0.15982835 0.1980968 0.020801544 -0.09812412 -0.06611963 -0.49755558 0.06925853 -0.237998 0.14571288 -0.079898395 0.087217174 -0.20924203 -0.13163687 -0.081020355 0.14391227 0.14218466 0.35071516 -0.20707278 -0.21730153 -0.0060506044 0.2380747 0.2815998 -0.11024148 -0.18993774 0.04663313 0.15175433 -0.42266396 0.3449049 -0.33124113 -0.00789966 -0.19147247 0.41790298 -0.20806603 -0.042696122 -0.13435513 -0.31423813 0.34604946 0.40591455 0.0027312979 -0.020239051 0.13395002 -0.07296523 0.03668631 0.01662419 0.16749355 -0.4268435 -0.11468361 -0.25363615 -0.2337685 0.16795263 0.0024288855 -0.04646436 -0.22635314 0.307161 -0.14626038 -0.032407667 0.3398516 -0.0033761796 0.37927935 -0.0959694 0.10650116 0.41233242
1432 0.1719508 0.24778867 -0.01683904 0.12552175 -0.15699247 0.2653741 0.09920823 -0.21615928 0.03978298 -0.2246222 -0.2175869 0.024657452 0.26527676 -0.1401248 -0.1273407 -0.23287444 0.0014488111 -0.27109998 0.2872748 -0.4369553 -0.07723676 -0.0629265 0.06817266 0.17511442 0.1605461 -0.39741817 0.56277585 -0.058005664 -0.015151299 0.335338 -0.18557344 -0.12882678 0.06458676 0.30792186 -0.12657183 0.0072603743 0.2544365 -0.0025173014 0.309228 -0.37178487 -0.058670472 0.1151992 0.0021607024 0.03163696 -0.10934324 -0.096428566 0.16411409 -0.15556191 -0.06942978 0.06756309 -0.059826776 0.040952757 0.046771575 0.45862 -0.13004117 -0.1805022 0.032402918 0.37163997 0.33953583 0.29544067 -0.43928623 0.2671169 -0.16387095 0.01859419
2551 0.03765835 -0.32085896 -0.4630937 -0.4501521 0.23833662 0.10565145 0.10360004 -0.011329756 0.09884798 0.15067248 -0.5039654 0.20770992 0.20433019 0.308849 0.4274902 -0.07176253 0.31674993 0.097331345 -0.06395882 0.13094364 -0.22728525 -0.40406793 -0.09506703 0.25784367 0.18486923 -0.21172155 0.27258888 0.11565169 0.17920487 0.08266487 -0.21517622 -0.17002627 -0.02767891 0.42211434 -0.29252046 -0.050195243 -0.15019664 -0.0740641 0.3677573 0.36640084 -0.28989497 -0.06660873 0.36213246 -0.088877946 -0.09592118 0.14657234 -0.023815792 -0.0670741 -0.09466041 -0.16094531 -0.06344826 0.34643576 0.49222898 -0.0055337404 -0.21696392 0.2609394 0.44960833 -0.032477416 0.07915326 -0.40781224 0.32129475 0.13695246 -0.32859913 0.008960928
1765 -0.28620788 0.08321209 -0.6902747 0.31296822 -0.06824849 0.47604638 -0.43423948 -0.2470066 -0.26366907 0.26471567 -0.1802035 0.06177533 -0.00017560844 -0.1357595 -0.16102393 0.25010797 0.17287982 -0.14157866 0.38803247 -0.38326013 -0.4169612 -0.18039684 -0.06856305 -0.1682631 0.30490637 0.10718362 0.3924019 0.399637 -0.011227941 0.23720197 -0.018610852 0.19509207 2.3315275e-05 0.007504648 0.17125775 -0.11050535 -0.05350174 0.22021586 0.27044934 -0.26227978 -0.017781071 -0.17443298 -0.03193929 0.017492674 -0.2566006 0.28896686 -0.08077232 -0.041884847 -0.49790397 0.12804514 -0.063169695 -0.07735523 -0.2681532 0.47753435 0.04418624 -0.06215517 -0.19735338 0.17263277 0.04281385 -0.16725844 0.513851 -0.02862916 -0.005986259 0.109181
2148 0.03204555 0.24157798 -0.21456733 -0.18312566 -0.09196767 0.3271713 -0.15019502 -0.25088662 0.38266847 -0.36458382 -0.10005856 0.35841796 0.23692954 -0.08667261 -0.14020562 -0.102835454 0.4985666 0.78180355 0.06708178 -0.010867622 0.0018149599 -0.14339817 0.23290059 0.51333815 0.012277022 0.006636292 0.024556704 0.30523914 0.038289893 -0.20788018 0.00052049686 0.09244056 0.12000885 0.32079434 0.17742024 0.13342816 -0.19123483 0.06507293 0.06512491 0.16916016 -0.091565065 0.01573919 0.35500032 0.049535677 -0.03214559 -0.11173901 -0.15897192 0.1638335 0.13422468 -0.17019701 -0.30493873 0.23394896 -0.11109814 0.25442293 -0.3907318 0.18545775 -0.23393135 0.006457959 0.06723602 0.062426787 0.024544016 -0.05108999 -0.10337209 0.116506
2265 -0.20288898 0.21198018 -0.10892376 0.163567 -0.3281443 -0.009257204 -0.48190027 -0.12857936 0.057420883 0.04778182 0.1661229 0.10732933 -0.14310962 0.07575756 0.26248392 -0.31391343 -0.0038678197 -0.0014686233 0.1004301 -0.35120568 -0.2140377 -0.16544771 0.10457738 -0.23741473 0.014985875 -0.299935 0.12109897 0.092999294 -0.056541033 -0.07597918 -0.33345097 -0.09322998 0.17838304 0.09064269 -0.26222724 -0.17724255 -0.22122876 0.29735044 0.4690144 0.20423976 0.20158279 -0.072549745 0.2684297 0.1266064 -0.44957635 -0.058677536 0.20034146 -0.19400676 0.0853291 -0.047084052 -0.09952233 0.39764333 0.0019599844 0.33820373 0.1484993 0.056275684 -0.05712418 0.21798928 0.11152711 0.048729196 0.19293398 0.22875178 -0.05788251 -0.26313525
2752 -0.06802252 0.2177531 -0.43911764 0.19092113 -0.36107942 0.3750805 -0.5176651 -0.07595992 -0.026041394 -0.14405276 -0.40780675 -0.122343495 -0.05085352 0.23468153 -0.010217007 0.32688588 0.5175531 -0.49436563 0.6335151 -0.3739738 -0.24840505 -0.4791578 0.5084573 -0.1002692 0.07472125 -0.31406096 0.16348033 -0.14894842 0.5812368 0.042860355 -0.22784308 -0.16882697 -0.19592847 -0.0053964327 -0.1640362 0.16037871 0.26068282 0.056904435 0.46565408 0.30690998 0.3710938 -0.16736643 -0.50568235 0.025993163 0.14041714 0.26345986 0.5033876 0.25735086 -0.293106 -0.36388582 -0.09334338 0.111659184 0.12125463 0.18845896 -0.041654482 -0.16549487 -0.21413012 -0.20032527 0.10543775 0.012722055 0.21866594 -0.44207284 0.11285431 0.15111002
886 0.12475192 -0.0775242 -0.25736123 -0.41476166 -0.0015000723 0.24364549 -0.017240731 0.19344935 -0.049826913 -0.2797179 -0.019202417 0.15221629 -0.13083139 -0.46916947 0.0046723504 -0.0010793938 0.64359623 -0.03876111 -0.24604692 -0.54747945 -0.105881676 -0.25048175 0.19882818 0.1615174 -0.068718396 0.03559902 0.06502217 0.17958355 0.03319538 0.2293826 0.108580105 -0.21217702 0.10881591 0.27881917 -0.21847235 -0.10567909 -0.22404453 0.3533483 0.28786176 -0.027354345 -0.08319375 -0.039013945 0.06483942 0.073818766 -0.0142751 0.031559434 -0.0910871 0.20180054 0.26508692 0.23357518 -0.027471934 0.31135622 0.078381464 -0.15834469 -0.3813981 -0.054068375 0.37501076 0.018901108 0.13830231 -0.033765048 0.08118382 -0.12212266 -0.024976917 -0.03525301
2877 -0.2530987 -0.30736092 0.14661914 -0.47836262 -0.24812648 0.09529369 0.010714619 -0.20501138 0.3208412 -0.22491708 0.12458274 0.0050566606 0.27078986 0.20966768 0.058496207 0.20961331 0.12258039 0.36598134 -0.11255009 -0.3679052 -0.16166686 -0.08326062 0.13648362 0.25402388 -0.007774985 0.23865514 0.40836746 0.3824137 -0.25805244 0.038876403 -0.2933312 0.18539047 -0.061266314 0.3499563 -0.17011593 0.0052243774 -0.18156019 -0.00024070653 0.63202506 -0.12608549 -0.43977758 0.1882203 -0.09238318 0.06683114 -0.008367954 0.16506593 0.11111593 -0.05077017 0.037117973 -0.2014204 -0.28440747 0.15632206 -0.30114207 0.026097182 0.054853015 0.36796334 0.14798181 0.042063423 0.22641286 0.21794038 0.32495943 -0.39165446 -0.02884697 -0.10387722
1570 0.053425305 -0.03897526 -0.098173894 -0.28164342 0.34005815 0.43561733 0.18027888 -0.20158161 -0.07203537 0.17137246 0.012367556 -0.1397592 -0.08302275 0.3238069 0.12883621 -0.31884196 0.30116534 0.22932822 -0.1900852 -0.12196103 -0.11667562 -0.40465018 0.40965956 0.37542823 -0.12081998 0.18594258 0.39989805 0.42735302 -0.22361432 0.080225416 0.07935972 -0.33827958 0.11513212 0.102618344 -0.04977633 -0.25762475 -0.064425446 -0.30609015 0.20027319 0.0061018197 -0.011516528 -0.38651085 0.25356883 0.038015928 -0.13258243 0.0020473208 0.18969148 -0.1226155 0.05810533 -0.07426148 0.15565963 0.2686646 0.037558552 0.16951294 -0.5066497 -0.0781514 0.082695946 -0.11565241 0.28342757 -0.17164533 -0.081087254 0.14442737 0.33402804 -0.13811919
1369 -0.25711682 0.06910876 -0.30734006 -0.23006888 -0.09088894 -0.22292423 -0.0760608 0.34005058 -0.12248592 0.03993998 -0.11110277 0.2361913 0.05788424 -0.15822394 0.151653 -0.32037646 0.24722114 -0.000958496 -0.020113507 -0.44124615 -0.4646092 -0.06877562 0.19044563 0.12127045 0.21423839 -0.31083363 -0.044161864 0.07285036 0.05934901 -0.11525687 -0.2691909 0.13793066 0.33378434 0.295627 -0.02318184 0.086740084 -0.28054944 0.11687337 0.15111539 -0.020709954 0.30903792 -0.06024377 0.24778558 -0.14221989 -0.23171936 0.086199746 -0.14217919 0.10901544 0.3789402 -0.078976944 0.08479225 -0.10440818 -0.08379959 -0.0028941499 -0.21613912 -0.19347237 -0.16270778 0.0977617 0.35685757 0.060260117 0.35326904 -0.083543755 -0.18922856 -0.27422702
437 -0.33623376 0.0062513547 -0.10404899 -0.3582311 0.12632951 -0.24743675 -0.20725271 0.0482446 -0.07022358 0.17880523 -0.35553938 0.03838985 -0.028597418 0.049380206 0.22248049 -0.1529843 0.07130378 0.10113154 0.020353457 -0.30909207 0.062198296 -0.09311366 0.5587233 0.11188036 -0.29297346 -0.5793228 0.09274211 0.40032953 -0.20839468 0.22133051 -0.15289684 -0.005061615 0.026151674 0.050328624 0.21019879 -0.40820748 0.05096008 0.28561458 -0.019956853 -0.04050869 0.22043574 -0.34828693 -0.12198075 0.11191695 -0.38557813 0.046153747 0.059076007 0.11758524 -0.001559818 0.05178745 0.21741295 -0.33689544 -0.115268625 -0.021168614 -0.27655157 -0.06542619 -0.07551601 -0.058959633 0.46649784 0.14548826 0.024151055 0.09459928 0.10678627 -0.091372095
1749 0.2260587 0.24706951 -0.3358687 -0.057733253 0.11961867 0.26964185 -0.22442675 0.3096233 0.20085768 0.10430837 -0.044425283 -0.22525199 -0.057173308 0.2033532 0.09218117 0.017076755 0.054168932 0.012311825 0.7177352 -0.0089601865 -0.11149088 -0.23588419 0.031752963 0.010740007 -0.313465 -0.26693836 0.3052089 0.12298514 -0.050277136 0.27279082 0.31723964 0.24559978 0.098662876 0.19116464 -0.24528147 -0.050926276 -0.05231319 0.2031204 0.31055388 -0.26798698 0.0847994 -0.13651513 -0.079664715 -0.31073782 0.12484956 -0.47518173 0.003694075 0.33171982 0.117094845 -0.17521667 -0.074879944 -0.1076364 0.05749937 -0.061172303 -0.17050804 -0.073624276 0.30506557 0.20637178 0.3726943 0.23360111 0.24441649 0.14908823 0.35039726 0.34486395
1098 -0.07530233 0.0033177086 -0.15196626 -0.29078194 -0.23122403 0.43670806 0.18414499 -0.031191466 0.15891095 -0.071310535 -0.21549042 -0.0038102195 0.14332472 -0.4260222 -0.5960098 -0.11126121 -0.029818181 0.51192486 0.32701397 -0.15306701 -0.3034035 -0.23001014 0.26075965 0.13195713 -0.3085525 -0.32369393 0.11979529 0.08288909 -0.057233386 0.046113595 -0.1353287 -0.16513573 0.103213996 0.38702786 0.005962115 -0.08272601 -0.019174324 0.16110909 0.33917302 0.07150942 0.1017838 0.03740731 0.32589185 -0.024157815 0.04954669 0.121632725 0.11464734 -0.47417876 -0.19387706 -0.3062703 0.07678903 0.27521265 0.14255391 -0.15157624 -0.06353991 0.10212417 -0.14420898 -0.0244858 0.13779877 -0.3739119 0.36103344 -0.21996652 -0.24123313 -0.022685692
2596 0.33297542 0.0018051176 -0.29150197 -0.03943855 -0.09088642 0.2054597 0.2059172 0.05647979 0.2877645 0.007902361 -0.120381266 -0.012047894 0.36659026 0.018548936 -0.12319226 -0.33423418 0.42948103 -0.1407452 0.19050378 -0.1981535 -0.12757085 -0.2690092 -0.26893824 0.26259378 0.0017577171 -0.4756876 0.23866305 -0.26272622 0.05192875 0.30802616 0.07720627 0.40587926 0.040254697 -0.0692349 -0.16868684 -0.026074858 -0.03893925 0.0174785 0.25031683 0.06350753 0.11701186 0.06791716 -0.24341066 0.13613836 -0.1784474 0.06382103 0.4166326 0.28196722 0.24036704 0.31211254 -0.046204127 0.09006663 0.24624085 0.37949672 -0.23697726 -0.1312454 0.016710408 -0.039566457 0.30912614 0.077768706 0.016660143 -0.278079 -0.4064519 0.119809896
1053 -0.08468304 -0.065685816 -0.23856072 -0.023057181 0.27387065 0.25319466 -0.011920917 0.27615842 0.29211274 0.19602999 -0.20823567 0.01799825 -0.09339571 0.12763119 0.17107306 -0.12062793 0.37800795 0.275035 0.17908017 -0.26157656 -0.19569422 -0.09386775 0.373388 -0.052867074 -0.17801866 -0.3211212 0.26115668 0.038092542 0.10429981 0.13365147 -0.11726076 -0.1919978 -0.04117386 0.15936537 -0.19611306 0.33584708 -0.23245274 0.14676504 0.2182645 -0.0030634766 0.16216296 -0.1433175 0.13457593 -0.23932579 -0.24781062 -0.37388426 -0.19329269 0.10481876 0.1526624 0.08388478 -0.19634095 -0.02253164 0.16226323 -0.068997845 0.13123392 0.23222417 -0.16432244 -0.018881153 0.28663513 -0.062284064 0.29373014 -0.14187923 0.0681223 -0.04616169
1750 0.37682968 0.4097633 -0.38027343 0.37936646 -0.18030298 -0.09992553 0.07071118 0.25250295 0.46710864 0.018680999 -0.028856553 -0.09979648 -0.17664978 0.5016019 -0.29629764 -0.3951509 0.2836351 -0.16418497 0.17847417 -0.5771213 -0.13561547 -0.30961356 -0.06405777 -0.15036468 0.020945547 -0.6751633 0.08884669 -0.12735826 0.1634235 0.45190173 -0.08235856 0.027519312 -0.0807101 -0.046618693 -0.37134832 0.24667263 0.15601777 -0.12633242 -0.07270426 0.050511044 0.13415717 -0.17262898 -0.07815193 -0.20996766 -0.1158947 0.21774863 0.31315392 0.1908314 0.105818085 -0.09350857 -0.22063977 0.21855126 -0.12319704 0.069734655 -0.19621293 0.04878461 0.0985694 0.13691358 0.2664324 -0.3176828 -0.32992783 -0.33459413 0.21145424 0.3508051
63 -0.15326366 0.004761937 -0.067304485 -0.23354201 -0.17716487 0.523985 -0.056890156 -0.21337397 0.398239 -0.08048896 0.091102086 0.1287281 0.15320015 -0.1794525 0.18122314 -0.20572385 0.7179036 0.1614201 0.14910136 -0.30107233 -0.0515873 -0.11874164 0.17152545 0.14325468 0.06450181 -0.17212968 0.35029945 0.15707882 0.11425219 0.078824006 -0.0687106 0.0039275205 0.03025735 0.07659149 0.12636873 -0.016422668 -0.2008423 -0.08240826 -0.02358636 0.23246181 0.23157504 -0.022103561 0.45360816 0.12382819 -0.2524914 0.049369298 0.07890728 0.11077927 0.06608895 -0.008576477 0.052183136 -0.032106284 0.04780621 -0.2155465 -0.4437765 0.0119307265 -0.12724254 -0.038037624 -0.2134875 -0.15405051 0.21799901 0.1279711 -0.12328408 0.10871176
118 0.02438561 0.19213384 -0.46870115 0.10515428 0.22389743 -0.096882924 -0.25074494 0.1315734 0.23185058 0.5487063 -0.1994338 0.2122812 0.7031102 0.6167261 -0.08354491 0.06087321 0.07064285 -0.2407468 0.15772909 -0.20155904 -0.03665978 -0.2817531 -0.46277976 0.037660822 0.021890994 -0.23179588 0.08977805 0.20958759 0.14080065 0.39058694 0.10299352 -0.013722274 0.031893983 0.5722742 -0.121201865 -0.16005823 -0.41908848 -0.054491743 0.3429935 0.2338272 -0.19463138 -0.041843597 -0.1614421 -0.34939462 -0.079624034 -0.2584414 -0.032422695 0.32377312 -0.3151964 -0.408471 0.19374031 0.09618965 0.0032072891 0.20867382 -0.06107092 -0.098852254 0.062125914 0.3075108 0.050674506 -0.5258023 0.041348733 0.0012089789 -0.05625448 0.06963478
2745 -0.12541927 0.31633213 -0.39071134 -0.15933421 0.1597073 0.2516442 -0.018373929 -0.15141898 0.02920137 -0.027720926 -0.20134826 -0.16337927 0.102246664 -0.13539515 0.21941629 -0.63979554 0.2949841 -0.12877144 -0.022593858 -0.25153401 -0.54029894 -0.12749012 0.074803255 0.11038522 0.033329785 -0.18374184 0.13192889 0.17820036 0.03222014 -0.055235136 -0.382871 -0.096357964 0.06309178 0.22832376 0.04016073 -0.030137278 0.106887944 -0.07094252 0.14688636 -0.22421369 -0.32963726 0.29591152 0.031137297 -0.14328101 -0.14735755 -0.0126147475 0.08109849 0.35522294 -0.14102975 0.027348353 -0.29894087 -0.01791639 0.18085901 0.048534878 -0.18254933 0.11403377 0.15080863 -0.26981208 -0.005711492 0.2875334 0.35213912 -0.026895188 0.12114749 -0.06133689
521 -0.18647534 -0.076771505 0.09901425 -0.4710015 0.0034044832 -0.011062232 0.09500828 0.124215044 -0.16047676 0.037725735 -0.43558863 -0.121769 0.08172989 0.2501765 0.18107858 -0.1830346 -0.1148018 0.07732584 0.17436005 -0.18298131 0.25293234 -0.24531353 0.32576215 0.45473084 -0.3405781 0.08422067 0.32712868 0.47198853 -0.15230915 0.069526024 0.18282582 0.120205514 0.15016751 0.16155602 0.06599225 -0.15289626 -0.12022617 0.31906453 0.3350181 0.1291151 0.011864721 -0.26051775 -0.1771164 -0.04927682 -0.3222697 0.03466315 0.26804724 -0.18768023 0.19629447 0.10884792 -0.057760492 0.20761096 -0.35645968 0.33409682 -0.19119264 -0.37349448 0.05307935 -0.4622164 0.23985364 0.18051685 0.16869266 -0.1707873 0.29290804 0.037382662
1027 -0.06619871 0.16378917 0.1142454 0.021188458 -0.13875994 0.13921805 -0.01933142 -0.14146316 0.38418126 -0.15383518 -0.04466341 -0.1074057 -0.16083494 0.224281 -0.1258039 0.10643042 0.11266007 0.05327006 -0.28783482 -0.55177647 -0.14323385 -0.069809414 -0.004761057 0.4593082 -0.3086047 -0.11212672 0.015095451 0.43758857 -0.27534786 -0.119988136 0.029448831 -0.22474536 0.039321877 0.31127807 0.24015813 0.06504231 0.026697366 0.04359752 0.25185072 -0.25984603 -0.2786649 -0.3278176 0.4403967 0.22275029 -0.16311406 0.09190705 0.07367677 -0.075777054 -0.2745636 0.062212598 0.23316932 0.355775 -0.046812486 0.4744397 -0.13015406 -0.015515898 0.16242673 -0.21806863 0.52669185 0.21754935 0.4556256 -0.15971015 -0.15546824 -0.06883569
1163 -0.3153268 -0.0014652432 0.24403322 0.16919039 -0.27962348 0.09518441 -0.30415273 -0.29607537 0.2377299 -0.24493726 -0.22514935 0.07166862 0.13990499 -0.099572934 -0.08724375 -0.01058973 -0.16068237 0.29786336 -0.16709521 -0.35931033 -0.3450361 -0.38318703 -0.011180266 0.1627318 -0.059266463 -0.08807553 0.35701415 0.25462976 0.08853866 -0.19081864 -0.41096818 -0.06448354 -0.14607985 0.384363 -0.19188918 -0.019023346 -0.20746647 -0.010412348 0.28195074 0.07949816 -0.17226525 -0.24319462 -0.21999381 0.19541563 -0.34154302 -0.2130508 -0.12675828 -0.3696607 -0.028071072 0.08051154 -0.26147258 0.09486235 -0.23944613 0.09194729 0.04281927 0.29156604 0.105897926 0.1658445 0.45497254 -0.27364805 -0.15396102 -0.2572402 0.35879385 0.15364678
2831 0.23229134 0.15056834 -0.286993 -0.23591451 0.2033712 -0.100971594 -0.5088096 0.1662048 0.33403575 -0.19294839 -0.17072283 -0.25718096 0.6390462 0.52202445 -0.106750555 0.23085997 0.087503664 -0.21490014 -0.19138537 -0.3520181 0.26795036 0.027903603 0.22021738 -0.03088641 0.27654746 -0.037570827 0.0700947 0.39166653 -0.24413835 0.23193486 0.1133825 0.07600232 -0.03249466 0.117595665 -0.23786218 -0.19046606 -0.22215044 0.045421988 0.20784864 -0.0007668724 -0.21613865 0.14684045 0.35485458 -0.11653799 -0.27273703 0.24255352 0.29454443 -0.6554444 -0.42491025 -0.092379436 0.20370775 -0.37592074 -0.3923731 -0.05471287 -0.22100517 -0.16364866 -0.48141065 0.047375247 0.30529603 0.012648562 0.4749898 0.09672822 0.09775518 0.21548429
2348 -0.28304175 0.36109138 -0.15659417 -0.088243045 -0.11657448 0.17443097 -0.020972855 0.15994614 0.31208307 -0.25848752 -0.04790533 0.19010577 0.1806279 0.18912274 0.09838829 -0.08795763 -0.067848384 -0.0030230652 0.21799505 -0.2777413 0.035438456 -0.5009184 0.31612813 0.138448 -0.496262 -0.26357436 0.20705034 0.15077986 0.29558283 0.59429073 -0.3222299 -0.08285851 0.052889556 0.05084755 -0.04255331 -0.17969224 -0.09578084 0.12820907 -0.046656553 0.1458667 0.16845326 -0.03242197 -0.72425795 -0.119527206 0.07743872 -0.14900634 0.19533081 0.38826528 -0.07561047 -0.047409233 0.04355804 -0.41365626 0.11482828 0.21000007 -0.1729484 -0.28498885 -0.16291825 -0.2778794 0.37205765 0.090624325 0.15949117 0.30844378 -0.08790319 0.23996648
2738 0.07896858 -0.17937692 -0.37539786 -0.065103404 -0.15375909 0.092613995 -0.16834606 -0.18760803 0.11260261 -0.030781668 -0.15159167 0.12557593 -0.17170158 0.40711346 0.07217972 0.0084877005 -0.040486448 -0.08849671 -0.13728096 0.1022834 0.37000975 -0.6389435 0.53893375 0.37712753 -0.2693665 0.10773123 0.29980817 0.32745072 -0.19662513 0.029379591 0.09422292 -0.03596844 -0.21316317 0.088740334 0.17674251 0.12154794 -0.14304481 0.34082425 0.21035714 -0.39132556 -0.043797325 -0.29864213 0.012198535 -0.07553684 -0.43432248 -0.13605605 0.08204328 -0.13200344 0.0064505516 -0.16722731 -0.14501607 -0.15688737 0.103536434 0.02225721 -0.75710523 0.16209227 0.09585258 0.06957189 0.40323332 0.1373661 -0.064220585 -0.14631061 0.33137217 -0.17495316
2100 -0.27696383 0.11954694 -0.29681394 -0.2731161 -0.015684785 0.20703062 -0.04824473 -0.045107193 -0.0131545765 0.1312729 -0.23311205 0.16369098 -0.09509218 0.06701936 0.36314133 0.07230317 0.038527243 -0.0328225 -0.24586844 -0.11959911 0.12817447 -0.16823192 0.51559955 0.5120972 -0.19922966 -0.4254176 0.24977434 0.21282464 -0.027184034 0.04541101 -0.04885228 -0.31693926 0.082089454 -0.15931356 0.28238395 -0.2641283 -0.36478043 -0.052772556 -0.0808093 -0.11456103 0.0101748565 -0.34076786 -0.11274328 0.19878069 -0.20889308 -0.12232743 0.042619802 -0.2575457 -0.352112 -0.07372854 0.33771685 0.040450647 -0.17081358 0.014107324 -0.45779896 -0.18580414 0.4170584 0.10895661 0.3131388 0.20306197 0.17694111 -0.077189595 0.32463798 0.18997124
845 -0.10079512 0.069421574 -0.38709447 0.30272666 -0.055022646 0.15327604 -0.012214905 0.10644857 0.36278692 -0.22550239 -0.13574576 -0.25323075 0.2796291 0.06590363 0.14410122 0.15091367 0.18540053 0.055345975 0.073535085 -0.38355187 -0.4159821 0.4266083 0.36934993 -0.016561888 -0.11844083 -0.16448241 0.5898016 0.06793458 0.13214172 -0.07442285 0.40251315 0.026579605 0.16487776 0.3033241 -0.2094197 0.19951124 -0.211028 0.112963274 0.21331133 -0.020610128 0.08887833 -0.11594309 0.048656125 0.17852244 -0.65855896 -0.0013430974 -0.23319648 0.07155763 -0.21431558 -0.27031893 0.32983595 -0.014717694 -0.014879593 -0.0273448 -0.09091004 0.10145522 -0.03472876 -0.040871426 0.21028295 -0.0022749775 0.09657696 0.28798524 0.22205544 -0.28751537
2023 0.3199382 -0.2396117 -0.15893625 -0.12207555 -0.028106872 0.44308394 -0.022938397 -0.1742414 0.22009912 -0.11640887 -0.13356625 0.2206282 0.36638865 -0.14588465 0.01436286 -0.3250311 0.4684394 0.11124066 -0.26299903 -0.023940094 -0.18494345 -0.25476876 0.369481 0.14880235 0.121657416 -0.26408133 -0.0019765531 0.37295917 0.004527279 -0.09014415 -0.06271701 -0.27914444 0.1155359 0.099813715 -0.27934793 -0.34077302 0.10552952 0.19699182 0.2896764 -0.107161835 -0.14634864 0.10751039 0.28383383 -0.10831996 -0.18415426 -0.04634538 -0.082803376 -0.019343344 0.29212594 -0.23655947 0.032729983 0.10344034 0.23254037 0.050188314 -0.3360311 0.13487835 0.114699796 -0.16735677 -0.043854885 -0.3220766 0.13546963 -0.2219886 -0.060067743 0.24057433
732 0.29063123 -0.11497515 -0.2878669 0.008964231 -0.12631561 0.18719767 0.19167583 0.04836266 0.35139826 0.033173967 -0.21455711 0.014140621 0.3103382 0.0033732643 -0.011444183 -0.25990286 0.6023154 -0.0756205 0.19030818 -0.21993607 -0.26050806 -0.24877995 -0.18056104 0.27475148 0.07800604 -0.4994839 0.22582923 -0.36038455 -0.001496129 0.23929021 0.0354097 0.36503044 0.043931816 -0.07767579 -0.1258156 -0.08259134 -0.16850694 0.12916183 0.22221488 -0.030710096 0.1148877 0.12022622 -0.09859719 0.076640785 -0.07807695 0.10188403 0.27102584 0.25712022 0.19112654 0.3810565 -0.10732982 0.14936142 0.31470546 0.36039555 -0.2299885 -0.033033885 0.02009025 -0.052186444 0.27310959 0.121288314 -0.077798195 -0.26988733 -0.56749654 0.16136642
233 0.104645506 -0.07626546 -0.60446155 -0.00025478977 -0.20608065 0.23010533 0.045610774 0.023116738 -0.08815116 0.03570841 -0.11557108 -0.034482766 0.1522141 0.007275676 0.45071986 -0.34625584 0.3751809 -0.050747544 -0.07472888 -0.114887856 -0.18330263 -0.20478725 -0.04008777 0.32561705 0.17316806 -0.23648502 -0.037551906 0.018629666 -0.26579186 0.09747358 -0.35875162 0.16049045 -0.20277174 0.27709496 -0.03967879 0.0228929 -0.30492038 0.24359022 0.25033763 -0.19647978 0.017504122 -0.026860971 0.33441675 -0.06821083 -0.08633507 0.079881355 -0.1271498 -0.110538244 0.17882556 0.1572215 -0.3432503 0.14156492 0.36945838 0.19742332 -0.15401155 0.05531768 -0.2502636 0.07565568 0.24136 0.15368028 0.2781516 0.038877636 0.013742979 -0.092172116
2904 -0.33287296 -0.17087103 0.055811293 0.33336398 -0.05116019 -0.073462956 0.08797284 -0.12682323 0.0689972 -0.2102893 0.116791815 0.2897213 0.11664757 0.07577424 0.061711606 -0.044200324 -0.042490218 0.45128915 0.038554035 -0.41022468 -0.38506985 0.03171527 0.27930707 -0.13395734 0.10049112 -0.31088644 0.14795145 0.26781276 -0.25232238 -0.21828511 -0.08404086 -0.060919203 0.33664483 0.094065614 -0.48749253 -0.14879388 -0.3806632 0.07045431 0.48454124 0.24491355 -0.08379106 0.16229759 0.2020424 0.13012263 -0.16282661 -0.09663084 0.015936261 -0.15937358 0.22401506 -0.24598363 -0.061865497 0.26045617 -0.03826765 0.0523652 -0.2440898 -0.00047017317 0.028792368 0.23708369 0.4406731 0.07095936 0.3587798 -0.5297857 0.024306184 -0.24512082
723 -0.3015167 0.048689086 -0.2034941 0.15224865 0.10019008 0.32621264 0.05817279 -0.049047016 -0.1906234 -0.19293621 0.06103561 0.21254537 -0.014162858 0.010849572 0.3451804 -0.16561198 0.37055388 0.18808429 -0.5066061 -0.3981061 -0.43366012 -0.40612486 0.16493659 0.25820136 0.08284263 -0.09398128 0.15632747 0.3474393 -0.35748598 -0.053830124 0.11194853 0.09299389 0.26213852 0.37750086 -0.36234653 -0.26925096 -0.023908554 -0.21014659 0.30045354 0.095144965 -0.13883261 0.15822436 0.38745812 0.18634395 -0.062092595 0.17891486 -0.08204649 -0.13932796 0.15573409 0.15959293 -0.25564954 0.060789898 0.07569957 -0.04857002 -0.21197702 -0.062116962 -0.0015071224 0.18589425 0.3888792 0.13611671 0.027786631 -0.17425036 0.2004714 -0.17832997
1265 -0.07130515 -0.025855726 -0.17923525 -0.32721162 -0.007395847 0.049554385 -0.23244967 -0.18232964 -0.20945536 0.032714635 -0.07459633 0.16723157 -0.30096322 -0.06268839 -0.073724225 -0.00054080033 0.18699642 0.12738971 -0.029332815 -0.39012033 0.086964555 0.014280395 0.22023274 0.20722985 0.21313871 0.069000356 0.081834584 0.17387842 -0.48663348 0.062300205 -0.28597558 -0.24933623 0.025280626 0.15631452 -0.1283536 -0.14887217 -0.36806852 -0.058383614 0.14759903 -0.1712655 0.08225264 -0.25511017 -0.025225021 0.2066373 -0.5321381 0.08850598 -0.16921602 -0.16042759 -0.028962657 -0.31569678 0.15065576 0.20034975 -0.104342714 0.060192935 -0.63603604 -0.09329115 0.22161986 0.03167635 0.18946221 0.022080915 0.33531594 -0.16639172 0.031818267 0.49258557
2328 -0.41796196 0.05872471 -0.28366435 -0.19912285 -0.14485492 0.064933345 -0.14183858 -0.1691115 -0.17744306 -0.12442184 -0.15241455 0.3152085 0.20978393 -0.054399233 -0.035748787 -0.22259216 0.18699865 -0.5817471 -0.215877 -0.23466104 -0.3590473 -0.20691933 -0.28488123 0.41349277 0.071021706 -0.36744198 0.4150336 -0.019556327 0.08893791 -0.094387636 -0.16499285 -0.090849556 -0.44279718 0.82493335 -0.021125965 -0.22373782 0.17334649 0.009951284 0.37911093 -0.14686169 -0.16729757 -0.060400695 -0.027991086 -0.2835119 -0.09978614 -0.26880303 0.07694614 -0.16039585 -0.106072605 -0.22863469 0.05709064 -0.07927813 -0.32457784 0.37659293 -0.13162223 -0.009805406 0.007936725 -0.06977132 -0.01049151 0.3984443 -0.05053433 0.7125258 -0.1656033 0.14854392
2320 -0.04992419 0.019806337 -0.23253852 0.017032769 0.10918974 0.07571672 -0.12425328 0.23197377 -0.27281687 -0.34876707 0.37144816 0.27962077 0.2812919 -0.19162361 -0.061691295 -0.057883285 0.3227193 -0.024328224 0.18432108 -0.35282382 -0.3043304 -0.112390295 0.43940875 0.009422147 -0.23175538 0.23253901 0.26054296 0.10272766 -0.24563645 0.16429214 -0.1615905 -0.19583249 -0.19515152 0.12143118 -0.082491346 -0.09480144 0.00017163402 0.2571692 0.43669236 -0.02980048 -0.36426768 0.04676029 -0.18608816 0.26436692 -0.23666897 0.077165954 0.22915506 -0.2078036 -0.08422986 0.41561878 -0.005445024 0.11778825 -0.13426374 0.1473461 -0.13024735 0.18373224 0.31801897 0.02125443 0.16578953 -0.0029833487 0.43107846 0.15731119 0.16616666 0.17014767
2479 -0.087112255 0.4031514 -0.07533995 0.056332372 -0.3180994 0.16114482 -0.39945048 0.011207928 0.40438792 0.111942865 0.0056280284 0.18163338 0.3438307 0.0783495 -0.25553375 -0.060900155 -0.13257807 -0.4871842 0.10547327 0.21817464 -0.054951172 -0.096428074 0.14424436 0.1617969 0.09969745 -0.129896 0.46176508 -0.16679215 0.009942004 0.3457663 -0.20628408 0.12324351 0.34973642 0.32855287 -0.22634096 -0.049360298 -0.4768815 0.12985349 0.14466713 0.12338278 -0.020666013 0.12844633 -0.020407425 -0.06390903 -0.17309122 0.11738444 0.07648313 -0.004383892 0.43469 0.24841152 0.21483095 -0.3012675 -0.22956331 0.41615433 0.02108935 0.0012968943 0.03739702 -0.07279608 0.10928783 -0.040061433 0.28338417 -0.2665041 0.33387974 0.2354569
453 -0.3773598 0.2363827 0.37615663 0.21842521 -0.1316706 0.24348548 -0.3106288 -0.10071407 0.31533873 -0.34732413 -0.4172356 0.52634233 0.20456381 -0.14212523 0.042997025 -0.319931 0.31240934 0.41445184 -0.26356667 -0.28221026 -0.018009271 -0.31344727 0.053635966 0.19531398 -0.07027606 -0.14563484 0.052106228 0.07234387 -0.42406055 0.112618834 0.33511326 -0.07734837 0.024179794 0.22866595 0.09624792 -0.033359792 -0.14175831 -0.14440429 0.3468365 0.35521483 -0.44317764 0.18002507 0.39613262 0.1346963 -0.22000778 0.1278918 0.0075998027 0.20712572 -0.031333774 -0.5017483 -0.41489553 0.12258431 0.05925927 -0.08193951 -0.46861196 0.26844347 -0.30551848 -0.21701623 0.31788334 0.1604719 -0.063877486 -0.03189037 0.28601402 0.26626974
939 -0.07798793 -0.09897907 -0.15497708 -0.14774475 -0.46071562 -0.06443859 -0.13043974 0.08520898 0.20468989 -0.07044654 -0.27087927 0.009344508 0.06545324 0.23608142 0.14941904 0.12312033 0.004552675 0.1147563 0.29116133 -0.36988893 -0.00016392284 -0.43360212 -0.02038966 0.25130922 0.21495418 0.4627989 0.22651203 0.38810518 -0.50708276 -0.13050587 0.0441932 0.14557467 -0.082991935 0.06693343 0.07855692 -0.07188744 -0.10045105 -0.17148666 0.53211355 -0.00053635973 -0.06435157 0.034390323 -0.09167937 0.14178905 -0.4464081 -0.11422276 -0.24974512 -0.16149367 -0.09691562 -0.111106634 0.22190611 -0.12567055 -0.16010505 0.33310187 -0.4325371 0.033642117 0.32038617 0.09813689 0.28490156 -0.042482756 0.20916381 -0.47951865 0.01208519 -0.07717667
790 0.1160449 -0.10818433 -0.36021128 0.014104206 -0.14460832 0.43103972 -0.050347324 -0.0633386 0.079014614 -0.065459654 0.316634 0.08523928 0.1997295 0.3235649 -0.58568496 -0.11522387 -0.19464234 -0.17522669 0.088156834 -0.24946643 -0.02466524 -0.29022875 0.04851778 0.17009664 0.1711559 -0.36325935 -0.17006609 0.3220134 0.054876857 -0.20225109 0.33064374 -0.20327564 0.18768826 0.15015894 -0.039329093 -0.6112135 0.08326033 0.1741989 0.13811837 0.1318956 -0.23420866 -0.056145128 -0.13603328 0.18400525 -0.34530962 0.3680124 0.081140496 -0.651574 -0.012393677 -0.2099829 -0.107663214 -0.06418704 -0.20845056 0.06954997 -0.38090384 -0.008296765 0.19405155 -0.1968701 0.29225215 0.20803212 0.4751828 0.19162065 0.09624407 -0.07557217
1845 -0.18009794 0.20646992 -0.37532577 -0.09817631 0.18974729 0.10231391 -0.002384565 -0.0062154206 0.1280085 -0.23052071 -0.18727438 -0.0073271384 0.009444137 -0.14890046 0.101872526 -0.12617488 0.21416657 0.038403403 -0.2825031 -0.3641573 -0.3620483 -0.018292913 0.20883304 0.3514946 0.1210083 -0.38782227 0.14680965 -0.027901342 -0.35709208 0.17275907 -0.1836563 0.036943704 -0.022564556 0.4332972 -0.5718288 0.15638329 0.038144276 -0.17868468 0.17457452 0.23597787 -0.37211892 0.11268953 0.17521372 0.45699775 -0.32454336 -0.3535041 -0.27349076 -0.08010883 -0.19497672 -0.08920671 -0.13278915 0.2529225 -0.25483307 0.05863528 -0.39376584 -0.008954377 0.28217447 -0.24922748 -0.31516019 0.24642336 0.121726215 -0.08940082 -0.16859634 -0.10429778
1363 -0.18732053 -0.043119874 -0.11952442 0.1416589 -0.049544353 0.030599551 0.049727563 0.32239732 0.13519132 0.10585885 0.20380975 0.04155112 0.11429045 0.30131254 0.11839408 -0.10172628 -0.06525287 -0.24784641 -0.013352398 -0.3117919 -0.097965084 -0.07769914 0.18723606 0.17965813 -0.037098523 -0.5122783 -0.0052413605 0.12051168 0.066462904 0.060920756 -0.28398442 -0.100732386 0.58971906 0.10961168 -0.27413297 0.19487019 -0.73441833 -0.08830148 0.14151616 0.27630612 0.24301428 0.053369172 0.21290123 -0.020425836 -0.24565516 0.14160225 0.21253487 0.114976466 0.4393308 0.0456246 0.08664695 0.04298084 -0.415283 0.25041902 0.10238263 0.12706986 -0.12572867 0.10516138 0.50793767 0.06365032 0.1943827 -0.18569809 -0.029755138 -0.07777095
2034 -0.017797928 -0.068151705 -0.098524466 -0.123290315 -0.11298181 0.03826952 -0.038628273 0.10029197 -0.033648312 -0.04559523 -0.2652111 0.0741363 0.06587351 0.120692536 -0.060343135 -0.081805825 0.12666918 -0.2507123 0.36269403 -0.5159934 -0.34344676 -0.07980156 0.4414169 0.23322234 -0.06999323 -0.2505964 0.5696245 0.13175207 -0.08971488 -0.10940179 0.1863933 -0.1034408 -0.018142264 0.35863063 0.14140296 -0.27553627 0.028665153 -0.07910255 -0.10722906 0.0026965353 0.20831992 -0.3019548 0.037175216 -0.041929938 -0.34695128 0.00022829048 -0.3706778 0.20512804 0.15076691 -0.042732835 0.1819403 -0.18394062 0.22828642 0.078712605 -0.2331731 -0.04206411 -0.15907772 0.25628093 -0.1376723 0.110246 0.38736576 0.041857835 0.110862315 -0.09012051
1241 0.11553132 -0.11429149 0.028220063 -0.2682832 0.007953513 0.21261936 0.11492655 0.10202661 0.13044894 0.18711673 -0.27433267 0.0690799 -0.020953989 0.36585864 0.106646955 -0.102127165 0.06641444 -0.19963457 0.40409616 -0.2516324 0.054136083 0.08031104 0.588472 0.30649585 -0.08002042 -0.18939616 0.4015676 0.3603184 -0.21102576 -0.132682 0.29106337 -0.02812681 -0.064811625 0.41827998 -0.026945159 -0.21839747 -0.10572293 0.12328416 -0.08099753 -0.15294756 0.12455663 -0.2581366 0.27439862 -0.13324906 -0.35660288 -0.035129692 -0.26548305 0.0927652 -0.14656436 -0.060783494 0.27898815 -0.12889068 0.13252912 0.048966195 -0.58023244 -0.14234115 -0.09697382 0.13056962 0.19740196 0.07553455 0.21495125 0.24396165 0.30582842 -0.043318693
2516 -0.16896878 -0.021253958 -0.08375569 -0.17163508 -0.24568845 0.07832321 -0.016631868 -0.09158651 0.18543805 -0.06234854 -0.2750932 0.378812 0.10371799 -0.06399462 -0.038783982 -0.14514206 0.23109058 -0.12110944 0.3094139 -0.3889462 -0.3061005 -0.18761227 0.31908584 0.23270196 0.2846353 -0.43601117 -0.18989505 0.12353228 0.10008628 0.21444964 -0.05744613 -0.3131537 0.093485676 0.1592425 -0.012388617 0.1633462 -0.004444343 0.26976782 0.34844682 0.15559135 0.47091663 -0.17578998 0.5556494 0.0698929 -0.05936367 -0.10913959 0.038750637 0.3603342 0.16755864 -0.17468166 0.20229715 0.04201604 -0.29768908 -0.16801882 -0.3265228 0.5749195 -0.38579524 0.04652729 0.028918136 0.16566892 -0.13743825 0.029813142 -0.35966596 -0.23426001
526 0.15614304 0.19456758 -0.07684136 -0.48243853 -0.057297364 -0.1404838 -0.028721103 0.18750261 0.123202525 0.14007239 -0.029849729 0.071837194 0.043596473 0.07503016 0.27356473 0.015530488 0.093339585 0.43008003 0.19804136 -0.83785635 -0.061484713 -0.005421458 0.033412356 0.3408278 0.035112716 -0.2560279 0.37354055 0.07858116 -0.27919906 0.086346544 -0.06161976 -0.43920696 0.12274835 0.31630284 0.12544619 0.27461988 -0.12093811 0.1785766 -0.05834357 -0.16945797 -0.27981046 -0.1322746 -0.17596541 0.0074247587 -0.010517967 -0.24148752 0.29561684 -0.511727 0.29272103 -0.18059576 0.3121435 -0.55967 -0.21005113 -0.0020281977 -0.1073855 0.17473814 -0.0482663 0.17078392 0.19215767 0.07133108 -0.05477873 -0.092264906 -0.06759582 0.039458875
2185 0.071028456 0.030375404 -0.43681014 -0.110331446 0.099235065 0.33721977 -0.3326135 0.41222596 0.22564694 0.0010993655 0.12127843 -0.41192406 0.08556891 0.13764365 0.21960296 0.06855291 0.26603037 0.07402713 0.29358906 -0.24037232 0.115571246 -0.31485426 -0.13916777 -0.23416032 -0.385206 -0.39117998 0.17617352 0.023502646 -0.035861075 0.5177957 0.13126214 0.16230568 -0.025378041 0.16094716 -0.17766935 -0.09565955 -0.17977878 -0.03738731 0.25562385 -0.119962186 0.066369295 -0.022001384 -0.102071404 0.21290621 -0.41666856 -0.22668517 0.12589942 0.4636075 -0.07686116 0.26397768 0.25242618 -0.18581013 -0.13076334 -0.2643462 0.0074218404 0.03203925 0.15295225 0.032532282 0.39624304 -0.09690934 0.07742786 -0.08964581 0.2565744 0.48117206
1246 -0.33922124 0.039559472 0.1348898 0.33656833 -0.086561516 -0.0378178 -0.09968092 0.23144905 -0.19082883 -0.06121854 -0.2919396 -0.021963213 0.2555817 0.10963842 0.25192875 0.12666447 0.15905043 0.6033958 -0.094550535 -0.53668445 -0.27710918 -0.13551593 0.33228597 -0.1655196 0.17986521 -0.17613724 0.119645365 0.352468 -0.22016479 0.07445512 0.0003320357 -0.1920006 0.2236239 0.45816574 -0.15702872 0.014669228 -0.076211765 -0.17263564 0.13417551 0.14704996 -0.025233122 -0.030542225 0.112301975 0.1741684 -0.24229792 0.034128238 0.05509059 0.05118909 0.51740956 -0.014625013 -0.0033031763 0.34419027 -0.19442827 -0.031050747 -0.3013988 0.059093326 0.082021415 -0.5680323 0.23245049 0.10482708 0.2845782 -0.29987276 0.21303953 -0.3548358
1893 -0.066860326 0.19942938 -0.24435148 -0.13909294 -0.13998443 0.38956687 -0.0035353752 0.15332903 0.3836434 0.17850746 -0.01981641 -0.06524247 0.33444384 0.05055891 -0.04200701 -0.046734206 0.017543904 -0.49664894 0.28461045 -0.20432742 0.003770168 0.191365 0.034636326 0.11419071 0.00074598973 -0.413456 0.08270478 0.088478476 0.006208943 0.27525508 -0.11633816 -0.09725047 0.38089457 0.37771297 0.0653333 0.14548069 -0.18634313 -0.0292348 -0.1672967 0.32345808 0.16548213 0.07643382 -0.19695055 -0.074681066 -0.0335848 0.025340013 0.4418413 0.2254039 0.22423497 0.13470927 0.12909412 -0.06162626 -0.19746615 0.20151576 0.1823443 0.18751545 0.030052504 0.023732472 0.39537847 0.0631014 0.3219446 -0.21554603 0.38147485 0.51700294
1501 -0.34514716 0.07532076 -0.46925506 -0.21253689 -0.026824119 0.17030954 -0.32942268 0.056576785 0.23804832 -0.10105983 0.009913726 0.2673031 0.061208576 -0.23435816 -0.23161668 -0.19178684 0.36200967 0.23521498 -0.1727662 0.03435856 -0.2400679 -0.061812833 0.46214196 0.10171947 -0.17182276 0.06849357 0.052981496 0.18131839 -0.3885262 0.013238677 0.10989069 -0.04317515 0.12231544 0.3362743 0.0050194687 -0.06339636 -0.18681157 0.104048446 0.061172854 0.08561111 -0.3797272 -0.031230854 0.36687794 0.25068492 -0.2539359 -0.15068497 -0.25135368 -0.4719076 -0.10260913 -0.3693485 -0.4347055 0.11115807 -0.055326547 0.06852269 -0.17388377 0.1486366 0.036392506 -0.07774145 0.16326435 0.11491514 0.13607836 -0.06516407 0.004052384 0.19200346
1472 -0.3265914 0.32384944 -0.13760804 -0.49630514 -0.22430609 0.073759325 -0.151112 -0.12687582 0.12744305 0.13646685 -0.17822567 -0.12756757 0.2533098 -0.07259848 0.36096326 -0.004595066 -0.006292565 -0.38395905 -0.16230418 -0.4272554 -0.0002146967 -0.09131145 0.2152026 0.2418326 -0.20202951 -0.51435864 0.49644014 -0.11067716 -0.22554089 -0.016900618 -0.0033020112 -0.3074081 0.19622706 0.39846212 0.01960259 -0.09607152 -0.114797585 -0.033977833 -0.15265858 -0.060427316 -0.06664598 0.067946784 -0.13470633 0.11796379 -0.12012216 0.06426044 0.1347275 0.032453604 0.34601215 0.21798614 -0.1013534 -0.19268005 -0.25466883 0.27789146 0.28409472 0.36382627 0.029161146 0.14621079 -0.034698408 -0.06552766 0.25172982 -0.16143826 0.28565452 0.072591595
516 -0.2704399 0.014778215 -0.4520561 -0.03507401 0.010960266 -0.22205932 -0.21474263 -0.40641105 0.29878482 0.3157417 -0.17776819 0.14551812 0.27337086 0.041252457 -0.0865492 0.123599626 0.12494568 -0.2187732 -0.21295485 -0.12037266 -0.066093236 -0.09845014 0.25862634 0.2034289 -0.00020347309 0.19712822 0.2598266 0.45966506 -0.27232125 0.15183915 0.09231004 0.30873457 0.044821154 0.26825836 -0.0045125512 0.036691222 -0.48440322 0.31442052 0.2431528 -0.1692082 -0.28934065 0.063754395 0.08282898 0.27478418 -0.32325587 0.2016563 0.043111574 -0.29364243 -0.20793349 0.033785384 -0.25974795 -0.27727306 -0.13014784 0.12855567 -0.13932997 -0.14618912 -0.29285353 -0.008950988 0.35356233 0.06891918 0.1879108 -0.4333978 0.2232265 -0.016256195
2054 -0.11711641 -0.036462687 -0.19134465 -0.2096538 -0.20623226 0.0035046868 -0.44193974 -0.2414281 -0.1636897 -0.12172233 0.51642203 0.2083959 0.094931826 -0.25825688 -0.24417226 0.05941346 0.15566169 0.27191943 0.19681717 0.042229913 -0.060816888 -0.2241315 0.044001225 0.28843644 0.10009039 -0.08862798 0.3949497 0.19101298 -0.35670024 -0.16922586 -0.45077133 -0.059598487 -0.15809663 0.33935365 -0.46135387 -0.15860318 0.008880254 0.30646825 0.14696798 0.20090608 0.12636541 0.11862206 0.20816724 0.027870754 -0.41103154 0.044074014 0.055112768 -0.41125104 -0.032285064 -0.23566173 -0.39299005 0.49009988 0.16593483 0.21193747 -0.24831766 0.13817471 -0.30890393 -0.049654365 0.22993264 -0.15759362 0.25724015 -0.035596944 0.35182336 0.21073732
198 -0.26250592 -0.23499243 -0.3053369 -0.23048991 -0.028921675 0.15863746 -0.09579647 -0.022281941 -0.043752275 -0.14585823 -0.27057788 0.003075796 -0.17172101 0.5084297 0.37802428 -0.077460214 0.09435737 0.12002039 0.22167157 -0.22017251 0.23745115 -0.27370155 0.4236933 0.18080921 -0.33816987 0.0012236348 0.3346167 0.31462753 -0.25932407 0.23756208 0.076695494 -0.016072558 0.08602574 -0.18249345 0.23545814 -0.24786268 -0.081331246 -0.06641615 0.19210961 -0.11044169 -0.06806874 -0.46814862 -0.12319275 0.041634638 -0.4140743 -0.1856814 -0.034875453 -0.030264204 -0.0836078 -0.12988701 0.2685421 -0.17905739 0.080971636 0.11381988 -0.52673197 0.023162464 0.2461926 0.093060285 0.053230736 0.24395922 0.2706942 -0.21232088 0.08109929 0.21416841
1419 0.14389859 -0.082144625 -0.48690888 -0.4599339 -0.07522322 -0.38773254 0.120600864 -0.09688517 0.08835935 0.2380355 -0.31744045 0.12737763 0.11675336 0.4814909 0.49990046 -0.2268865 -0.079260774 0.4287806 0.07357032 -0.40155149 -0.005517361 -0.039514117 0.4148275 0.082177244 0.12252043 -0.15141794 0.39472488 0.23310272 0.17282566 0.26027626 0.4863484 -0.113549314 0.25137115 0.06689006 0.11167027 -0.17661785 0.12316126 -0.012908714 -0.064244725 -0.16992687 -0.3713128 -0.2152339 0.06905976 -0.34745306 -0.40062663 -0.09549269 0.16938163 -0.23137534 -0.35728982 -0.018323489 -0.17187586 -0.19770685 0.14608513 0.23851705 -0.16467321 0.0056273155 -0.12907675 -0.17676856 0.4787641 0.1145316 -0.024087537 -0.016334059 -0.026014492 0.21288785
1598 -0.40964678 0.43618613 -0.1586404 0.08182685 -0.3363449 0.1293715 -0.0049794097 0.08968345 0.023533171 -0.039369587 -0.14190319 0.21317834 -0.17423524 0.17303146 -0.17020443 -0.20321733 0.13038395 -0.30846882 -0.31221682 -0.33382797 -0.16959926 -0.10976156 0.08179076 0.16410016 -0.010769411 -0.36529747 0.12785992 0.19147377 0.15938933 0.072463855 -0.19161938 -0.08087225 -0.31262955 -0.12868886 -0.11605386 0.028754015 -0.10287989 0.0100170085 0.014787116 0.117307045 -0.0027889486 0.056141984 -0.26517558 0.16123927 -0.0129171405 0.4709768 0.11413058 -0.45241684 -0.21444456 -0.4944123 -0.019493414 0.13875468 -0.3672971 0.20761958 -0.30611187 0.33595383 0.21817486 0.082651004 0.7681823 -0.15711397 -0.13411294 -0.28754425 0.3224187 0.16090849
1561 0.030615468 0.082994565 -0.24127004 0.16713439 -0.21120612 0.24372971 0.083288595 0.08677903 -0.3452486 -0.107372396 -0.14380617 0.23199813 0.12936556 0.021690788 0.06254131 -0.22222218 0.016807083 -0.21876593 -0.17234698 -0.6116519 -0.30186462 -0.20838886 0.1978355 0.24424863 0.0009617009 -0.59852934 0.308004 -0.20243639 -0.23557939 -0.09939508 -0.094852634 0.061635546 0.14326736 0.23513968 -0.19011025 -0.15626398 -0.007226305 -0.1419275 0.27683565 0.02212608 0.26282772 0.15191354 0.19913317 -0.07825478 -0.381065 -0.15587665 -0.0772801 -0.25559995 0.13885154 -0.107683726 -0.13655813 0.011017415 -0.28746733 0.23004451 -0.0053152377 -0.100659154 0.09652989 0.21846789 0.026721431 0.44829324 -0.072801426 0.047412027 -0.18426417 -0.40808043
2202 -0.26740977 -0.0403774 -0.01353517 -0.1366778 -0.11524862 0.24009196 0.18994194 0.23618473 0.31296736 -0.20736726 0.15912957 0.20937838 0.007698696 0.27584273 0.04766091 -0.16579267 0.39395496 -0.13362405 0.51938987 -0.42723092 -0.04073057 0.16208342 0.3699831 0.03638562 -0.25016537 0.0045991065 0.46726525 0.17305543 0.19249964 0.045596987 0.011640813 -0.0062677064 0.03275035 -0.079312444 -0.079394564 -0.3073145 -0.10421262 0.1704626 0.11561964 -0.20714448 0.094062544 -0.15836404 0.17060758 -0.031365372 -0.44574115 -0.22616509 0.03145163 0.23831733 -0.12697504 0.11121259 0.23538838 -0.18729924 0.14474837 -0.06724437 -0.49779367 -0.11243939 0.18974094 -0.05304547 0.11185732 0.18207565 0.25360078 0.49451926 0.4583942 -0.115851864
2526 0.30367866 -0.004316233 -0.14450139 -0.3070663 -0.34630665 0.2062512 0.0746807 0.11326145 0.40088478 -0.32574034 -0.14428884 0.10575756 0.23104775 -0.021889761 0.024420075 0.08164768 0.43220788 0.47914386 -0.039901443 -0.28545386 -0.24405807 -0.33200118 -0.08919381 0.37332615 0.12016185 0.06280929 -0.12050781 0.21804461 -0.04714028 -0.15392959 -0.16458791 -0.1213276 -0.1525674 0.27951196 -0.22492033 -0.0502116 -0.28489846 0.28905705 0.3080706 -0.009646665 -0.21515496 0.17328064 0.5248841 0.30047038 0.027933594 0.33401036 -0.26106182 0.1695524 0.383164 0.2741521 -0.2205939 0.17556228 0.14454496 0.32940567 -0.21036665 0.05079266 0.13078347 -0.14462791 0.2873522 0.07962504 0.3085154 -0.3504481 -0.1534427 -0.072031215
2351 -0.46216998 0.2379166 -0.22621171 -0.12128247 0.27172926 0.11462747 -0.26249522 0.18106413 0.11880295 -0.23932764 0.19577755 0.012628745 -0.15508443 0.13705222 0.5288052 -0.13207716 0.32776657 0.07321654 -0.3277719 -0.39508006 -0.345281 0.043338783 -0.0049859304 0.36706102 0.065693006 -0.15684922 -0.011588056 0.480024 0.06336595 -0.15522581 -0.21986309 -0.18601647 0.09715743 0.29677516 -0.011817048 -0.17436051 -0.17001128 0.28667134 0.17756632 0.18843408 -0.14341098 -0.17620865 0.24505942 0.26044604 -0.22914948 0.04726506 -0.12561573 -0.14993683 0.1227251 -0.3385389 -0.32591572 0.18139887 -0.08031773 0.030269705 -0.37362444 0.124804564 0.331895 0.16546212 0.1100049 0.122432575 0.022761315 -0.329512 -0.27177536 0.15851128
1972 0.13379514 0.020583555 -0.045176126 -0.28877535 0.079207584 0.2506713 -0.11313943 0.38857365 -0.20851856 0.28136927 -0.23199794 0.38450563 -0.28027314 0.37884194 0.17303415 -0.17941506 -0.077490725 0.19299583 0.2797411 -0.09913887 0.2611249 -0.13864484 0.48334724 0.30645055 -0.05613504 -0.14368932 0.20621558 0.445706 -0.47230747 -0.018266078 0.26733792 -0.08912854 0.20723727 -0.056549206 -0.2027293 -0.26624522 -0.08274818 0.117677465 0.18146946 -0.0374795 -0.0013021746 -0.5789067 0.09606275 0.13573907 -0.23094206 -0.11535026 0.24328096 -0.15754406 -0.14144492 0.04264983 0.13404068 0.17766261 -0.039607488 0.2720031 -0.40794203 0.09211657 0.10797482 -0.19707902 0.42592552 0.30351967 0.036077667 -0.24553853 0.14868656 -0.021322211
1624 -0.2953131 0.09980205 -0.31188595 0.34954572 -0.1266646 -0.24474931 -0.23217867 -0.27357817 0.2810355 -0.12995906 -0.1365289 0.13541001 0.11663958 -0.14882796 -0.24031886 -0.0895735 0.15338048 0.116551206 -0.0069043245 0.12846471 -0.041348074 -0.5121664 0.16675922 -0.10012453 -0.04590461 -0.05347822 0.3709709 0.21011491 -0.1155948 0.020986332 -0.14815491 0.40312982 -0.13626668 0.4343525 -0.29783496 0.23351014 0.060564976 0.09102395 0.17927296 -0.047977235 0.044946983 -0.023716353 -0.18098776 0.09435015 -0.53887886 -0.08454997 0.037099317 -0.5437253 0.0434176 0.1528692 -0.32949594 0.14926273 -0.1775814 0.20294349 -0.31849152 0.2439036 -0.12712346 -0.027856875 0.36616185 -0.08212749 0.004222705 -0.102191314 0.2972625 -0.0040351
384 -0.055026874 0.02855674 0.10083073 -0.21214633 -0.43442523 0.27305877 -0.34937498 -0.22402126 0.0876015 -0.2713831 -0.20623007 0.5069791 0.20317061 -0.022247607 -0.22446814 0.11790813 0.53569496 0.20200443 0.11525618 -0.31234336 -0.21526444 -0.06401578 0.075483054 0.4105956 -0.096094795 -0.0013612844 -0.18491557 0.23114829 0.19945979 0.1647385 0.15898457 -0.14053752 0.2036594 0.23562154 -0.23807049 0.18293394 -0.35446766 0.20145206 0.25770143 0.032978904 0.064531736 -0.16099396 0.8415936 0.32815167 0.14399068 0.041653324 -0.002352661 0.19779502 -0.03752535 -0.08897183 -0.25055593 0.08143179 -0.09571147 0.06496175 -0.47179717 0.42518443 -0.23142938 -0.0050722007 0.1380573 0.18956241 -0.013011265 -0.14056027 -0.24468997 0.0028006064
390 -0.10975069 -0.12539187 -0.07561378 -0.6292748 0.034345303 0.14289305 0.12559941 0.14218207 -0.012736336 0.07570738 -0.50382066 0.09116218 0.17768559 0.3552039 0.30434218 -0.10264578 0.38964236 0.51950765 -0.09609813 -0.16253635 -0.40105116 -0.28903824 0.24523792 0.28385067 -0.015773818 -0.23194645 -0.05724076 0.14303298 -0.31936115 -0.010737704 0.19082336 0.24589731 -0.1685058 0.014081252 -0.08959777 -0.091652915 -0.3538551 0.15466583 0.17023517 -0.014676687 -0.33510977 -0.23293298 0.1772082 -0.14580442 -0.08866499 -0.031112356 -0.13934067 0.058600362 0.10014047 0.31321114 -0.26452115 0.060286984 0.20044863 0.31982988 -0.12298957 -0.10694171 0.34868136 -0.5811544 0.40614057 -0.0800152 0.24217835 -0.3560278 -0.052403647 -0.17856339
1667 -0.2689429 0.055094548 -0.15774463 0.3987791 -0.057566013 -0.2503272 0.008706799 0.290482 -0.28102013 -0.05983144 0.058509953 0.2763453 0.122338116 -0.032478284 0.05799612 -0.12166396 0.42729303 0.1431569 0.028068682 -0.47746465 -0.2453311 -0.055773526 0.39112708 0.14508052 0.10221703 -0.44431376 -0.03061061 0.13706201 -0.10990803 -0.00023658689 -0.1946951 -0.15181175 0.30283937 0.30781692 -0.3044039 -0.0203653 -0.5085165 -0.05548174 0.13031153 0.076007575 0.041686784 -0.07502191 0.45158994 -0.107178405 -0.17288692 -0.026506469 0.061922368 -0.045483593 0.27316293 -0.07808101 0.26605052 -0.07820319 -0.2768217 -0.11512839 -0.0032021308 0.044803686 -0.042281907 -0.10136349 0.40192246 0.17592895 0.25457117 -0.23944542 -0.34620377 -0.14883181
230 -0.16066414 0.09960034 -0.24268308 -0.09847183 -0.30125192 0.44693694 -0.155121 -0.20848529 0.34032094 -0.06547156 -0.002721719 -0.0791617 -0.033622317 -0.11553807 -0.04431174 -0.21307212 0.024848051 0.19733556 -0.4531445 0.013976818 -0.17247765 -0.12535463 0.18560244 0.15274143 -0.098344624 -0.07843228 0.18305695 0.39345846 -0.063620925 -0.47687393 -0.08663594 0.23140688 0.025764685 -0.00020726348 -0.2511379 -0.539487 -0.22182815 -0.1664917 0.36783406 0.2379223 0.023443444 -0.55129 0.07429925 -0.31904876 -0.40542263 -0.2649376 0.07278031 -0.0998506 0.27181548 -0.35893977 -0.110988125 0.26318133 0.49965525 -0.117584474 -0.4060421 0.10519591 0.29378226 0.0189959 0.25948137 -0.009377222 0.22238237 -0.017470324 -0.010468117 0.27840924
202 -0.026617972 -0.028251145 -0.49550444 -0.46039984 0.1319436 -0.053871635 -0.20584805 0.054515205 0.060389757 0.2176617 -0.41567993 0.38481534 0.38423085 0.07002733 0.046383712 -0.15889464 0.20479041 -0.41794854 -0.19493487 -0.26593837 -0.017620089 -0.098637104 -0.07316302 0.4309678 0.099923484 -0.13816626 0.11591313 0.08963201 -0.10039495 -0.053254325 -0.05776233 0.15639602 -0.03633469 0.18734992 0.03270422 -0.11288238 -0.57575715 0.08151163 0.25603876 -0.045603696 -0.06029563 -0.12210977 0.16031715 0.05510825 -0.34963164 0.4416871 -0.28473058 0.14578953 -0.1498584 0.17820813 0.16181067 -0.068787396 0.26108325 0.33067313 0.028309183 -0.029240321 -0.07394834 0.1569999 0.08793124 -0.13697971 0.4027288 -0.1660424 0.06861737 0.06307904
623 -0.17096289 -0.05100971 -0.33864892 0.095664434 -0.16834551 -0.2062551 -0.12071966 -0.01040815 0.09608191 0.01911054 -0.20278348 0.18715572 -0.0011249793 -0.17541923 0.361715 -0.23970753 0.22046159 0.12412141 -0.16765787 -0.030485792 -0.33595225 -0.55996716 0.2285106 0.53079784 0.19848801 -0.24092682 0.09800837 0.334282 -0.6672212 -0.14020261 0.011183007 0.19297461 0.06360297 0.5271547 0.0075963084 0.5482581 0.16258982 -0.08783111 0.34739828 0.16253825 -0.123966016 0.20048267 0.30428028 0.2525069 -0.2219974 0.38278136 0.25980884 -0.1438475 -0.295433 0.11020885 -0.41944474 -0.13049892 0.23722774 -0.14856197 -0.4348664 0.08321679 -0.014345485 -0.111158475 0.0722075 0.08474694 0.14438869 0.03286264 0.4079605 0.43182966
537 -0.087324865 0.27126855 -0.3266054 -0.35209772 -0.061062023 0.43061408 -0.14393502 -0.08788332 0.20878184 -0.29130492 -0.26427376 0.31834468 0.3849726 0.09363396 -0.16027686 -0.33081716 0.75408304 0.43217874 0.07088244 -0.018328724 -0.26168433 -0.2696901 0.13913898 0.22651587 0.36795974 -0.17927445 -0.27955148 -0.23319308 0.04569738 0.10346224 -0.41938686 0.21729477 -0.11300343 -0.14814377 0.23592433 0.16166124 -0.26364213 0.13243264 0.28992075 0.04416337 -0.02436139 -0.119255394 0.20797548 0.045839075 -0.20316215 0.22884521 -0.091596045 0.04876609 0.3186303 -0.057190083 -0.025919791 0.015861444 0.1744203 0.30318058 -0.25379473 0.20387599 0.14958361 0.027523486 -0.027857581 0.0035913163 -0.13745801 -0.016764972 0.22543398 -0.16761853
2216 0.20603354 -0.03610479 -0.34246448 -0.16640072 -0.18488453 0.15916 -0.029256737 0.05378816 -0.022723787 0.010355141 -0.35452878 0.16102433 -0.037011065 -0.24548298 -0.08403095 -0.23194472 0.31584775 -0.15819386 0.0289313 -0.36089244 0.04195886 -0.2548514 0.25686416 -0.3139625 0.41083908 -0.36212662 0.14670904 0.12822942 -0.028651046 0.18909758 -0.039679762 -0.3008762 0.00069127465 0.013309087 0.09552536 -0.24556403 -0.102009304 0.20504257 0.18979746 -0.2038746 -0.133332 0.0038009908 0.14746375 0.52197737 -0.46276823 0.008872782 -0.09656897 -0.41905102 0.014008729 -0.41298762 0.12071873 0.3820433 -0.1962547 -0.15526253 -0.15903455 0.1599456 0.32596603 -0.21043219 0.20375043 -0.1299322 -0.15603946 -0.024592675 0.38526976 0.18383613
2445 -0.14304507 0.09227203 -0.15754664 -0.068872705 -0.2671092 0.37652192 -0.1560378 0.045385674 0.40204433 -0.051866867 -0.5020014 -0.21380602 -0.21328995 0.15740837 -0.34635586 -0.18450102 0.6744135 -0.18873848 -0.03694646 -0.5174936 -0.12285709 0.054432347 0.12937587 -0.2908433 0.048181888 -0.46192014 0.040885728 -0.07270453 -0.066965 0.21699463 -0.27003512 0.04039812 -0.07189004 -0.32596982 0.20168018 -0.066525 0.040840533 0.21482095 0.14580864 -0.08075407 -0.08727971 0.03259409 0.0620672 0.112163834 -0.3679387 0.2826321 -0.18303572 0.118952125 0.024236348 -0.31913778 0.055178475 0.2744257 -0.09437046 0.16558659 -0.074386984 0.25888637 -0.1170121 -0.116580255 0.26542643 0.08221587 -0.23818433 0.1422597 0.4483336 0.16016829
1370 -0.27104273 -0.14015682 0.19852333 -0.2836058 -0.1942595 -0.00043470014 0.2251188 -0.030398995 0.091342874 0.25180283 -0.27181393 0.05829148 0.31309372 0.2972162 0.14399144 0.014611899 0.074866146 0.5392713 0.21150468 -0.5093602 -0.05666062 -0.14328709 -0.0037908899 0.24534234 -0.10914495 -0.12933609 0.20128198 0.3854836 -0.12304025 0.027511 0.4419086 0.029517017 -0.084702365 0.23894383 -0.2317881 -0.168805 -0.031502616 0.1927089 -0.15005694 -0.30639905 -0.21457304 -0.18925802 0.059843473 0.39103445 -0.31465307 -0.094106115 0.06756655 -0.2445732 -0.019930877 -0.0917345 -0.17082247 -0.03932577 -0.12338154 0.41661823 -0.46956488 0.04321171 0.21197283 -0.38302648 -0.06239542 -0.015070241 0.4333694 -0.17675339 0.36111367 -0.08014754
726 -0.26519307 0.13708118 -0.06808269 -0.015882673 0.04862693 0.6467948 -0.16915362 -0.19075337 0.23730737 -0.16375792 0.08161863 0.24155508 0.17417458 -0.27256927 -0.071215995 -0.12595409 0.22998247 0.41288438 -0.2985932 -0.052667856 -0.22705217 -0.3060909 0.36596882 0.26497367 -0.06115442 -0.17648953 0.058345463 0.37672228 -0.32068783 -0.25427905 0.114663556 -0.018176803 0.1882731 0.30270678 -0.10632111 -0.16201103 0.08024556 0.08093187 0.37298915 0.5528973 -0.05684232 0.27456123 0.43858442 0.15035345 0.07665625 0.04304415 -0.104418285 -0.15850577 -0.0123282885 -0.05457184 -0.20056644 0.0073313653 0.23065127 0.08968392 -0.33061635 0.11270827 0.0651804 0.20342694 0.3545256 -0.10003836 0.060916387 -0.064572684 0.21666646 0.12095846
98 -0.022472061 -0.42904234 -0.1259968 -0.22593194 -0.10692547 0.37135687 -0.4603669 -0.24587995 0.208902 -0.0103632575 -0.07831161 0.3849159 0.04913506 -0.11069917 -0.008213635 -0.08543013 0.49781227 0.09184392 0.08199028 0.3899833 -0.50517297 -0.15227939 0.4295525 0.17284118 0.16431385 -0.22851157 0.40220076 0.24875346 -0.32724673 -0.029301021 -0.20146976 -0.29898474 -0.12807377 0.61087716 -0.007418749 0.106312275 -0.32144168 0.33625907 -0.13316977 0.14262304 0.043682728 0.3434677 0.076930664 0.2045564 -0.32493123 0.2885612 0.06981654 -0.16679843 -0.18188404 -0.16423191 0.0037908703 0.16358039 0.10068838 -0.14807995 -0.3174172 0.031867635 0.09749216 -0.349582 -0.017178522 -0.025001984 -0.05204936 -0.043243293 -0.06613069 0.12299575
2852 0.02377964 -0.20106523 -0.2935736 -0.5785892 -0.13947739 0.32723376 0.092888705 -0.047328137 -0.038527753 0.2031729 -0.31651893 -0.016393125 -0.4330617 0.19615152 0.33613178 -0.054810572 0.23059058 0.12649907 -0.07208335 -0.302548 -0.065096505 -0.0282845 0.35484427 0.36423215 0.06174876 0.464833 0.3926878 -0.1044937 -0.44351643 0.24724467 0.02500401 -0.0952945 0.14982854 -0.07349015 0.057219204 -0.081257366 -0.3156101 -0.029221984 0.2776541 -0.24538453 -0.11630199 -0.34094515 -0.10170401 -0.24801943 -0.28806558 -0.3253899 0.044125106 -0.28932825 -0.0026209708 -0.18158932 0.047612593 -0.09538785 -0.052424878 0.036355767 -0.6672337 0.18973641 0.013504 0.14107592 0.3080846 0.2957763 0.2289492 -0.11476159 0.07293103 0.03278341
1137 0.15538818 0.23543997 0.24588327 -0.16133453 -0.17729686 -0.06522202 0.14236644 0.058127493 0.06513483 0.0052014836 0.008786952 -0.44036594 0.663564 -0.1413112 0.03761809 0.054555185 0.3953455 0.1301731 0.03819753 -0.19767034 -0.27281475 -0.19654147 -0.061207607 0.40140635 0.014984867 0.038833853 0.34333 0.27663696 -0.5226811 0.14525937 -0.24471973 0.18002613 0.04061031 0.14497368 0.042721074 -0.1277965 0.041654784 0.07148217 0.30466726 -0.07428151 0.023240803 -0.080913976 -0.21587193 0.2695571 -0.2322886 -0.27493456 0.2949598 -0.1316097 -0.06346546 -0.21036787 -0.32739222 0.29965916 -0.15852992 0.08482843 -0.39990252 0.52964157 -0.21176997 -0.23437253 -0.047529828 0.30536452 0.11735902 -0.47355664 -0.21177605 -0.084978625
2407 0.0595305 0.118174694 -0.36356533 -0.14430681 -0.25104392 -0.405063 -0.34539968 -0.1945006 0.26213384 0.35995212 -0.14532147 0.04179433 0.161843 -0.018668925 -0.23682949 0.055897124 -0.086392425 -0.42724988 -0.19334492 -0.16914512 0.18653832 -0.40504354 0.7745693 0.13165136 -0.30855277 -0.16398335 0.26743755 0.23320717 -0.20881142 0.05947695 -0.16566312 0.16413034 -0.06892544 0.52298313 0.2076493 0.0766501 -0.19779396 0.28126046 0.099049106 -0.090442106 -0.06909624 0.029646778 -0.18882638 -0.023909703 -0.54078704 0.36958665 -0.020430641 -0.13531983 0.061197698 -0.02127074 -0.01715147 -0.35131297 0.19650663 0.009054004 -0.24494082 -0.1719316 -0.1590845 0.27843684 -0.09132615 0.3571775 0.1259751 0.03861268 0.2770377 0.2830223
2417 -0.25278386 -0.03773551 0.047762245 0.022838319 -0.1629507 0.30208007 0.16083798 -0.12920465 -0.09747522 0.010221461 0.1840398 0.019390987 0.10248099 0.20334513 -0.008815557 -0.39394182 0.23149227 0.12789868 0.16454864 -0.4331316 -0.26640487 -0.10559749 0.14523818 0.2251688 0.0005378072 -0.27055335 0.40036795 0.21173722 -0.08375885 -0.15810633 -0.3850701 -0.09874172 0.27077353 0.2217218 -0.041350212 -0.27058917 -0.35458514 -0.0049074697 0.1090718 0.17707819 0.46830976 0.045337167 0.48379827 -0.006956968 -0.18517256 0.17152545 0.105487905 -0.0033807566 0.15364142 -0.11541061 0.23894449 -0.35839862 0.022446813 -0.38521177 -0.22133103 -0.056735635 -0.19987413 0.31580114 0.28513822 -0.18477166 0.21057245 0.06455968 -0.069139734 -0.17343223
49 0.039991446 0.10993764 -0.36804745 -0.13271049 -0.23367824 0.28703398 0.00087745255 0.14011829 0.2188301 0.27399448 -0.17287879 -0.03762874 -0.3808901 0.3846418 0.01875144 -0.37825075 0.18008873 -0.23835778 0.41046733 -0.42166305 0.012132157 0.012515886 0.32838255 0.55428493 0.103577904 -0.4575125 0.22836697 -0.022199715 0.12783061 0.02101426 -0.10051652 -0.13677411 -0.38112763 -0.12070373 -0.25031278 -0.07123764 0.09577249 -0.07532388 0.22789472 -0.4475341 0.1337234 0.0111540295 0.16417393 -0.0128438985 0.021804806 0.034980077 -0.13776182 -0.09223043 -0.25803956 -0.066469505 -0.10831702 0.015920479 0.18505855 -0.065978006 -0.43443885 0.043638512 0.021723889 -0.046664696 0.23122847 0.15504809 0.18773274 0.08068983 0.39125174 -0.06027274
1141 -0.4063031 -0.0394582 -0.20119455 0.2224991 -0.32867965 -0.34604073 0.24638909 0.15435368 0.109964356 -0.10169683 -0.1247426 0.1576161 -0.09256524 0.28909385 -0.051225785 -0.3533849 0.09076769 0.12571953 0.0921705 -0.5610638 -0.335864 0.092856556 0.32344475 -0.14007287 0.034251105 -0.59429103 0.23452793 -0.10789481 0.022647725 -0.028171094 -0.110355206 -0.21279006 0.15839583 0.20441343 -0.34335527 -0.14496809 -0.24166344 0.009331193 0.3314321 0.05194119 0.35409987 0.1095945 0.46383908 -0.05690859 -0.25400394 -0.12599789 0.3744182 0.04838444 0.0562037 -0.03477631 -0.04790977 -0.09436769 -0.09089876 0.18827319 -0.007634718 -0.19386439 -0.17600809 0.35972306 0.29752937 0.46956444 0.16525409 0.23370811 -0.24941675 -0.57344955
2324 0.23385072 0.25985774 -0.2291782 -0.4014628 -0.08414599 0.3237827 0.13396527 0.27156514 0.3057997 -0.2749797 -0.20128703 0.3397138 0.24918549 0.096665844 -0.15722942 -0.031852886 0.58575183 0.6611074 -0.08944356 0.046168745 -0.21813096 -0.32557514 -0.14484769 0.43053436 0.2751048 -0.06540203 -0.23970124 0.20200825 -0.09947172 -0.11188902 -0.18866412 0.06404517 -0.07154858 0.22412907 0.053985085 0.059463017 -0.36931127 0.1000631 0.28480887 0.005396426 -0.28254187 -0.25162673 0.34571505 0.08244612 -0.14084229 0.40523174 -0.06745522 0.2849297 0.5008288 0.20074289 -0.15332001 0.2662688 0.25602406 0.3826944 -0.13614036 0.1670738 0.13493212 -0.004773161 0.2109734 0.088019624 0.08650614 -0.14288136 0.20187598 -0.13904847
304 -0.020681838 0.1796876 -0.27807808 0.1473214 0.11472183 0.1756571 0.494906 0.3201955 0.16171011 -0.07629506 -0.18096332 -0.1076687 0.1385347 -0.039767493 -0.071448 -0.0263126 0.06011508 0.4386936 -0.14222655 -0.5166764 -0.49865633 0.016449854 0.26339927 0.026655307 -0.07555672 -0.2769034 0.2524434 -0.062844224 -0.053541563 -0.12372021 -0.106150955 -0.2330242 0.18382043 0.24966054 -0.25866124 0.3534857 -0.39903155 0.052876938 0.11331303 0.037649587 0.046407945 -0.07055265 0.09279714 -0.14319852 -0.46524018 -0.17546496 -0.1716777 -0.058907676 -0.00975699 -0.49899486 0.019811403 0.17310159 -0.19356056 -0.18997051 -0.21634282 0.09616226 -0.25091222 -0.32093027 0.11158656 -0.24062583 0.52691436 -0.050715566 -0.36095512 -0.07329992
843 0.20915353 -0.09006817 -0.37687746 -0.34346497 -0.35858026 0.24106048 0.023734877 0.16491124 0.37769303 0.08093183 -0.19448121 0.01831931 0.07583891 0.123491235 0.09070185 0.13368179 0.21737154 0.07225026 0.4543441 -0.14733584 -0.14629139 -0.5305311 -0.18007797 -0.0046900734 -0.062224574 -0.21162967 -0.05829335 0.14330573 0.41258115 0.078159176 -0.040832106 0.122945465 -0.13552582 0.12259528 -0.22201137 -0.032751366 -0.4867359 -0.11438083 0.07537807 0.08935483 0.14004962 0.0535939 0.21858294 -0.026945308 0.16636738 0.33693528 -0.26556495 0.41789755 0.21731232 0.353573 -0.016740697 0.11263569 -0.12638292 0.4193113 -0.31940073 0.010999461 0.18458842 0.09511666 0.58714 0.16585538 0.21065769 0.26997057 -0.23791829 0.1382149
630 0.24661566 -0.1149145 -0.51879764 -0.1754792 -0.3163114 0.42360896 -0.19717431 0.02616977 0.06733025 0.1780137 0.033513613 0.116383426 0.25307798 0.07805087 0.3116152 -0.4976534 0.25287881 0.09476238 -0.061539352 -0.11594356 -0.31392044 -0.10008471 -0.072105035 0.35745475 0.25035754 -0.3894626 -0.09188327 -0.10162445 -0.18695492 -0.000120374265 -0.3735183 0.28016162 -0.18639821 0.18354751 -0.1353098 -0.06530984 -0.28985676 0.10238725 0.16748148 -0.1222211 0.083204426 -0.07034162 0.3787792 -0.00751267 -0.07503425 0.06806606 -0.014529566 0.06321999 0.35433936 0.029595217 -0.11170283 0.20752607 0.22647834 0.22339222 -0.16182177 -0.090839304 -0.20865619 0.025099188 0.19634524 -0.006955817 0.15121485 0.08198837 -0.18811196 -0.28375185
2969 0.12779482 0.12419427 -0.39698458 -0.32353604 -0.0015605534 0.5860617 -0.10629125 0.0406349 0.11466176 0.3702961 0.15010603 -0.3072812 0.12791298 -0.13722603 0.08804587 -0.32624418 0.40026838 0.22899902 -0.21134116 -0.30864057 -0.42410338 -0.20929445 -0.0060775187 0.4149431 0.004264136 0.08579073 0.17437363 0.017531876 -0.11580328 -0.027654935 -0.20049194 0.004487353 -0.031619746 0.28692716 -0.1814407 -0.25198528 0.016205458 -0.008857562 0.3252987 -0.0098817265 0.20130287 0.13775052 0.4883097 -0.103758894 -0.19174092 -0.0016462951 0.0003822437 -0.07329768 0.36592904 -0.035962157 -0.0011630454 0.038806103 0.25892612 -0.050787482 -0.17145732 -0.017932415 -0.13476509 -0.08761144 0.17459078 0.12442398 -0.07720415 0.19543582 0.05958263 -0.027143262
1632 -0.17026685 -0.022122938 -0.5074413 0.1625812 -0.3931793 0.14005996 -0.28005198 -0.23137133 0.19558075 0.25805444 -0.4870559 0.11558021 0.37572998 -0.15656836 -0.14960374 0.03757334 0.20361373 0.14734289 0.17721637 -0.13914116 -0.20414263 -0.2270623 -0.33159336 -0.085007764 0.023504145 -0.45258996 0.1657299 -0.08029015 0.20861354 0.563387 0.26590353 -0.10284741 0.2365074 0.17652231 0.20661639 -0.33218065 0.0934962 -0.33622158 -0.24911365 0.28008476 0.31139213 -0.07909814 -0.5066385 -0.039339542 -0.09968425 0.20221657 0.3457295 0.09029796 0.076256186 0.47706458 0.07952505 0.17821068 -0.15574552 0.15303339 0.0022335716 0.12972012 0.30539516 0.30659527 0.54182565 0.30494362 0.6547416 0.50611 -0.053500634 0.40731466
2723 0.25167286 -0.10348829 -0.3034288 -0.32184932 -0.087244265 0.4349519 0.053673293 0.13178016 0.05540138 -0.06225596 -0.32796094 0.13623364 0.22448187 -0.02259502 0.23009281 -0.34010938 0.3377281 0.32607713 -0.21377973 0.063273646 -0.25276434 -0.3335443 0.021743884 0.32981893 0.13941085 -0.26943526 0.10184434 0.20107259 -0.12336448 0.27111566 -0.14265925 0.057353593 -0.17176928 -0.0024198028 -0.28356856 0.012114535 -0.33677852 0.024207264 0.14287588 0.40248755 -0.22362447 -0.043757502 0.47265 0.2325566 -0.13869111 0.3306581 0.04167124 -0.06028024 0.018649528 0.07579913 -0.13664867 0.19645904 0.48413247 0.053126696 -0.28031695 0.19005111 0.13554306 -0.17638716 0.040263735 0.0854044 0.3534037 -0.13849787 -0.22753026 -0.1333587
